tree
version=v2
num_class=1
num_tree_per_iteration=1
label_index=0
max_feature_idx=21
objective=regression
feature_names=Player Num_Game Tm Opp Mins FG FGA FGPct 3P 3PA 3PPct FT FTA FTPct ORB DRB TotRBs AST STL TOV PFouls GmSc
feature_infos=663:45 [1:80] 8:0:9:2:4:16:21:24:7:15:18:27:29:1:10:12:14:17 28:10:4:23:3:15:17:24:2:11:13:19:0:1:6:9:12:20:26 [0.56000000000000005:41.43] [0:14] [0:25] [0:1] [0:8] [0:16] [0:1] [0:10] [0:10] [0:1] [0:7] [0:15] [0:21] [0:10] [0:5] [0:5] [0:5] [-2.1000000000000001:33.899999999999999]
tree_sizes=3108 3159 3156 3180 3200 3176 3216 3199 3211 3190 3225 3206 3219 3210 3219 3217 3226 3221 3213 3179 3205 3202 3203 3168 3215 3188 3205 3183 3204 3196 3170 3205 3245 3198 3231 3201 3187 3215 3211 3224 3216 3205 3216 3204 3185 3239 3201 3273 3221 3173 3237 3174 3210 3220 3190 3215 3196 3206 3230 3175 3128 3212 3161 3202 3225 3184 3219 3193 3229 3209 3189 3234 3168 3214 3178 3178 3200 3241 3179 3222 3191 3178 3189 3221 3198 3207 3213 3241 3227 3254 3162 3212 3284 3196 3204 3174 3237 3190 3198 3177

Tree=0
num_leaves=40
num_cat=0
split_feature=5 5 5 5 5 11 11 11 5 5 11 5 5 5 11 11 8 11 5 8 8 8 11 11 11 8 11 8 8 5 8 11 8 11 5 11 6 8 5
split_gain=4.02407e+06 823361 506920 234374 98041.9 79971.5 77471 44394.6 38816.1 37000.5 33575.9 27491.3 20554.2 18078.1 16724.5 15957 13438.5 12157.6 10669.6 10568.5 9946.08 9636.6 8461.49 8212.65 7123.2 6694.48 6561.53 5972.27 5084.35 4818.79 4600.07 4252.38 4196.6 4109.18 3932.73 3702.89 3585.55 3301.29 3286.57
threshold=4.5000000000000009 7.5000000000000009 1.5000000000000002 11.500000000000002 2.5000000000000004 3.5000000000000004 4.5000000000000009 2.5000000000000004 1.0000000180025095e-35 5.5000000000000009 7.5000000000000009 9.5000000000000018 3.5000000000000004 9.5000000000000018 7.5000000000000009 1.5000000000000002 2.5000000000000004 1.5000000000000002 5.5000000000000009 3.5000000000000004 3.5000000000000004 2.5000000000000004 4.5000000000000009 7.5000000000000009 7.5000000000000009 1.5000000000000002 1.5000000000000002 1.5000000000000002 1.5000000000000002 6.5000000000000009 2.5000000000000004 3.5000000000000004 1.5000000000000002 3.5000000000000004 6.5000000000000009 2.5000000000000004 24.500000000000004 2.5000000000000004 3.5000000000000004
decision_type=2 2 2 2 2 2 2 2 2 2 2 2 2 2 2 2 2 2 2 2 2 2 2 2 2 2 2 2 2 2 2 2 2 2 2 2 2 2 2
left_child=2 5 8 6 15 9 11 12 26 25 19 21 28 23 18 -4 29 -10 -7 31 -12 35 38 37 -15 -2 -1 -14 -6 -11 -13 -5 -20 -17 -18 -3 -21 -8 -9
right_child=1 3 4 10 7 14 13 22 17 16 20 30 27 24 -16 33 34 -19 32 36 -22 -23 -24 -25 -26 -27 -28 -29 -30 -31 -32 -33 -34 -35 -36 -37 -38 -39 -40
leaf_value=8.6782132085487831 10.995184965894493 12.422394399648736 9.6457285647840383 14.497890557552566 10.096398848526263 11.910684196819977 13.360699751330419 10.725856688318169 9.1639534596353638 11.50630949507855 16.377335029666995 13.463210930818228 10.510149015165876 14.52338647771222 13.37126677696409 10.045465332130679 12.006924404774049 9.6654343700260288 12.341829952358935 15.578998816425962 18.138053629060323 13.202622614619569 11.563631988902356 14.515318821492954 15.454270418331472 11.421606655858016 9.1604944243444777 10.900805722343151 10.430915456162941 11.92465127040008 14.089542791356534 15.361617250212966 12.856959863639037 10.560108540894802 12.495412289676333 12.936353490703659 16.445051272515965 14.035630765367067 11.166369680376185
leaf_count=9074 2998 1562 7399 440 5801 1339 713 1334 8681 2770 259 913 3679 802 802 2541 1394 2490 1224 453 256 1967 1342 659 560 2896 1291 2724 2649 1831 971 478 1315 822 1255 878 335 492 1376
internal_value=0 9.28971 -5.36341 15.793 -2.68256 5.00692 13.6343 -1.31093 -9.05639 3.74292 25.0431 11.5909 -2.11134 17.6188 8.55682 -5.09199 5.25574 -7.76303 7.69681 22.9058 32.1222 10.2237 1.62293 15.5941 20.3894 1.88197 -10.4503 -0.759846 -3.13537 4.22242 14.7887 20.5971 8.90168 -3.28551 7.0503 8.89524 25.5949 14.0401 0.605804
internal_count=80765 29562 51203 11738 29667 17824 9517 18905 21536 13144 2221 6291 14853 3226 4680 10762 7250 11171 3878 1706 515 4407 4052 1864 1362 5894 10365 6403 8450 4601 1884 918 2539 3363 2649 2440 788 1205 2710
shrinkage=1


Tree=1
num_leaves=40
num_cat=0
split_feature=5 5 5 21 5 11 6 11 5 5 5 5 11 6 11 11 5 8 11 11 11 11 5 8 8 8 11 8 12 8 8 5 8 8 11 5 8 11 7
split_gain=2.57545e+06 526959 324428 154990 62747.2 53015.6 38175.6 30808 30105.2 24840.9 18876.3 16483.7 16052.8 14029.4 10211.4 9789.42 9553.89 7992.85 7779.64 6529.54 6045.38 5910.27 5316.09 5128.89 4647.88 4584.47 4385.58 3567.77 3433.16 3156.94 3037.51 3002.38 2969.86 2936.73 2882.37 2832.9 2791.8 2718.44 2680.23
threshold=4.5000000000000009 7.5000000000000009 1.5000000000000002 24.300000000000004 2.5000000000000004 2.5000000000000004 24.500000000000004 1.5000000000000002 9.5000000000000018 1.0000000180025095e-35 5.5000000000000009 6.5000000000000009 3.5000000000000004 17.500000000000004 1.5000000000000002 4.5000000000000009 3.5000000000000004 1.5000000000000002 1.5000000000000002 4.5000000000000009 3.5000000000000004 7.5000000000000009 3.5000000000000004 3.5000000000000004 4.5000000000000009 2.5000000000000004 1.0000000180025095e-35 4.5000000000000009 7.5000000000000009 1.5000000000000002 1.5000000000000002 6.5000000000000009 1.5000000000000002 1.0000000180025095e-35 4.5000000000000009 11.500000000000002 1.0000000180025095e-35 7.5000000000000009 0.45250000000000007
decision_type=2 2 2 2 2 2 2 2 2 2 2 2 2 2 2 2 2 2 2 2 2 2 2 2 2 2 2 2 2 2 2 2 2 2 2 2 2 2 2
left_child=2 5 9 8 14 10 13 16 12 26 25 19 23 -5 33 22 36 -12 -11 30 35 -13 -9 -3 -8 -2 -1 -15 -26 -14 -7 -19 -18 -4 -16 -10 -6 -21 -30
right_child=1 3 4 6 7 11 24 15 20 18 17 21 29 27 34 -17 32 31 -20 37 -22 -23 -24 -25 28 -27 -28 -29 38 -31 -32 -33 -34 -35 -36 -37 -38 -39 -40
leaf_value=-1.7356306750424833 0.13171859224501736 1.4065600617118823 -1.0814587813392087 2.6990766014223517 -0.75528834977375081 0.6307498246860308 4.4838398305137011 -0.1809786291247128 2.2402986242666372 -1.3315004869150604 0.50692153684304353 1.5612218619710174 1.9592449691530534 3.4659314166737718 -0.59226291406226694 0.58824230179346093 -0.3459331601734385 0.80729666890016338 -0.93031578776348067 1.1726920027748691 2.987106203346642 2.4845881752851535 0.18420596359447278 1.9438313454938083 4.7541138695026275 0.55589145021235697 -1.4053946319676354 4.0896126660747809 5.1598578395613712 2.4561204865161592 1.0657038266555123 1.1849461085940709 -0.026050891518246966 -0.82861568228516058 -0.010463264886434977 2.8813953659751199 -0.48130887237564546 1.7225821219416109 6.6515012094530013
leaf_count=8369 3681 2615 3437 920 2330 1459 381 3327 1297 8681 2582 1810 883 1111 2978 1342 2649 1922 2490 1505 1077 328 3062 978 145 1410 1996 552 83 1226 1150 1503 2068 3962 385 352 4127 474 118
internal_value=0 7.43185 -4.29074 12.6346 -2.14606 4.00559 18.4331 -1.04874 10.3572 -7.24513 2.66288 6.221 9.0501 16.6308 -4.07361 0.485929 -2.11058 3.86355 -6.21043 5.15206 13.091 8.51463 -0.0297208 7.76415 24.8359 1.24608 -8.36023 18.3651 27.4955 11.2407 4.11254 4.86525 -1.02857 -4.7304 -2.62844 11.886 -2.90095 6.52225 30.1802
internal_count=80765 29562 51203 11738 29667 17824 3310 18905 8428 21536 11098 6726 5702 2583 10762 7731 11174 6007 11171 4588 2726 2138 6389 3593 727 5091 10365 1663 346 2109 2609 3425 4717 7399 3363 1649 6457 1979 201
shrinkage=0.2


Tree=2
num_leaves=40
num_cat=0
split_feature=5 5 5 11 5 5 5 5 11 11 5 11 11 11 11 8 11 11 8 11 8 8 8 8 9 8 11 8 11 11 11 5 8 11 5 11 8 11 8
split_gain=1.65485e+06 339280 234257 47400 46189.7 38929 37606.3 24458.9 20513.6 17057.7 15897 11593 8280.01 8202.98 7758.96 7405.32 7028.21 5867.7 5110.85 5071.19 5063.73 5013.75 4624.2 4567.83 4139.83 4076.67 3243.48 3203.91 2976.08 2952.28 2839.49 2729.62 2547.2 2545.5 2277.15 2245.17 2139.01 2077.64 2015.77
threshold=5.5000000000000009 2.5000000000000004 9.5000000000000018 4.5000000000000009 1.5000000000000002 3.5000000000000004 11.500000000000002 7.5000000000000009 1.5000000000000002 7.5000000000000009 1.0000000180025095e-35 7.5000000000000009 7.5000000000000009 1.5000000000000002 4.5000000000000009 2.5000000000000004 2.5000000000000004 2.5000000000000004 2.5000000000000004 1.5000000000000002 2.5000000000000004 1.5000000000000002 3.5000000000000004 1.5000000000000002 12.500000000000002 3.5000000000000004 1.5000000000000002 2.5000000000000004 1.5000000000000002 2.5000000000000004 1.5000000000000002 6.5000000000000009 1.0000000180025095e-35 2.5000000000000004 4.5000000000000009 7.5000000000000009 1.5000000000000002 3.5000000000000004 1.0000000180025095e-35
decision_type=2 2 2 2 2 2 2 2 2 2 2 2 2 2 2 2 2 2 2 2 2 2 2 2 2 2 2 2 2 2 2 2 2 2 2 2 2 2 2
left_child=1 4 3 7 10 13 11 15 18 20 28 22 25 36 23 19 32 38 34 -2 -8 -9 33 -10 -11 31 -17 -14 -1 -22 -23 -5 -6 -4 -7 -16 -3 -15 -12
right_child=2 5 6 12 16 8 9 21 14 24 17 -13 27 37 35 26 -18 -19 -20 -21 29 30 -24 -25 -26 -27 -28 -29 -30 -31 -32 -33 -34 -35 -36 -37 -38 -39 -40
leaf_value=-1.3780981029054786 0.36708312232801737 -0.54376084877659403 1.5252948259369712 1.0519375912201256 -0.82809415978100409 -0.22916400022619593 2.5022755130691881 1.0071148233334275 0.15284330444040017 3.877798438471789 -1.1020684826393741 3.0051557990482878 1.9020739516875182 -0.18976587758721289 0.65234492906047781 0.77456809918814851 -0.25068431530999852 -0.50642966473981232 0.24142332036542544 0.75814148513849033 2.717260476767299 1.2293008321438652 2.3784180150897556 0.51238071823201214 5.1127405616128527 2.0340520576337773 1.1934126808865206 2.5796517865487116 -1.0531888160361145 3.4399704587939048 1.6319392887028781 1.5415606794813781 -0.61778856071589872 2.0126571172733536 0.013132706204593413 1.1930444297451659 -0.29753625505386183 0.13277928411537124 -0.91609853343545178
leaf_count=9074 2548 4369 712 648 4364 3823 653 1561 3545 358 6661 560 793 2747 1405 1635 1504 909 1914 2770 332 1262 887 2352 157 493 1354 433 1291 721 1584 1546 4894 1087 2610 394 2088 1126 3601
internal_value=0 -2.77771 7.37639 5.5092 -4.95071 -0.116503 13.0551 4.57242 0.858387 16.2262 -5.79611 10.8851 8.55281 -1.6306 2.03603 3.56204 -3.25892 -4.96835 -0.227347 2.85397 14.7026 6.47683 10.0216 1.4813 21.2724 7.56959 4.82168 10.7073 -6.6882 16.061 7.26716 6.98498 -3.58466 9.09913 -0.654219 3.8541 -2.32077 -0.479831 -5.1841
internal_count=80765 58671 22094 16627 32298 26373 5467 12714 16043 2221 21536 3246 3913 10330 7696 8307 10762 11171 8347 5318 1706 4407 2686 5897 515 2687 2989 1226 10365 1053 2846 2194 9258 1799 6433 1799 6457 3873 10262
shrinkage=0.2


Tree=3
num_leaves=40
num_cat=0
split_feature=5 21 5 5 6 5 11 6 11 5 6 21 8 11 21 11 11 21 9 8 8 11 7 11 11 12 8 11 11 5 11 8 8 7 11 8 11 6 8
split_gain=1.06416e+06 221112 131210 57949.4 38142.3 24849.1 12699.8 11726 11692.4 10173 9809.38 6534.38 5697.7 5283.21 4829.74 4430.79 4415.08 4374.27 4023.26 3947.86 3706.53 3605.97 3596.41 2688.89 2399.8 2345.2 2259.5 2185.1 1996.61 1935.5 1916.34 1913.7 1897.07 1774.3 1760.61 1710.32 1617.97 1609.8 1533.97
threshold=4.5000000000000009 20.400000000000002 1.5000000000000002 6.5000000000000009 21.000000000000004 2.5000000000000004 3.5000000000000004 14.500000000000002 1.5000000000000002 1.0000000180025095e-35 16.500000000000004 24.300000000000004 1.0000000180025095e-35 1.0000000180025095e-35 24.300000000000004 1.0000000180025095e-35 1.0000000180025095e-35 14.150000000000002 12.500000000000002 1.5000000000000002 1.0000000180025095e-35 1.5000000000000002 0.5545000000000001 7.5000000000000009 4.5000000000000009 8.5000000000000018 3.5000000000000004 2.5000000000000004 3.5000000000000004 3.5000000000000004 1.0000000180025095e-35 1.0000000180025095e-35 4.5000000000000009 0.5545000000000001 3.5000000000000004 1.5000000000000002 7.5000000000000009 21.000000000000004 1.5000000000000002
decision_type=2 2 2 2 2 2 2 2 2 2 2 2 2 2 2 2 2 2 2 2 2 2 2 2 2 2 2 2 2 2 2 2 2 2 2 2 2 2 2
left_child=2 3 9 8 7 13 12 -3 19 27 21 -6 30 38 -9 29 -11 -12 22 -2 -10 26 36 35 -22 -16 -5 -1 -18 -14 -7 -23 -27 -20 -15 -8 -13 -19 -4
right_child=1 4 5 10 11 6 23 14 20 16 17 18 15 34 25 -17 28 37 33 -21 24 31 -24 -25 -26 32 -28 -29 -30 -31 -32 -33 -34 -35 -36 -37 -38 -39 -40
leaf_value=-1.087189448966108 0.0011623518906873458 1.2261249305509427 -0.69904669178767476 0.58584815245230215 2.1275331787903515 -0.49416660758560776 0.096550086461127324 1.6392662178386344 0.32686910442537348 -0.8853758334789763 0.96900327591335067 2.1345406481197902 -0.33791477136092973 -0.42162866889916489 1.9335301050499305 0.022109605970806592 -0.67389080875227902 1.3270286534044704 3.2847819652822281 0.32358760926543328 0.57094667509290431 0.76343840082527314 3.1988999874284954 0.88217030287695486 0.90076934764174388 2.2445765189039029 1.0101808100535459 -0.57535329278493896 -0.23040301562256743 -0.10197377350338228 -0.26251902422047979 1.097201397439181 3.0936416774325899 4.3547420072555543 -0.10048648440924875 0.48204074609353675 2.8169872951507569 1.6911008065957067 -0.43977661263279866
leaf_count=10019 2829 1656 4748 2060 538 2550 1618 1672 1979 7364 1292 336 3271 4059 1005 4882 3344 1888 288 3282 3554 973 404 263 1176 492 665 346 463 2422 3255 2360 135 80 822 644 240 658 1133
internal_value=0 4.77724 -2.75806 3.27582 9.75908 -1.39413 -0.703576 8.30331 1.87248 -4.63691 5.09376 13.5873 -1.02539 -2.60715 9.39214 -0.58835 -3.9747 6.34488 14.7642 0.871709 2.78396 4.30104 13.7033 1.38389 3.26485 10.6169 3.44719 -5.35057 -3.0999 -1.18777 -1.82147 4.99898 12.1377 17.5883 -1.83783 1.03172 12.0953 7.1058 -3.24557
internal_count=80765 29562 51203 22716 6846 29667 18905 4960 12820 21536 9896 1886 16380 10762 3304 10575 11171 3838 1348 6111 6709 6058 980 2525 4730 1632 2725 10365 3807 5693 5805 3333 627 368 4881 2262 576 2546 5881
shrinkage=0.2


Tree=4
num_leaves=40
num_cat=0
split_feature=5 5 5 11 5 5 11 5 5 11 5 8 5 8 5 8 11 11 8 11 11 8 8 11 11 8 8 11 8 8 11 8 11 8 8 11 8 8 12
split_gain=685989 136859 98514.2 21231.7 18917.9 17298.8 16526.5 9955.09 9780.11 9172.61 6509.9 4720.28 4668.47 4539.31 4459.26 3747.64 3430.01 3173.59 2858.52 2856.48 2824.88 2464.65 2441.05 2175.21 2156.59 1782.27 1781.71 1679.27 1523.63 1480.74 1371.37 1347.3 1261.11 1191.93 1137.59 1109.59 1070.78 1058.16 1045.94
threshold=5.5000000000000009 2.5000000000000004 9.5000000000000018 4.5000000000000009 1.5000000000000002 3.5000000000000004 4.5000000000000009 7.5000000000000009 11.500000000000002 2.5000000000000004 1.0000000180025095e-35 4.5000000000000009 11.500000000000002 3.5000000000000004 7.5000000000000009 2.5000000000000004 1.5000000000000002 1.5000000000000002 2.5000000000000004 1.0000000180025095e-35 1.0000000180025095e-35 3.5000000000000004 1.5000000000000002 7.5000000000000009 1.0000000180025095e-35 4.5000000000000009 1.5000000000000002 1.0000000180025095e-35 1.5000000000000002 2.5000000000000004 4.5000000000000009 1.0000000180025095e-35 1.5000000000000002 1.5000000000000002 1.0000000180025095e-35 2.5000000000000004 1.5000000000000002 1.0000000180025095e-35 6.5000000000000009
decision_type=2 2 2 2 2 2 2 2 2 2 2 2 2 2 2 2 2 2 2 2 2 2 2 2 2 2 2 2 2 2 2 2 2 2 2 2 2 2 2
left_child=1 4 3 7 10 17 12 13 21 15 27 -10 26 19 29 24 36 33 32 -2 34 -8 -11 -16 -7 -14 -4 -1 -19 -5 -22 -21 -9 -3 -12 -20 -6 -18 -24
right_child=2 5 6 14 16 9 8 18 11 22 20 -13 25 -15 23 -17 37 28 35 31 30 -23 38 -25 -26 -27 -28 -29 -30 -31 -32 -33 -34 -35 -36 -37 -38 -39 -40
leaf_value=-0.89544703551611604 0.1811438853527004 -0.36678498219123123 0.88442386262751538 0.8027078156448344 -0.52830733061422397 -0.14691971934609693 1.5211492387600092 0.49893151538292319 2.2190450312599306 0.23987133345256462 -0.76898007262808654 3.0952067195392048 1.5173655936575454 0.76357905396559467 1.1789783970844698 0.22747192580743816 -0.35677613548049203 -0.15439896665113628 0.89885118031211908 0.30548973717135863 -0.5241069077652688 2.0978013959723891 0.45560718070119388 1.6315991924818443 0.049869019804979889 2.0601842163022885 1.3070724468880606 -0.69103308834568544 0.12852240558230568 1.1783872123505619 0.015999385169025212 0.5366354780300151 0.79466757520496134 -0.18296414441018727 -0.60615930605890112 1.2187965680194157 -0.32766581504337561 -0.13203159366685555 0.82973640935718262
leaf_count=8369 1986 4369 577 1457 6107 4354 923 942 756 2894 4619 366 736 1538 1205 2580 1759 2832 1316 1450 3609 439 1262 659 4560 363 1307 1996 1041 592 198 3333 1498 2088 2745 651 1292 1604 393
internal_value=0 -1.78838 4.74927 3.53839 -3.1685 -0.0981755 8.43185 2.91141 10.3376 0.551687 -3.70955 12.5247 6.84476 2.26676 5.57545 0.0759491 -2.08575 -1.10749 4.12642 1.91425 -3.17978 8.53545 1.75363 6.69526 -0.231201 8.48375 5.88842 -4.28046 -0.391642 4.55649 -2.47995 2.33291 3.40268 -1.53679 -3.5415 5.02396 -2.46643 -1.24806 2.72255
internal_count=80765 58671 22094 16627 32298 26373 5467 12714 2484 16043 21536 1122 2983 8307 3913 11494 10762 10330 4407 6769 11171 1362 4549 1864 8914 1099 1884 10365 3873 2049 3807 4783 2440 6457 7364 1967 7399 3363 1655
shrinkage=0.2


Tree=5
num_leaves=40
num_cat=0
split_feature=5 21 5 6 5 5 6 11 11 5 11 7 11 8 8 7 11 8 8 8 6 8 11 11 8 9 8 12 12 6 11 8 8 8 12 8 8 8 11
split_gain=441438 92561.5 52750.4 20556.8 20164.1 10197.4 8490.46 5124.33 4794.4 4165.75 4083.27 3415.93 3379 2832.35 2413.67 2409.29 2216.01 2053.61 2014.36 1956.41 1944.16 1922.33 1861.54 1859.53 1559.96 1441.84 1401.26 1397.47 1394.84 1292.96 1232.46 1175.87 1152.4 1125.47 1015.91 988.479 942.732 889.349 848.272
threshold=4.5000000000000009 19.300000000000001 1.5000000000000002 17.500000000000004 6.5000000000000009 3.5000000000000004 24.500000000000004 1.0000000180025095e-35 1.5000000000000002 1.0000000180025095e-35 2.5000000000000004 0.57700000000000007 3.5000000000000004 4.5000000000000009 1.0000000180025095e-35 0.61250000000000016 7.5000000000000009 1.5000000000000002 1.0000000180025095e-35 2.5000000000000004 11.500000000000002 1.5000000000000002 2.5000000000000004 7.5000000000000009 3.5000000000000004 3.5000000000000004 1.0000000180025095e-35 8.5000000000000018 6.5000000000000009 21.000000000000004 3.5000000000000004 3.5000000000000004 3.5000000000000004 4.5000000000000009 7.5000000000000009 1.0000000180025095e-35 2.5000000000000004 1.5000000000000002 4.5000000000000009
decision_type=2 2 2 2 2 2 2 2 2 2 2 2 2 2 2 2 2 2 2 2 2 2 2 2 2 2 2 2 2 2 2 2 2 2 2 2 2 2 2
left_child=2 4 9 13 8 7 15 21 18 30 17 23 26 20 34 16 36 -6 -2 38 -3 -4 35 -8 -25 -12 -7 -22 37 -17 -1 -18 -20 -19 -9 -11 -5 -16 -10
right_child=1 3 5 6 10 12 11 14 19 22 25 -13 -14 -15 28 29 31 33 32 -21 27 -23 -24 24 -26 -27 -28 -29 -30 -31 -32 -33 -34 -35 -36 -37 -38 -39 -40
leaf_value=-0.69370387688550939 -0.097631308522244054 0.53539254807143954 -0.40487095584329547 0.95666448933960402 0.35392831608782249 -0.18057296037978576 1.6456255546472605 -0.27576890911181623 0.24550342231988909 -0.5787639311458449 0.59333341413380325 3.1208555608692734 0.28593366747459742 1.2651390107106142 -0.15009195007376863 1.5671545568569873 1.3819804688922146 0.55621313857284116 0.1242788395517698 0.55454883575439451 0.7959533035605153 -0.21330492229437478 -0.23425174511444516 1.7494610343883243 2.591248299386264 0.87303919574924727 0.0077726437836382369 1.1358333650754608 0.42668120831519635 2.3266048275191209 -0.14518874990725947 1.9091267095181188 0.3810006258235128 0.85566436113849764 0.19084053839912121 -0.44852727575124685 1.2549166464763104 0.020642365117514262 0.43477596347234848
leaf_count=10198 1458 859 7879 688 1961 2348 515 4761 3700 6661 1038 101 1399 607 3211 407 570 2677 3780 1503 1875 2858 909 153 211 2568 4828 655 222 116 167 243 859 620 194 3601 1122 1967 1276
internal_value=0 3.0769 -1.77635 5.95187 1.98776 -0.91153 7.51768 -1.28535 1.17352 -2.96765 3.14293 10.0889 0.007908 4.33499 -0.783356 6.71657 6.3251 2.58059 0.536909 1.77251 3.97829 -1.76944 -2.54383 9.4546 11.1885 3.96276 -0.269202 4.41993 -0.320758 8.67895 -3.42438 7.69832 0.859187 3.06278 -1.2874 -2.66536 5.70802 -0.426074 1.47029
internal_count=80765 29562 51203 8122 21440 29667 4126 21092 12576 21536 8864 980 8575 3996 10355 3146 2623 5258 6097 6479 3389 10737 11171 879 364 3606 7176 2530 5400 523 10365 813 4639 3297 4955 10262 1810 5178 4976
shrinkage=0.2


Tree=6
num_leaves=40
num_cat=0
split_feature=5 5 5 11 11 5 11 5 12 8 11 8 8 5 8 8 11 5 8 11 8 5 11 11 8 8 8 11 11 8 11 11 11 8 8 8 18 8 8
split_gain=284135 57444.3 42899.4 9785.82 7586.71 7359.07 6967.19 4427.07 3846.17 3775.37 3766.59 3067.87 2752.37 2378.95 2312.1 2179.36 2118.61 1878.13 1842.72 1812.1 1456.94 1310.57 1234.25 1222.9 1219 1209.01 1151.06 987.721 957.175 943.113 826.978 765.424 673.956 651.372 648.911 604.861 603.7 583.689 554.772
threshold=5.5000000000000009 2.5000000000000004 9.5000000000000018 2.5000000000000004 4.5000000000000009 1.0000000180025095e-35 2.5000000000000004 11.500000000000002 8.5000000000000018 2.5000000000000004 1.0000000180025095e-35 3.5000000000000004 4.5000000000000009 3.5000000000000004 4.5000000000000009 4.5000000000000009 7.5000000000000009 6.5000000000000009 2.5000000000000004 4.5000000000000009 1.0000000180025095e-35 7.5000000000000009 1.0000000180025095e-35 1.5000000000000002 1.0000000180025095e-35 1.5000000000000002 2.5000000000000004 1.0000000180025095e-35 1.0000000180025095e-35 1.0000000180025095e-35 1.0000000180025095e-35 1.5000000000000002 7.5000000000000009 1.0000000180025095e-35 1.0000000180025095e-35 1.5000000000000002 2.5000000000000004 1.0000000180025095e-35 1.0000000180025095e-35
decision_type=2 2 2 2 2 2 2 2 2 2 2 2 2 2 2 2 2 2 2 2 2 2 2 2 2 2 2 2 2 2 2 2 2 2 2 2 2 2 2
left_child=1 5 3 12 15 28 9 26 11 13 20 21 17 -3 32 23 18 37 29 24 -7 35 -15 -4 -12 -10 -6 -19 -1 -8 -11 -17 -9 -25 -24 -5 -16 -2 -29
right_child=2 6 4 8 7 10 16 14 25 30 19 -13 -14 22 36 31 -18 27 -20 -21 -22 -23 34 33 -26 -27 -28 38 -30 -31 -32 -33 -34 -35 -36 -37 -38 -39 -40
leaf_value=-0.57761685439428989 0.0067368176550113516 -0.18983579544500107 0.55697947545505277 0.32052359925747331 0.93764687894941212 -0.47098268152716349 -0.00024799689986409177 1.2900440386132785 0.71145091691621198 0.045160461195100095 -0.32858727504972557 0.84127777563898187 0.63428748285975955 -0.11425470723695695 1.9448431929345966 0.90515907858059086 0.56615348659366016 0.22973364159928855 0.43700452104916487 0.099431731295013107 -0.33764949832235613 0.60964122408274879 -0.057206726806703703 0.62918969798595348 -0.17003618829472122 1.0640610199125986 1.3067183530680733 0.27009211939464256 -0.4232642496575813 0.17097990090221024 0.24976562949998984 1.3304075366986572 1.6754828626736284 0.94681086694040606 0.096597611059626595 0.49731167881995786 2.6310713987501844 0.20242652485768003 0.47035461015053476
leaf_count=8369 812 7707 670 1757 715 7237 2307 443 746 2026 4880 1140 928 4354 303 265 498 1702 718 583 6008 1888 1837 329 3225 819 647 738 1996 2906 1297 479 313 1240 2723 1392 63 2460 2245
internal_value=0 -1.15093 3.05658 2.25751 5.48672 -2.04507 -0.0558967 6.77803 3.07943 -0.347734 -1.71687 2.72444 1.54127 -0.542291 8.24982 4.41126 0.849362 1.35109 0.682907 -1.20506 -2.05255 2.38894 -0.190441 3.91788 -1.32756 4.48022 5.56521 1.75718 -2.73951 0.475921 0.62525 5.89538 7.24878 4.40137 0.173077 1.99352 10.3162 0.769468 2.10421
internal_count=80765 58671 22094 16627 5467 32298 26373 2484 7742 19944 21933 6177 8885 16621 1122 2983 6429 7957 5931 8688 13245 5037 8914 2239 8105 1565 1362 4685 10365 5213 3323 744 756 1569 4560 3149 366 3272 2983
shrinkage=0.2


Tree=7
num_leaves=40
num_cat=0
split_feature=5 5 5 21 6 11 11 5 9 8 11 11 7 11 12 8 11 12 8 8 8 11 4 10 8 8 8 8 8 21 12 19 5 8 11 11 11 1 7
split_gain=183957 39640.8 22237.3 12540.5 4733.86 4556.9 4426.1 2874.23 2647.24 2190.95 2099.06 1703.46 1573.93 1532.11 1437.71 1400.03 1321.39 1321.01 1239.84 1101.5 1074.78 947.605 782.839 745.564 736.568 677.702 663.614 660.12 646.814 645.253 632.25 600.218 563.046 537.929 514.554 511.861 501.913 486.528 461.6
threshold=4.5000000000000009 7.5000000000000009 1.5000000000000002 24.300000000000004 24.500000000000004 2.5000000000000004 3.5000000000000004 2.5000000000000004 6.5000000000000009 3.5000000000000004 1.0000000180025095e-35 7.5000000000000009 0.57700000000000007 1.0000000180025095e-35 8.5000000000000018 1.0000000180025095e-35 1.5000000000000002 6.5000000000000009 2.5000000000000004 1.5000000000000002 1.0000000180025095e-35 3.5000000000000004 39.785000000000004 0.41450000000000004 1.0000000180025095e-35 2.5000000000000004 1.0000000180025095e-35 1.0000000180025095e-35 1.0000000180025095e-35 17.100000000000005 8.5000000000000018 4.5000000000000009 11.500000000000002 1.5000000000000002 1.0000000180025095e-35 1.0000000180025095e-35 7.5000000000000009 39.500000000000007 0.51450000000000007
decision_type=2 2 2 2 2 2 2 2 2 2 2 2 2 2 2 2 2 2 2 2 2 2 2 2 2 2 2 2 2 2 2 2 2 2 2 2 2 2 2
left_child=2 6 10 8 14 7 9 33 16 13 24 20 22 28 19 -9 -3 29 30 -5 -7 -12 36 -16 -1 35 -15 -18 -2 -10 -8 -25 -21 -4 -11 -17 -6 -24 -38
right_child=1 3 5 4 12 11 18 15 17 34 21 -13 -14 26 23 25 27 -19 -20 32 -22 -23 37 31 -26 -27 -28 -29 -30 -31 -32 -33 -34 -35 -36 -37 38 -39 -40
leaf_value=-0.44188019819982172 -0.11686837682571577 0.30361415463205627 -0.26412201272375974 0.47922110496579534 1.009752379807215 -0.080585568163088109 0.26939640480729893 -0.18433342283493748 0.50395266009648221 0.23750646007528742 -0.30937527572765311 0.49797446310520171 2.1977941196743802 0.081565065471703529 0.90592036161832756 -0.12608608126425433 0.4033511359371918 0.91799476496131194 0.5507836318410132 0.73597899407352185 0.10137880025869439 -0.049389069541579206 1.4087134586582923 1.1336958736692155 -0.32769208003045869 0.051286344631330173 0.21387481725556104 0.58999585636856788 0.064981256021998793 0.70269462939900673 0.47406878646143574 1.6648642327701837 1.0050105655183379 -0.13625012936265832 0.44251131008707756 -0.022438153090743387 1.183519057546343 2.0506414497770917 1.8489216589591875
leaf_count=12988 1048 1520 7665 391 252 2370 2689 5157 1116 943 5173 315 101 2215 471 4438 1141 771 1210 658 2871 630 116 350 2745 1913 4827 2285 3085 1595 781 114 599 1593 1026 3345 105 82 71
internal_value=0 1.9863 -1.14666 3.41328 5.06279 -0.58515 1.04654 -0.773291 2.76539 0.749131 -1.92015 0.231221 7.31803 0.577687 4.42785 -0.500647 2.29484 3.43363 1.88173 3.86484 0.0953737 -1.40584 6.72495 5.41966 -2.10982 -0.276668 0.861361 2.63932 0.0942283 3.10459 1.57746 6.32207 4.3213 -1.21065 1.7219 -0.407764 5.96029 8.37534 7.26258
internal_count=80765 29562 51203 11738 3310 29667 17824 24111 8428 13144 21536 5556 727 11175 2583 14853 4946 3482 4680 1648 5241 5803 626 935 15733 9696 7042 3426 4133 2711 3470 464 1257 9258 1969 7783 428 198 176
shrinkage=0.2


Tree=8
num_leaves=40
num_cat=0
split_feature=5 5 5 12 12 5 11 8 8 5 11 8 5 8 13 11 12 11 11 11 9 8 8 5 8 8 8 8 5 11 11 8 18 11 8 8 11 11 13
split_gain=118510 23196.9 18492.8 4345.41 3578.04 3341.83 3126.7 2288.47 1977.41 1749.63 1668.46 1633.42 1249.14 1088.34 1072.26 965.084 904.498 823.237 791.504 722.97 717.864 698.363 662.771 645.88 640.071 638.324 591.099 589.527 582.324 565.226 525.63 488.064 462.94 433.424 418.93 379.697 378.315 341.095 314.142
threshold=5.5000000000000009 2.5000000000000004 9.5000000000000018 6.5000000000000009 8.5000000000000018 1.0000000180025095e-35 1.0000000180025095e-35 1.5000000000000002 1.5000000000000002 11.500000000000002 1.0000000180025095e-35 2.5000000000000004 7.5000000000000009 1.0000000180025095e-35 0.77500000000000013 4.5000000000000009 6.5000000000000009 2.5000000000000004 4.5000000000000009 1.0000000180025095e-35 9.5000000000000018 1.5000000000000002 4.5000000000000009 11.500000000000002 3.5000000000000004 1.0000000180025095e-35 1.0000000180025095e-35 3.5000000000000004 4.5000000000000009 1.0000000180025095e-35 4.5000000000000009 4.5000000000000009 2.5000000000000004 1.0000000180025095e-35 4.5000000000000009 1.0000000180025095e-35 1.0000000180025095e-35 7.5000000000000009 0.77500000000000013
decision_type=2 2 2 2 2 2 2 2 2 2 2 2 2 2 2 2 2 2 2 2 2 2 2 2 2 2 2 2 2 2 2 2 2 2 2 2 2 2 2
left_child=1 5 3 7 9 30 13 19 16 21 26 -6 29 -3 -5 24 28 -11 25 -2 35 -4 -19 -13 -10 -12 -7 -15 -8 -9 -1 36 -25 -23 -31 -16 -14 -20 -18
right_child=2 6 4 14 11 10 8 12 15 17 18 23 31 27 20 -17 38 22 37 -21 -22 33 -24 32 -26 -27 -28 -29 -30 34 -32 -33 -34 -35 -36 -37 -38 -39 -40
leaf_value=-0.3592422417420309 0.012232868388243274 -0.19266045586524472 0.35984215818848247 0.36640040207529267 0.7624126671908833 -0.30127097542351478 -0.054494845728953648 0.15075218676599791 0.085926113786003927 0.58614627794324803 -0.211756843157479 0.98640473471131429 0.22486114835353208 -0.066866884264045759 0.38611045441099706 0.34983777575204295 0.056095974660081427 0.78877736643950147 0.018792821449528409 0.18297486456705361 0.91638480798556265 0.34998294826213072 1.140028554691296 1.2668767147228956 0.33731910136335413 -0.097011578009355559 -0.21630914239646912 0.15713376026030326 0.060747786451055469 0.27012316204179093 0.2487441945494267 0.57107497832233078 1.8057372077011768 0.62941344159943302 0.49811441753849839 0.61613878701695191 0.41257779258477245 0.49263556798299152 0.27138806096814549
leaf_count=10308 1292 3100 767 1252 615 7237 6790 1618 4182 542 4880 301 556 7108 393 788 523 750 514 4290 260 262 304 322 449 3225 6008 503 2364 2974 57 607 81 1523 363 1094 1928 69 566
internal_value=0 -0.743259 1.97406 1.44941 3.56962 -1.31145 -0.0473962 1.20952 0.237327 3.11311 -1.09027 5.00489 1.55089 -0.463775 2.53933 0.725846 -0.0210721 3.93497 -0.749588 0.717366 3.04596 2.59892 4.45091 6.04621 0.551608 -0.830559 -1.3137 -0.260249 -0.123614 1.23943 -1.77945 2.05001 6.87716 2.94228 1.47477 2.77706 1.853 0.375226 0.840422
internal_count=80765 58671 22094 16627 5467 32298 26373 13628 15662 4148 21933 1319 8046 10711 2999 5419 10243 1596 8688 5582 1747 2552 1054 704 4631 8105 13245 7611 9154 4955 10365 3091 403 1785 3337 1487 2484 583 1089
shrinkage=0.2


Tree=9
num_leaves=40
num_cat=0
split_feature=5 5 5 5 6 11 11 11 7 8 11 11 8 8 8 8 11 8 11 11 11 11 7 4 8 11 5 8 11 8 11 8 5 1 8 8 7 8 7
split_gain=76344.9 16663.2 9470.9 5254.07 2519.43 2311.27 2145.41 1493.22 1428.14 1426.3 1027.7 971.63 862.142 815.504 794.734 691.668 676.795 673.07 581.805 462.218 462.046 445.796 459.335 491.871 444.937 441.621 438.864 427.816 364.855 362.037 360.201 354.095 323.864 321.911 286.406 273.318 267.513 263.715 356.812
threshold=4.5000000000000009 9.5000000000000018 1.5000000000000002 6.5000000000000009 24.500000000000004 4.5000000000000009 3.5000000000000004 2.5000000000000004 0.57700000000000007 1.5000000000000002 2.5000000000000004 1.5000000000000002 3.5000000000000004 4.5000000000000009 4.5000000000000009 4.5000000000000009 1.0000000180025095e-35 1.5000000000000002 7.5000000000000009 7.5000000000000009 1.0000000180025095e-35 2.5000000000000004 0.43650000000000005 39.095000000000006 1.0000000180025095e-35 7.5000000000000009 1.0000000180025095e-35 1.0000000180025095e-35 4.5000000000000009 1.0000000180025095e-35 1.5000000000000002 1.0000000180025095e-35 3.5000000000000004 39.500000000000007 1.0000000180025095e-35 4.5000000000000009 0.45250000000000007 1.0000000180025095e-35 0.57700000000000007
decision_type=2 2 2 2 2 2 2 2 2 2 2 2 2 2 2 2 2 2 2 2 2 2 2 2 2 2 2 2 2 2 2 2 2 2 2 2 2 2 2
left_child=2 3 11 10 7 12 9 29 15 16 17 26 27 25 19 36 -4 -2 31 37 -11 -17 -23 -24 -12 34 -1 -5 -13 -3 -14 -8 -18 -25 -7 -19 -6 -9 -39
right_child=1 4 6 5 8 13 18 14 -10 20 24 28 30 -15 -16 21 32 35 -20 -21 -22 22 23 33 -26 -27 -28 -29 -30 -31 -32 -33 -34 -35 -36 -37 -38 38 -40
leaf_value=-0.29909635880510005 -6.8963894343934275e-06 0.10986222723394118 -0.1599194309608932 0.10733664493391788 0.47689925553798673 0.20666633589184738 -0.02678035040806841 0.33835651722835325 1.5625703613356789 -0.061077643580985878 0.082857517958775662 -0.17328406067832383 0.25982852260873246 0.77036982611373617 0.79488829890108215 0.5180618545283443 -0.1064928474592773 0.097422375327537183 0.3351235884901077 0.69729336762600003 0.039862269219114517 0.75091567747591237 0.92895214672704851 1.1982225557543198 0.21761298397811002 0.52025151460195818 -0.23609736762471414 0.22662844283949926 0.074182184163261874 0.38298665805759186 0.43185357585791162 0.11069445255346483 -0.020930618847296294 1.8972137780623002 0.39341487507227874 0.27908454575160535 0.75087471442171472 0.42950492140301572 0.63298814133013148
leaf_count=9074 4101 231 9674 1666 250 439 1350 387 101 4450 1424 3526 971 270 590 69 6730 4127 315 538 3061 110 96 53 3164 891 8681 4358 255 1253 986 1682 2405 55 1337 361 341 734 659
internal_value=0 1.27966 -0.73865 0.922004 2.85586 1.43503 -0.372194 2.51973 4.22871 -0.468099 0.496889 -1.24344 1.15579 2.19368 2.9365 3.85653 -0.61521 0.29269 0.381832 2.6721 -0.0996386 4.90573 5.41294 6.3047 0.87905 2.02562 -1.3415 0.968268 -0.782839 1.7027 1.73276 0.247254 -0.419888 7.77558 1.73655 0.560285 3.17575 2.42567 2.6292
internal_count=80765 29562 51203 24095 5467 10918 29667 4392 1075 26320 13177 21536 7981 2937 2908 974 18809 8589 3347 2318 7511 383 314 204 4588 2667 17755 6024 3781 1484 1957 3032 9135 108 1776 4488 591 1780 1393
shrinkage=0.2


Tree=10
num_leaves=40
num_cat=1
split_feature=21 6 5 21 6 5 8 2 7 8 11 8 12 8 6 7 11 8 11 4 11 12 9 10 7 12 7 11 7 8 11 6 8 11 8 11 19 17 5
split_gain=49236.7 9166.21 8664.84 2512.67 1856.09 1418.01 1378.04 1249.79 959.003 784.799 760.661 593.088 578.943 578.096 510.624 987.701 468.271 467.547 447.074 439.415 415.776 377.409 352.827 584.363 359.034 324.634 314.598 309.768 296.885 282.94 255.94 244.338 239.391 226.104 223.801 205.591 198.265 180.881 176.132
threshold=11.500000000000002 16.500000000000004 2.5000000000000004 24.300000000000004 11.500000000000002 3.5000000000000004 1.0000000180025095e-35 0 0.70850000000000013 4.5000000000000009 1.0000000180025095e-35 4.5000000000000009 5.5000000000000009 1.0000000180025095e-35 21.000000000000004 0.5545000000000001 1.0000000180025095e-35 1.0000000180025095e-35 4.5000000000000009 39.785000000000004 1.0000000180025095e-35 6.5000000000000009 12.500000000000002 0.38750000000000007 0.51450000000000007 7.5000000000000009 0.45250000000000007 2.5000000000000004 0.5545000000000001 1.0000000180025095e-35 3.5000000000000004 14.500000000000002 2.5000000000000004 2.5000000000000004 3.5000000000000004 1.0000000180025095e-35 3.5000000000000004 8.0000000000000018 1.0000000180025095e-35
decision_type=2 2 2 2 2 2 2 5 2 2 2 2 2 2 2 2 2 2 2 2 2 2 2 2 2 2 2 2 2 2 2 2 2 2 2 2 2 2 2
left_child=2 4 6 11 17 29 10 19 14 12 38 25 28 35 33 -16 -15 -2 -17 22 -8 34 -5 -24 -25 26 -3 -11 -6 -4 -12 -30 -14 -9 -19 -7 -13 -27 -1
right_child=1 3 5 7 9 13 20 8 -10 27 30 36 32 16 15 18 -18 21 -20 -21 -22 -23 23 24 -26 37 -28 -29 31 -31 -32 -33 -34 -35 -36 -37 -38 -39 -40
leaf_value=-0.24204973765692414 0.024319250800161157 0.20665605188203229 -0.11524416843287787 0.6078010552732841 0.11420010552963125 -0.089601778925526288 -0.1378636059214183 0.13353922632047383 1.1493320884718292 0.30757827734428905 -0.15765416466373758 0.43674648226738377 0.24205151502745409 0.0071052705677435365 0.40792254699613056 0.57177968718243777 0.093526593127760904 0.08407930064829941 1.0050364272744132 1.2313134893364863 -0.049974299256107253 0.27517590768585837 0.47455116045911477 0.81528121545666554 1.4548844154490981 0.4424939641410166 0.33077649213742943 0.54938925741168954 0.17271182511417094 -0.044839333358117968 -0.042652423317390692 0.32036656764389537 0.38455810484388098 0.40740063711780422 0.18826001637071543 -0.00030471571722128399 0.67221754945884571 0.21318604388584694 -0.19930881872120462
leaf_count=8369 2925 1405 3701 230 2577 1629 5999 142 87 575 6267 453 1726 4675 587 169 5417 4062 223 109 3365 584 67 61 86 888 1972 339 1617 5980 886 624 654 845 1038 2817 213 165 7237
internal_value=0 1.18601 -0.513955 2.08871 0.770181 -0.0622914 -0.85447 2.8877 2.48161 1.11345 -0.98735 1.68003 1.00247 0.135139 2.34949 2.86213 0.267514 0.446672 4.09252 4.27224 -0.531454 0.613869 3.90475 4.83288 5.95076 1.54746 1.39583 1.98687 0.802903 -0.358825 -0.717118 1.06935 1.40626 1.84051 0.526514 -0.165227 2.56102 2.03329 -1.11118
internal_count=80765 24423 56342 7702 16721 24219 32123 2606 2053 8112 22759 5096 7198 14538 1966 979 10092 8609 392 553 9364 5684 444 214 147 4430 3377 914 4818 9681 7153 2241 2380 987 5100 4446 666 1053 15606
cat_boundaries=0 1
cat_threshold=1536
shrinkage=0.2


Tree=11
num_leaves=40
num_cat=2
split_feature=5 5 21 5 6 5 11 11 8 9 11 7 11 11 12 17 14 8 3 2 7 12 14 8 8 8 11 7 8 5 6 19 5 5 10 12 13 19 18
split_gain=32107.8 6119.76 4771.04 1826.93 1054.82 1053.08 1052.11 856.344 783.327 632.908 615.023 522.242 503.065 499.39 444.933 375.303 398.639 363.444 356.568 344.815 513.236 480.746 331.248 316.188 314.684 271.66 264.896 250.181 245.41 237.532 226.479 215.797 206.007 190.032 182.503 159.516 155.727 156.066 172.69
threshold=5.5000000000000009 2.5000000000000004 24.300000000000004 7.5000000000000009 24.500000000000004 1.5000000000000002 1.5000000000000002 1.5000000000000002 2.5000000000000004 9.5000000000000018 7.5000000000000009 0.57700000000000007 1.5000000000000002 2.5000000000000004 8.5000000000000018 8.0000000000000018 2.5000000000000004 1.0000000180025095e-35 0 1 0.43650000000000005 8.5000000000000018 1.0000000180025095e-35 1.5000000000000002 1.5000000000000002 3.5000000000000004 2.5000000000000004 0.61250000000000016 1.0000000180025095e-35 3.5000000000000004 21.000000000000004 3.5000000000000004 1.0000000180025095e-35 4.5000000000000009 0.5355000000000002 6.5000000000000009 0.77500000000000013 2.5000000000000004 1.5000000000000002
decision_type=2 2 2 2 2 2 2 2 2 2 2 2 2 2 2 2 2 2 5 5 2 2 2 2 2 2 2 2 2 2 2 2 2 2 2 2 2 2 2
left_child=1 5 3 12 10 13 17 23 14 28 15 18 -2 32 29 16 27 -3 -6 20 -20 -22 -12 -5 -14 33 -7 -4 -9 -8 -29 -30 -1 -19 -11 -15 -24 38 -38
right_child=2 6 4 7 11 26 8 9 -10 34 22 -13 24 35 -16 -17 -18 25 19 -21 21 -23 36 -25 -26 -27 -28 30 31 -31 -32 -33 -34 -35 -36 -37 37 -39 -40
leaf_value=-0.1892785994256253 0.055058233786873412 -0.087434136284267439 0.3007156239225246 0.031139089599313677 0.15911194344184229 -0.097271504878014378 -0.033413610340492485 0.16770872471575582 0.16950169095221482 0.39620921228061179 0.67838912966493325 1.0582925117694506 0.09801482847132463 -0.060565270239630077 0.18865850367366188 0.14354790353020164 0.17818259385286547 -0.044481805624983425 0.44041726531483882 0.42427828587192518 0.63584447515690157 1.3221641761632192 0.21359476203598629 0.18419600688175625 0.18968129942454159 0.10689364806005928 -0.0067028136365518149 0.45843390422611208 0.2421661478470373 0.032415824288821178 0.84775544076726073 0.34605319978582993 -0.14887917478445609 0.021265118009541329 0.6614827197106159 0.19460343974773017 0.48049566230029428 0.56278573973040125 0.11505229251979049
leaf_count=10019 4180 4660 414 782 102 9258 3484 1157 1594 752 283 101 2903 1148 579 475 386 7185 81 270 68 105 123 1756 3110 633 1504 487 2715 5912 69 1144 10262 2326 122 107 133 290 86
internal_value=0 -0.386808 1.02758 0.826847 2.10369 -0.67865 -0.0293805 1.17137 0.196537 1.38069 1.8197 3.17568 0.541935 -0.806321 0.0924625 1.48447 1.75268 -0.205964 2.83352 3.1539 4.12762 5.26487 2.48997 0.68538 0.727213 -0.099702 -0.423119 2.0951 1.24363 0.0399794 2.53464 1.36495 -0.844209 -0.141961 2.16676 -0.193651 2.08529 2.33014 1.68722
internal_count=80765 58671 22094 18621 3473 32298 26373 8428 11569 5890 2746 727 10193 21536 9975 1831 1356 14804 626 524 254 173 915 2538 6013 10144 10762 970 5016 9396 556 3859 20281 9511 874 1255 632 509 219
cat_boundaries=0 1 2
cat_threshold=8391704 553715200
shrinkage=0.2


Tree=12
num_leaves=40
num_cat=0
split_feature=21 5 6 5 9 8 7 12 7 6 13 11 12 8 11 11 8 5 7 10 10 18 11 16 12 11 8 17 8 20 11 7 8 8 8 7 5 8 8
split_gain=20598.6 4576.7 3260.97 1316.33 983.979 761.46 735.237 661.946 512.421 462.599 432.409 392.507 379.898 331.704 320.698 317.684 304.219 294.426 293.236 283.999 440.868 263.554 229.828 224.558 231.664 221.973 218.996 291.102 215.005 208.411 207.487 193.688 186.344 158.327 156.761 151.452 148.556 146.365 139.849
threshold=13.000000000000002 3.5000000000000004 17.500000000000004 1.5000000000000002 12.500000000000002 4.5000000000000009 0.57700000000000007 6.5000000000000009 0.57700000000000007 21.000000000000004 0.77500000000000013 1.0000000180025095e-35 8.5000000000000018 1.0000000180025095e-35 1.0000000180025095e-35 1.0000000180025095e-35 1.0000000180025095e-35 6.5000000000000009 0.70850000000000013 0.26800000000000007 0.38750000000000007 1.5000000000000002 1.0000000180025095e-35 9.5000000000000018 8.5000000000000018 2.5000000000000004 3.5000000000000004 8.0000000000000018 1.5000000000000002 3.5000000000000004 1.5000000000000002 0.45250000000000007 3.5000000000000004 1.0000000180025095e-35 1.0000000180025095e-35 0.61250000000000016 6.5000000000000009 1.5000000000000002 1.0000000180025095e-35
decision_type=2 2 2 2 2 2 2 2 2 2 2 2 2 2 2 2 2 2 2 2 2 2 2 2 2 2 2 2 2 2 2 2 2 2 2 2 2 2 2
left_child=1 3 5 15 6 7 12 14 19 18 -9 34 31 22 -2 -1 -13 38 -8 -6 21 -21 -5 24 -22 -7 27 -14 -12 -28 -15 -4 36 -17 -3 -11 -18 -19 -16
right_child=2 11 4 13 8 25 9 10 -10 35 28 16 26 30 17 33 32 37 -20 20 23 -23 -24 -25 -26 -27 29 -29 -30 -31 -32 -33 -34 -35 -36 -37 -38 -39 -40
leaf_value=-0.14385771827477112 0.0056120398437293877 -0.06106363157056105 0.13027585429526489 -0.12158209235966916 0.85560931675676 0.20281862309288787 0.29240455744742283 0.095885588985607825 1.1097069664705883 0.48045525247253845 0.19148568685543033 0.001390911596948837 0.35012985288330639 -0.054240700441313017 -0.0064583861207337103 -0.10530169809355659 0.051458221347013888 0.093939481377309161 0.73458465900215686 0.41497694843315652 0.49231710866399647 -0.024160644956776556 -0.057496711483509558 0.1895253916029577 0.86421730545190012 0.37150406242172568 0.37506453153334168 0.10972503951855635 0.3350716174365142 0.7730075246578938 0.0031196440677800173 0.23308203863399635 0.18371219449277437 -0.021748848072195476 0.0064238269686572721 0.75760915235062187 0.13636441573322686 0.16692022230733125 0.081114720603057675
leaf_count=15733 1800 1827 1187 4198 69 864 702 1132 55 164 940 3551 705 8069 1011 4667 5808 2038 66 112 175 106 4815 54 111 493 190 284 758 74 3665 1942 560 1130 5579 158 963 2410 2600
internal_value=0 -0.291467 0.874656 -0.472268 1.48172 0.608646 1.34037 0.532438 2.61514 2.07591 0.958875 0.126471 1.15729 -0.292472 0.409979 -0.645502 0.247338 0.49522 1.65267 2.35703 2.11859 1.00496 -0.436785 2.83115 3.18503 1.32088 1.62318 1.40598 1.27821 2.43494 -0.181581 0.97057 0.363707 -0.445161 -0.0510564 3.0838 0.317744 0.667521 0.282842
internal_count=80765 60565 20200 42277 6154 14046 5472 12689 682 1090 2830 18288 4382 20747 9859 21530 10882 8059 768 627 558 218 9013 340 286 1357 1253 989 1698 264 11734 3129 7331 5797 7406 322 6771 4448 3611
shrinkage=0.2


Tree=13
num_leaves=40
num_cat=1
split_feature=5 21 5 12 11 13 11 5 8 8 8 8 1 9 8 5 12 10 7 13 11 5 12 11 19 19 2 8 10 9 12 15 5 8 17 8 9 18 8
split_gain=13485.1 2507.82 2129.22 799.139 770.714 682.525 617.433 514.268 373.276 333.313 293.351 279.043 291.437 254.397 230.965 228.316 195.393 189.729 235.571 179.253 170.722 161.84 160.313 153.069 141.342 133.829 133.403 129.806 129.091 150.434 128.261 127.368 160.654 121.515 120.089 109.108 108.311 159.659 104.665
threshold=5.5000000000000009 5.0000000000000009 9.5000000000000018 6.5000000000000009 2.5000000000000004 0.77500000000000013 3.5000000000000004 1.5000000000000002 2.5000000000000004 3.5000000000000004 2.5000000000000004 2.5000000000000004 61.500000000000007 4.5000000000000009 1.5000000000000002 4.5000000000000009 8.5000000000000018 0.31650000000000006 0.51450000000000007 0.69050000000000022 1.0000000180025095e-35 11.500000000000002 2.5000000000000004 7.5000000000000009 4.5000000000000009 3.5000000000000004 0 4.5000000000000009 0.5355000000000002 9.5000000000000018 8.5000000000000018 8.5000000000000018 11.500000000000002 1.0000000180025095e-35 8.0000000000000018 1.0000000180025095e-35 6.5000000000000009 1.0000000180025095e-35 1.0000000180025095e-35
decision_type=2 2 2 2 2 2 2 2 2 2 2 2 2 2 2 2 2 2 2 2 2 2 2 2 2 2 5 2 2 2 2 2 2 2 2 2 2 2 2
left_child=1 7 4 10 14 34 8 33 15 16 20 25 17 -8 -2 -3 35 -13 21 -18 -4 24 -12 -11 -19 -7 -21 -16 -24 -30 -15 32 -20 -1 36 -6 -5 -38 -9
right_child=2 6 3 5 9 11 13 38 -10 23 22 12 -14 30 27 -17 19 18 31 26 -22 -23 28 -25 -26 -27 -28 -29 29 -31 -32 -33 -34 -35 -36 -37 37 -39 -40
leaf_value=-0.11389764010938937 0.017911905451998864 -0.042258580837846761 -0.071000711374323483 0.16301531537433234 0.059575834222220396 0.24336890796832958 0.02922730608477371 -0.074785963530216382 0.042487851860842252 0.20392620321928467 0.15948331748361927 0.81741478730892314 0.91223056944030712 0.09981297041382034 0.069368571541662358 0.011817497593629454 0.059115439765522949 0.26587503084972985 0.40463127256283227 0.44836064675201981 0.13872486036274492 0.096057639099084421 0.21850884546673779 0.3899667500380124 0.66455928759049565 0.44486144768979846 0.20089011153250627 0.15181748489548197 0.28386638960538896 0.52129749712583262 0.24953907354218169 0.29588412849799445 0.71821135661289015 -0.072618765626987603 0.057495958267739324 0.12488100486119778 0.56484650199761599 0.22779870651869311 -0.037257558889591674
leaf_count=16852 3560 14128 176 343 1440 344 3398 5545 3335 1211 740 58 66 1228 4397 4006 304 93 106 110 1281 104 645 209 59 218 871 928 373 152 283 69 179 3452 198 3597 83 180 6444
internal_value=0 -0.250571 0.666051 1.2075 0.487992 1.69189 -0.021796 -0.437426 -0.0949721 0.718679 0.905236 2.14123 2.54843 0.29813 0.286926 -0.151535 0.620171 2.34882 2.18272 0.96871 0.566611 1.44776 1.16329 1.15689 2.10643 1.60853 1.1768 0.41878 1.39426 1.76399 0.639609 2.71281 3.00966 -0.534423 0.966943 0.531156 1.18812 1.67274 -0.273115
internal_count=80765 58671 22094 5467 16627 2100 26378 32293 21469 7742 3367 1296 734 4909 8885 18134 6322 668 610 1285 1457 256 1910 1420 152 562 981 5325 1170 525 1511 354 285 20304 804 5037 606 263 11989
cat_boundaries=0 1
cat_threshold=66560
shrinkage=0.2


Tree=14
num_leaves=40
num_cat=1
split_feature=5 5 11 5 8 8 8 11 11 8 11 2 1 1 17 6 17 19 11 11 19 11 20 11 11 8 12 8 9 16 8 16 8 11 5 12 7 6 9
split_gain=8904.26 2339.73 1159.18 615.269 603.857 353.652 320.577 313.771 310.949 261.468 229.057 227.212 180.692 161.935 179.113 171.151 160.612 162.35 156.529 147.993 143.006 133.391 132.471 132.538 129.155 125.476 124.026 120.5 119.97 118.184 109.257 98.2036 95.8412 91.7118 89.0521 88.8262 84.877 109.687 78.3083
threshold=6.5000000000000009 3.5000000000000004 3.5000000000000004 11.500000000000002 1.0000000180025095e-35 3.5000000000000004 4.5000000000000009 1.0000000180025095e-35 1.0000000180025095e-35 1.5000000000000002 2.5000000000000004 0 61.500000000000007 28.000000000000004 4.5000000000000009 24.500000000000004 8.0000000000000018 3.5000000000000004 1.0000000180025095e-35 7.5000000000000009 4.5000000000000009 1.0000000180025095e-35 1.5000000000000002 7.5000000000000009 7.5000000000000009 2.5000000000000004 8.5000000000000018 1.0000000180025095e-35 9.5000000000000018 13.000000000000002 3.5000000000000004 6.5000000000000009 3.5000000000000004 1.0000000180025095e-35 7.5000000000000009 8.5000000000000018 0.61250000000000016 14.500000000000002 9.5000000000000018
decision_type=2 2 2 2 2 2 2 2 2 2 2 5 2 2 2 2 2 2 2 2 2 2 2 2 2 2 2 2 2 2 2 2 2 2 2 2 2 2 2
left_child=1 4 6 5 7 16 18 -1 32 -10 25 12 13 15 -15 -5 17 -4 27 -9 -7 38 -22 -24 -19 33 30 -2 -16 34 -11 -25 -3 -6 -20 -12 -23 -38 -8
right_child=2 8 3 11 10 20 21 19 9 26 35 -13 -14 14 28 -17 -18 24 29 -21 22 36 23 31 -26 -27 -28 -29 -30 -31 -32 -33 -34 -35 -36 -37 37 -39 -40
leaf_value=-0.09516065131029279 -0.076722533575645305 -0.02127518719866052 0.12601029880253398 0.32336242306257856 -0.055115915699067222 0.21730255071919316 0.010782475004009173 -0.052544678979116459 0.013955843582616187 0.049245322163254064 0.024823147456670344 0.23805999651650811 0.77281600484455182 0.50922468866532045 0.3690028313599113 0.70697176415181051 0.043844930381293751 0.16461342724685457 0.057198203624867577 0.1955379739557345 0.1554416077075208 0.1781459353804894 0.2974633123324073 0.41850757070563055 0.31094868165743239 0.04109388292512655 0.19124315637312117 0.044706680169352246 0.033914907012030343 -0.014410074826499279 0.12185071116047247 0.80228381930427128 0.050608468515251928 -0.019494521820643401 0.11231369836525606 0.23284202146582134 0.18692376477850808 0.44717781894796649 0.16456017983162705
leaf_count=17191 410 6614 2800 88 8754 1064 255 9530 8236 4745 1895 888 55 96 72 102 655 661 1799 97 82 640 109 55 385 743 314 1606 107 440 1008 55 835 4332 3419 86 135 128 279
internal_value=0 -0.167249 0.658431 0.956164 -0.303431 0.813497 0.420673 -0.394826 0.0996068 0.1859 -0.148367 1.55019 2.10051 1.93602 1.4415 2.64913 0.67804 0.75605 0.339394 -0.250173 1.25979 0.85438 1.87065 2.27779 1.09285 -0.193941 0.343452 0.0998083 0.846288 0.424673 0.309921 3.05652 -0.0660196 -0.216657 0.466654 0.169521 1.08907 1.56984 0.456571
internal_count=80765 64380 16385 7274 42628 5866 9111 26818 21752 14303 15810 1408 520 465 275 190 4501 3846 7674 9627 1365 1437 301 219 1046 13829 6067 2016 179 5658 5753 110 7449 13086 5218 1981 903 263 534
cat_boundaries=0 1
cat_threshold=536938112
shrinkage=0.2


Tree=15
num_leaves=40
num_cat=4
split_feature=5 5 6 7 5 12 10 11 2 19 10 9 3 9 17 11 4 8 7 8 21 13 8 13 3 11 11 16 11 12 16 12 3 11 4 11 12 13 7
split_gain=5703.31 1497.56 822.267 618.113 394.774 379.105 262.835 238.723 206.934 233.165 194.499 204.939 184.585 256.828 177.014 174.808 170.689 156.132 152.639 131.539 128.198 118.75 105.375 93.5733 92.1157 90.3237 90.0933 87.48 86.0553 85.8633 81.8359 79.9104 79.2781 83.7213 73.8906 71.0848 67.8709 89.2955 67.5411
threshold=6.5000000000000009 3.5000000000000004 21.000000000000004 0.5545000000000001 1.5000000000000002 5.5000000000000009 0.31650000000000006 2.5000000000000004 0 3.5000000000000004 0.5355000000000002 9.5000000000000018 1 12.500000000000002 6.5000000000000009 2.5000000000000004 39.095000000000006 1.5000000000000002 0.61250000000000016 1.5000000000000002 24.300000000000004 0.77500000000000013 1.0000000180025095e-35 0.77500000000000013 2 1.5000000000000002 1.0000000180025095e-35 9.5000000000000018 1.0000000180025095e-35 5.5000000000000009 6.5000000000000009 6.5000000000000009 3 7.5000000000000009 39.785000000000004 1.0000000180025095e-35 6.5000000000000009 0.87850000000000017 0.61250000000000016
decision_type=2 2 2 2 2 2 2 2 5 2 2 2 5 2 2 2 2 2 2 2 2 2 2 2 5 2 2 2 2 2 2 2 5 2 2 2 2 2 2
left_child=1 4 5 8 15 10 30 17 9 -4 27 28 -5 18 23 -1 -11 -3 34 26 22 -8 -9 -10 -16 -21 -6 35 -12 -20 -7 -17 -32 -34 -14 -2 37 -23 -38
right_child=2 7 3 12 19 6 21 20 14 16 11 -13 13 -15 24 31 -18 -19 29 25 -22 36 -24 -25 -26 -27 -28 -29 -30 -31 32 -33 33 -35 -36 -37 38 -39 -40
leaf_value=-0.072081878419975973 0.01405915220068981 -0.017780101982775506 0.11949402313533367 0.11722296486466617 -0.053110698007708172 0.13119434047541428 0.12192321776454292 0.0089881932739033152 0.10570828481885042 0.26970709846960589 0.030619619262792899 0.25643331128495855 0.24762045396095578 0.85647068393641512 0.19933311279155008 -0.010563966642922433 0.56961474233649223 0.023068349085723919 0.42042444746081647 -0.018550002011002081 0.34091921946254833 0.073117552180650566 0.062263256259512026 0.22860193506077173 0.006312182796601621 0.040217631265225984 -0.023236023366751776 -0.00070591030078482513 0.11207300594221113 0.75779197086890537 -0.034157663797247204 0.17012240570125597 0.039930518550095544 0.19127204815546672 0.50519664838910106 0.068867449762849128 0.21476695917648084 0.25142847623058301 0.33914073414745788
leaf_count=20281 1249 7780 255 108 7879 693 914 2231 454 223 751 325 188 58 111 1148 117 7212 65 3380 59 263 4470 557 566 1515 8318 1384 1706 60 356 107 546 201 60 3973 772 199 231
internal_value=0 -0.133791 0.527018 1.01826 -0.242742 0.424771 0.675578 0.0796992 0.790492 1.30133 0.31318 0.535106 1.98207 2.26457 0.598875 -0.337996 1.86602 0.00931822 2.01018 -0.145459 0.235713 0.893744 0.222705 0.867571 0.205725 -0.0017051 -0.188873 0.219644 0.436084 2.9158 0.386313 0.0238074 0.216437 0.398598 1.5517 0.278888 1.07067 0.750695 1.21756
internal_count=80765 64380 16385 2822 42628 13563 4175 21752 2283 595 9388 2782 539 431 1688 21536 340 14992 373 21092 6760 2379 6701 1011 677 4895 16197 6606 2457 125 1796 1255 1103 747 248 5222 1465 462 1003
cat_boundaries=0 1 2 3 4
cat_threshold=1537 25165844 285245954 269130245
shrinkage=0.2


Tree=16
num_leaves=40
num_cat=1
split_feature=5 5 6 12 8 7 15 13 10 9 13 12 19 13 11 8 17 10 18 16 11 8 10 8 12 2 4 7 6 11 8 5 21 18 6 11 8 13 12
split_gain=3654.47 958.561 576.704 321.054 300.178 287.739 347.1 266.764 237.581 212.601 173.769 163.946 153.314 152.401 142.397 139.065 127.191 165.158 247.118 118.141 109.361 100.715 93.1235 110.341 87.0987 86.807 140.611 83.4539 154.991 82.8735 80.7566 74.7272 72.8627 71.9846 69.4523 66.1728 65.2823 62.0907 96.5363
threshold=6.5000000000000009 3.5000000000000004 24.500000000000004 5.5000000000000009 1.0000000180025095e-35 0.51450000000000007 8.5000000000000018 0.87850000000000017 0.5355000000000002 9.5000000000000018 0.69050000000000022 6.5000000000000009 3.5000000000000004 0.69050000000000022 1.0000000180025095e-35 1.5000000000000002 8.0000000000000018 0.26800000000000007 1.5000000000000002 9.5000000000000018 2.5000000000000004 2.5000000000000004 0.5355000000000002 3.5000000000000004 1.0000000180025095e-35 0 39.095000000000006 0.57700000000000007 13.500000000000002 7.5000000000000009 4.5000000000000009 9.5000000000000018 24.300000000000004 1.0000000180025095e-35 21.000000000000004 7.5000000000000009 2.5000000000000004 0.77500000000000013 7.5000000000000009
decision_type=2 2 2 2 2 2 2 2 2 2 2 2 2 2 2 2 2 2 2 2 2 2 2 2 2 5 2 2 2 2 2 2 2 2 2 2 2 2 2
left_child=1 4 3 15 14 12 7 22 13 -10 30 21 -4 -5 -1 -2 17 -14 -19 -18 36 -12 23 -7 -17 26 -15 32 -29 -16 -3 -30 -26 -27 -35 -22 -6 38 -13
right_child=2 10 5 8 20 6 -8 -9 9 -11 11 37 16 25 29 24 19 18 -20 -21 35 -23 -24 -25 27 33 -28 28 31 -31 -32 -33 -34 34 -36 -37 -38 -39 -40
leaf_value=-0.062639789477698868 0.021132650289292045 -0.0061169482033882677 0.064677780526040438 0.034038665494016386 -0.026550041634635552 0.39557894670046295 0.067131631743283043 0.71463789092800167 0.16396592493652604 0.42476675151973159 0.009722306710303415 -0.082983481791916863 0.55045206672566782 0.16343974602801326 -0.034112181959519296 0.028034966383815793 0.26176949207981431 0.44211181089466001 -0.064237343938383346 -0.14540389478206636 0.019155787258251289 0.062266428296155342 0.50936960837115419 0.014252969211545483 0.071267657181568814 0.15055571405115156 0.50689328741609008 0.061532792195379271 0.29777109752683079 0.15150933019893686 0.10054277644662309 0.14910643950825761 -0.053080818399786948 0.057550016478606185 0.15829526242903538 0.19971711904139203 0.034338806498128906 0.11702976036243073 0.12549373682609385
leaf_count=17191 3532 11611 430 1211 13086 65 124 110 831 148 6490 178 85 306 9530 1506 60 81 73 54 1896 1885 69 58 3043 882 57 961 170 97 291 702 200 1276 351 85 743 1120 177
internal_value=0 -0.107032 0.421931 0.368929 -0.194198 1.08683 1.74906 2.32775 0.574608 1.01747 0.0637686 0.162023 0.7259 0.468298 -0.258638 0.265938 1.21479 1.62992 1.0072 0.340103 -0.0848592 0.107803 1.61161 1.0829 0.351868 0.593822 1.05905 0.414577 0.585452 -0.161158 -0.0175038 0.89102 0.31784 0.520019 0.396729 0.134769 -0.116357 0.469541 0.103399
internal_count=80765 64380 16385 15176 42628 1209 426 302 5062 979 21752 9850 783 4083 26818 10114 353 239 154 114 15810 8375 192 123 6582 2872 363 5076 1833 9627 11902 872 3243 2509 1627 1981 13829 1475 355
cat_boundaries=0 1
cat_threshold=66560
shrinkage=0.2


Tree=17
num_leaves=40
num_cat=3
split_feature=6 21 7 6 6 13 12 8 3 4 7 13 5 17 19 11 14 17 2 20 11 16 17 21 15 5 19 9 12 3 8 19 8 8 11 8 11 7 6
split_gain=2387.42 575.196 565.963 356.772 336.012 163.454 181.712 158.178 144.039 154.678 193.162 307.238 140.59 133.274 133.44 114.523 108.441 104.497 105.547 128.185 102.563 96.1921 74.4734 72.3786 70.8201 70.4008 68.8365 68.5703 68.2349 67.23 66.4412 66.2163 61.715 59.4023 59.3749 57.9889 56.3467 56.0969 87.8798
threshold=12.500000000000002 6.3000000000000007 0.57700000000000007 24.500000000000004 21.000000000000004 0.69050000000000022 6.5000000000000009 1.0000000180025095e-35 0 39.785000000000004 0.43650000000000005 0.87850000000000017 1.0000000180025095e-35 2.5000000000000004 2.5000000000000004 7.5000000000000009 1.5000000000000002 4.5000000000000009 1 2.5000000000000004 3.5000000000000004 5.5000000000000009 8.0000000000000018 18.200000000000006 3.5000000000000004 4.5000000000000009 2.5000000000000004 12.500000000000002 8.5000000000000018 2 3.5000000000000004 1.5000000000000002 2.5000000000000004 3.5000000000000004 2.5000000000000004 1.5000000000000002 1.0000000180025095e-35 0.70850000000000013 14.500000000000002
decision_type=2 2 2 2 2 2 2 2 5 2 2 2 2 2 2 2 2 2 5 2 2 2 2 2 2 2 2 2 2 5 2 2 2 2 2 2 2 2 2
left_child=1 12 3 5 16 27 30 36 -5 13 -11 -12 34 14 -10 -6 28 23 19 -19 25 -21 29 -8 26 33 -15 -2 -4 -20 -7 -31 -22 -9 -1 -14 -3 -18 -39
right_child=2 7 4 8 15 6 17 20 9 10 11 -13 35 24 -16 -17 37 18 22 21 32 -23 -24 -25 -26 -27 -28 -29 -30 31 -32 -33 -34 -35 -36 -37 -38 38 -40
leaf_value=-0.057576280331461387 0.0080328466399753919 -0.046304720650928527 0.12918185243588906 -0.045426597984896289 0.25529135549475862 0.024233171793872368 0.096324650510183837 -0.0087452559785092115 0.12044105471978928 0.07846182142243241 0.24881210311723409 0.79919057621814626 -0.030701106468652463 0.070022855596295716 0.56217964460264969 0.52135385357956776 0.042700460138866136 0.0070057889369379081 -0.013539583350707225 0.12088253883520764 0.033102193516397212 0.42834240612776386 -0.031462066914874735 0.19733062085690381 0.057118536567822002 0.023389696523846915 0.37448223073567666 0.14555172022094562 0.24377187208272516 -0.010880703232340659 0.075963732889267305 0.14327819566959535 0.10110201007720708 0.090654953799573293 0.030138915171993644 -0.0013148620856633223 -0.0086435506065938583 0.035241237239123466 0.29628599731023519
leaf_count=9997 5628 2080 1683 129 267 4638 612 6942 58 99 128 60 23019 58 53 87 894 104 266 75 2197 92 405 539 467 6528 63 149 240 143 1268 487 709 249 317 3049 6777 111 98
internal_value=0 -0.0947794 0.311304 0.230504 0.682191 0.188278 0.27545 0.0204197 0.775614 0.900483 1.52904 2.12498 -0.175479 0.654572 1.66131 1.60481 0.574092 0.489269 0.321068 0.879044 0.0779423 1.4543 0.196192 0.718557 0.463674 0.0417492 1.14685 0.0579852 0.717676 0.358726 0.176782 0.532192 0.248635 -0.0264473 -0.274353 -0.136339 -0.0874964 0.323309 0.790617
internal_count=80765 61864 18901 15521 3380 14406 8629 25482 1115 986 287 188 36382 699 111 354 3026 2723 1572 271 16625 167 1301 1151 588 13719 121 5777 1923 896 5906 630 2906 7191 10314 26068 8857 1103 209
cat_boundaries=0 1 2 3
cat_threshold=8390680 1025 268603974
shrinkage=0.2


Tree=18
num_leaves=40
num_cat=3
split_feature=5 8 11 12 8 6 7 19 17 13 11 8 7 5 20 13 9 2 12 2 12 13 3 5 12 7 6 8 16 14 11 17 21 11 5 9 18 17 19
split_gain=1541.43 406.217 253.079 234.852 202.699 183.93 191.266 154.987 206.969 99.1592 91.9676 92.0628 91.845 102.406 87.8888 82.5182 80.9785 90.5912 106.626 79.8033 91.9358 111.42 75.0467 145.666 130.163 144.334 205.414 74.1802 72.4077 64.8149 60.8996 59.5424 89.1555 104.002 67.9851 54.9501 53.1246 52.4931 51.4824
threshold=4.5000000000000009 4.5000000000000009 1.0000000180025095e-35 8.5000000000000018 1.0000000180025095e-35 17.500000000000004 0.45250000000000007 4.5000000000000009 4.5000000000000009 0.87850000000000017 1.5000000000000002 2.5000000000000004 0.70850000000000013 9.5000000000000018 1.5000000000000002 0.69050000000000022 5.5000000000000009 0 8.5000000000000018 1 8.5000000000000018 0.77500000000000013 2 11.500000000000002 6.5000000000000009 0.45250000000000007 24.500000000000004 1.0000000180025095e-35 9.5000000000000018 1.5000000000000002 1.0000000180025095e-35 8.0000000000000018 24.300000000000004 7.5000000000000009 7.5000000000000009 9.5000000000000018 1.5000000000000002 3.5000000000000004 4.5000000000000009
decision_type=2 2 2 2 2 2 2 2 2 2 2 2 2 2 2 2 2 5 2 5 2 2 5 2 2 2 2 2 2 2 2 2 2 2 2 2 2 2 2
left_child=3 2 27 4 30 31 28 22 9 -9 -6 -12 13 -8 -10 -5 19 18 -18 -15 -21 -22 23 -3 -24 -26 37 -2 -7 -16 -1 32 -4 -34 -35 -30 -20 -27 -19
right_child=1 7 5 15 10 6 12 8 14 -11 11 -13 -14 16 29 -17 17 38 36 20 21 -23 24 -25 25 26 -28 -29 35 -31 -32 -33 33 34 -36 -37 -38 -39 -40
leaf_value=-0.040115514807165083 -0.050874506095504451 0.060176165305708296 0.027625472238677836 -0.0097637310139532026 -0.01637063442644944 0.048511917868435901 0.19529567627625283 0.25725937398231546 -0.03170563920218613 0.60947527157202852 0.0034909798705484718 0.076916439123935518 0.36463853742375418 -0.041126134568265429 0.2466028828460437 0.18400206731321911 0.12569270063812535 0.061988971494062087 0.23521758676568669 0.037242956682174998 0.013055435496650331 0.33623535631668 0.076576444826872841 -0.25924526419814514 0.0043555252520101409 0.29265165157536027 0.54931475538053087 0.0036303372738001882 -0.060264796762096562 0.0040113168029949587 -0.021400034944380208 -0.018808503929423397 0.043959920963628552 0.38714086886710275 0.14268795722629876 0.10829956931588443 0.49302393360915836 0.097747440735848859 0.17252508604653038
leaf_count=18156 1277 331 13660 123 14449 1880 395 69 97 62 6083 770 54 316 195 300 240 856 75 517 73 105 1736 69 112 93 79 4573 477 58 11322 1025 408 65 160 92 59 142 212
internal_value=0 0.182036 0.142302 -0.10475 -0.11094 0.194278 0.353944 0.528148 1.04972 2.1236 -0.0365876 0.0587781 0.52769 0.502951 0.646354 0.637112 0.426496 0.578828 1.00385 0.20873 0.395123 1.02129 0.43003 0.0235413 0.502572 1.00094 1.34861 -0.0412523 0.147856 0.956921 -0.164653 0.138469 0.155179 0.522353 1.06876 -0.164172 1.74738 0.876526 0.416224
internal_count=80765 29562 26519 51203 50780 20669 5351 3043 481 131 21302 6853 2902 2848 350 423 2453 1442 374 1011 695 178 2562 400 2162 426 314 5850 2449 253 29478 15318 14293 633 225 569 134 235 1068
cat_boundaries=0 1 2 3
cat_threshold=134284933 134321024 8390682
shrinkage=0.2


Tree=19
num_leaves=40
num_cat=5
split_feature=6 7 8 6 9 5 3 11 19 2 13 16 6 5 12 18 11 7 2 8 4 17 10 10 17 8 16 4 17 21 19 2 12 8 10 8 3 10 18
split_gain=1026.54 328.736 255.204 177.626 174.828 132.706 116.904 113.045 94.971 85.346 84.1763 78.3899 83.217 243.472 96.8478 77.7631 77.0476 74.9393 74.3082 74.5962 70.8313 90.7357 106.438 124.757 66.6414 59.0986 56.5694 53.4046 53.3158 109.026 52.0052 67.8346 50.9475 48.0709 45.944 45.4709 44.2436 42.6034 42.5735
threshold=12.500000000000002 0.57700000000000007 1.5000000000000002 21.000000000000004 12.500000000000002 2.5000000000000004 0 7.5000000000000009 3.5000000000000004 1 0.77500000000000013 13.000000000000002 13.500000000000002 9.5000000000000018 2.5000000000000004 1.5000000000000002 1.0000000180025095e-35 0.70850000000000013 2 3.5000000000000004 33.445000000000007 3.5000000000000004 0.31650000000000006 0.38750000000000007 8.0000000000000018 4.5000000000000009 13.000000000000002 36.415000000000006 6.5000000000000009 18.200000000000006 4.5000000000000009 3 6.5000000000000009 3.5000000000000004 0.5355000000000002 3.5000000000000004 4 0.38750000000000007 1.0000000180025095e-35
decision_type=2 2 2 2 2 2 5 2 2 5 2 2 2 2 2 2 2 2 5 2 2 2 2 2 2 2 2 2 2 2 2 5 2 2 2 2 5 2 2
left_child=2 4 5 11 8 7 15 -1 24 20 -10 12 -3 -14 -15 -6 -4 36 -5 -20 -8 -22 -23 -24 32 28 -26 -27 29 -12 -30 -32 -2 -31 -19 -18 -16 -11 -34
right_child=1 3 16 18 6 -7 9 -9 10 37 25 -13 13 14 17 -17 35 34 19 -21 21 22 23 -25 26 27 -28 -29 30 33 31 -33 38 -35 -36 -37 -38 -39 -40
leaf_value=-0.027832101603711447 0.012845134948447591 0.025666843085272558 -0.0037588446365573736 0.37770703524085031 0.090268705026669949 -0.0055930288717647584 0.032690195898826734 0.23404222258902863 0.019443562523715451 -0.014081810678222352 0.059584986465964176 -0.019277379729135111 0.23308164887036567 0.0003778901276101659 0.15392621421093841 -0.24677383002859576 0.019930471988935456 0.11845189355024435 0.26010080654370155 0.040991926743128508 0.48676572200553175 0.38853513279865526 -0.11875039470397819 0.23977208327768104 -0.023128658059250368 0.089046656221828682 -0.23051756066935405 0.31921123753894465 -0.035810854166489228 0.25497352539508217 0.20520550571544016 0.020399308762821467 0.089602606209588154 0.042536256042393777 0.30908757219305982 0.066230440251638364 0.052635160454817448 0.14164490311694661 0.027062826412274262
leaf_count=30323 8452 598 6471 102 55 18028 68 66 1594 140 689 278 497 508 244 54 5984 103 133 119 58 87 59 112 916 88 56 77 290 209 105 289 672 55 104 992 694 139 1257
internal_value=0 0.20416 -0.0621198 0.486828 0.142571 -0.0959722 0.606621 -0.1363 0.118248 0.757974 0.265024 0.408165 0.459389 0.551236 0.366274 -0.347101 0.0597312 0.527502 1.15783 0.75518 1.06987 1.2972 1.03974 0.577433 0.0742989 0.413183 -0.175899 0.985314 0.35521 0.508305 0.141176 0.378148 0.0977738 1.05547 1.07357 0.132644 0.406463 0.304796 0.244507
internal_count=80765 18901 61864 3380 15521 48417 772 30389 14749 663 3396 3026 2748 2150 1653 109 13447 1145 354 252 384 316 258 171 11353 1802 972 165 1637 953 684 394 10381 264 207 6976 938 279 1929
cat_boundaries=0 1 2 3 4 5
cat_threshold=8394776 1796 67200 1153 285217874
shrinkage=0.2


Tree=20
num_leaves=40
num_cat=7
split_feature=6 21 17 19 16 11 2 3 16 11 17 3 9 18 18 8 18 3 9 10 2 15 8 18 21 3 11 2 12 20 8 5 19 4 15 19 20 17 17
split_gain=672.025 223.082 195.985 247.585 155.05 107.326 106.81 120.314 144.105 171.996 99.689 89.0434 167.114 64.0051 62.1882 59.0424 57.5328 50.7702 50.3227 93.8015 49.1132 47.8211 47.6652 47.4866 45.9372 45.3335 62.3029 54.1592 96.4089 44.0192 41.4707 41.4133 39.5322 38.8422 36.7955 36.8662 36.1208 36.0953 35.5304
threshold=9.5000000000000018 17.100000000000005 8.0000000000000018 3.5000000000000004 7.5000000000000009 1.0000000180025095e-35 0 1 4.5000000000000009 7.5000000000000009 3.5000000000000004 2 12.500000000000002 2.5000000000000004 1.0000000180025095e-35 1.0000000180025095e-35 2.5000000000000004 3 9.5000000000000018 0.5355000000000002 4 3.5000000000000004 1.0000000180025095e-35 1.5000000000000002 24.300000000000004 5 7.5000000000000009 6 8.5000000000000018 2.5000000000000004 2.5000000000000004 1.5000000000000002 1.5000000000000002 32.190000000000005 12.500000000000002 4.5000000000000009 1.0000000180025095e-35 4.5000000000000009 4.5000000000000009
decision_type=2 2 2 2 2 2 5 5 2 2 2 5 2 2 2 2 2 5 2 2 5 2 2 2 2 5 2 5 2 2 2 2 2 2 2 2 2 2 2
left_child=5 22 3 4 10 31 7 -4 -9 -10 18 12 23 -12 -6 -7 21 -8 -3 32 24 29 -2 38 -16 26 -22 28 -27 -13 -26 -1 -20 -21 35 -19 -29 -18 -5
right_child=1 2 6 11 14 15 17 8 9 -11 13 16 -14 -15 20 -17 37 34 19 33 25 -23 -24 -25 30 27 -28 36 -30 -31 -32 -33 -34 -35 -36 -37 -38 -39 -40
leaf_value=-0.028854421214250216 -0.0064514021646833305 0.085913862338646119 -0.11954562416823025 0.32650946918874979 0.047935087194927894 -0.012444520773858415 0.044146099946806135 -0.076762398712304059 0.063831131849941367 0.36907380837646708 0.053798648161795581 0.14038798537716937 0.51737253604427225 -0.039978168882863853 -0.0031874879154774327 0.0090968311895435854 0.11412105708416687 -0.065918735722532831 -0.0063410415591900809 0.17113900459126424 -0.0042236647930649299 0.1002868536450694 0.016549979875635525 0.066209823826953548 0.046418314590118831 -0.067232910024870127 0.2153740677310795 -0.15704072853792217 -0.36466250890179686 0.34027687654118327 0.28664481333560415 -0.013901037187386384 0.20193260857519113 0.35317956076727974 -0.1785624772431734 0.023083111197385105 -0.01358261011030853 -0.051371914344943238 0.14860035454007711
leaf_count=15661 4738 1446 104 80 954 11615 236 113 185 124 1949 134 63 341 178 9055 83 843 114 95 333 944 14981 131 64 191 61 77 57 68 54 14129 53 99 92 237 829 144 110
internal_value=0 0.117988 0.235101 0.299439 0.213937 -0.0704091 -0.0524691 0.328093 0.565969 0.933235 0.337875 0.634692 1.06643 0.198954 0.0322807 -0.0150148 0.502155 -0.195933 0.513652 0.849066 -0.0747446 0.596953 0.0550912 0.799693 0.292193 -0.146175 0.143952 -0.246045 -0.653629 1.04086 0.786 -0.108828 0.295795 1.32276 -0.281415 -0.231476 -0.128014 0.043491 1.12018
internal_count=80765 30305 10586 8652 6895 50460 1934 526 422 309 4097 1757 384 2290 2798 20670 1373 1408 1807 361 1844 1146 19719 321 296 1548 394 1154 248 202 118 29790 167 194 1172 1080 906 227 190
cat_boundaries=0 1 2 3 4 5 6 7
cat_threshold=16778897 8389191 286785539 25171970 536953344 16941131 5504
shrinkage=0.2


Tree=21
num_leaves=40
num_cat=3
split_feature=11 8 8 5 13 12 11 12 3 8 7 6 6 3 1 3 1 7 19 17 20 14 21 17 21 9 15 21 17 19 13 12 11 11 12 9 21 1 8
split_gain=502.806 207.382 159.282 79.203 66.0228 201.146 83.5262 163.317 79.4019 60.7484 57.2512 83.0249 56.9422 130.02 84.7491 108.982 96.7043 100.948 141.123 78.781 62.4627 56.5107 54.9862 52.3309 88.9659 61.2126 55.0346 47.0703 106.637 47.4553 42.2174 172.251 86.2644 74.3885 40.555 38.5023 37.0605 35.568 35.476
threshold=2.5000000000000004 2.5000000000000004 1.0000000180025095e-35 4.5000000000000009 0.77500000000000013 6.5000000000000009 7.5000000000000009 8.5000000000000018 0 1.5000000000000002 0.70850000000000013 14.500000000000002 24.500000000000004 1 61.500000000000007 2 33.500000000000007 0.51450000000000007 4.5000000000000009 6.5000000000000009 2.5000000000000004 1.5000000000000002 20.400000000000002 8.0000000000000018 24.300000000000004 1.5000000000000002 6.5000000000000009 24.300000000000004 6.5000000000000009 1.5000000000000002 0.87850000000000017 5.5000000000000009 4.5000000000000009 4.5000000000000009 1.5000000000000002 12.500000000000002 19.300000000000001 33.500000000000007 3.5000000000000004
decision_type=2 2 2 2 2 2 2 2 5 2 2 2 2 5 2 5 2 2 2 2 2 2 2 2 2 2 2 2 2 2 2 2 2 2 2 2 2 2 2
left_child=2 4 22 38 -2 30 -7 -8 -9 23 12 -12 21 -14 15 -15 17 18 -17 20 -18 -3 -1 24 26 -26 -10 35 29 34 33 32 -32 -6 -29 -5 -11 -38 -4
right_child=1 10 3 27 5 6 7 8 9 36 11 -13 13 14 -16 16 19 -19 -20 -21 -22 -23 -24 -25 25 -27 -28 28 -30 -31 31 -33 -34 -35 -36 -37 37 -39 -40
leaf_value=-0.018928583275325178 -0.0019082540620012417 0.058602760975446436 -0.0085255601359071932 0.014350963159537451 0.02273519130730416 0.11177325129214372 -0.12126081218795033 -0.014446707802795656 0.091653032271883733 0.047735452758805724 0.09027320738171693 0.36329141665121606 -0.082749369897784336 0.29491249305697592 0.3769972123719495 -0.11158715197816492 0.068793841098711173 0.33339492050053066 0.30879532243564445 0.15952272731246372 -0.1984795767698706 0.0043379447687177299 -0.1219688443368987 -0.066448122823592456 0.078475769363964609 0.35286021092151471 -0.073606097766455145 -0.15899932007155113 -0.1681453327735814 0.14510764835304335 0.014824954066188403 0.11887853664803616 -0.061215068770077409 -0.061296491749268878 0.056005768736358735 0.1074081194406962 0.1413041416156505 0.30927616224153759 0.062436877331742038
leaf_count=29449 5849 3639 17905 11569 815 1176 214 343 261 68 200 58 117 107 58 80 54 87 53 66 97 978 209 101 60 74 116 62 181 95 3711 576 711 870 80 181 112 97 286
internal_value=0 0.134419 -0.0461679 0.00473457 0.0736324 0.125968 0.360717 0.19922 0.339546 0.494238 0.298999 0.760185 0.276607 0.538921 0.71982 0.607906 0.352745 0.828285 0.275909 -0.11081 -0.511181 0.235649 -0.0982904 0.322648 0.453066 1.15374 0.202694 0.0672011 -0.26228 0.177378 0.0337923 0.0799975 0.0128805 -0.102964 -0.185827 0.0789647 0.889384 1.0987 -0.0370219
internal_count=80765 20748 60017 30359 15154 9305 2622 1446 1232 889 5594 258 5336 719 602 544 437 220 133 217 151 4617 29658 612 511 134 377 12168 418 237 6683 4998 4422 1685 142 11750 277 209 18191
cat_boundaries=0 1 2 3
cat_threshold=277382676 8395784 269090820
shrinkage=0.2


Tree=22
num_leaves=40
num_cat=4
split_feature=12 8 8 6 14 3 7 6 5 11 7 13 15 20 8 18 11 12 17 16 11 19 12 14 6 20 11 2 5 21 17 2 19 4 2 12 21 7 9
split_gain=339.118 165.934 83.9397 80.1163 70.7421 108.462 61.3886 122.392 63.7565 70.0104 56.4632 161.451 69.3364 65.7849 71.0748 92.1166 51.2168 43.444 37.4662 60.3582 68.7593 47.3356 37.3364 35.806 40.2157 32.591 84.9981 35.5643 31.8306 40.9071 53.3313 51.4325 37.5924 31.6372 50.0639 109.795 42.6873 38.6456 30.8703
threshold=2.5000000000000004 1.5000000000000002 1.0000000180025095e-35 24.500000000000004 3.5000000000000004 0 0.57700000000000007 13.500000000000002 11.500000000000002 7.5000000000000009 0.51450000000000007 0.87850000000000017 5.5000000000000009 2.5000000000000004 4.5000000000000009 1.5000000000000002 7.5000000000000009 7.5000000000000009 8.0000000000000018 9.5000000000000018 7.5000000000000009 3.5000000000000004 8.5000000000000018 1.5000000000000002 17.500000000000004 2.5000000000000004 7.5000000000000009 1 4.5000000000000009 20.400000000000002 6.5000000000000009 2 1.5000000000000002 33.445000000000007 3 8.5000000000000018 24.300000000000004 0.43650000000000005 9.5000000000000018
decision_type=2 2 2 2 2 5 2 2 2 2 2 2 2 2 2 2 2 2 2 2 2 2 2 2 2 2 2 5 2 2 2 5 2 2 5 2 2 2 2
left_child=2 18 -1 6 5 -5 8 -8 23 -10 13 12 -12 17 16 -16 -15 -7 21 -20 -21 -2 -23 24 -3 27 -27 -9 -4 -30 31 -31 38 36 35 -35 -26 -36 -33
right_child=1 3 28 4 -6 10 7 25 9 -11 11 -13 -14 14 15 -17 -18 -19 19 20 -22 22 -24 -25 33 26 -28 -29 29 30 -32 32 -34 34 37 -37 -38 -39 -40
leaf_value=-0.016624643025300555 0.0035965825726747913 0.023686122474823948 -0.0063025891357772913 -0.10703345955539066 0.28792252501761412 0.058554565300653276 0.019976890397470717 0.0084097458162055976 -0.003672119511867169 -0.22625473809496657 0.23348947944966231 0.3847148900433463 -0.047589164320379497 0.00049924033703983471 0.053251725385586424 -0.30394350127740344 0.24368614477238487 0.25574610725168018 0.004728530256841907 -0.052054993807592181 -0.26774609891795803 0.023071286825772353 0.094994544105016093 0.0011714218195993454 0.041124286872760984 0.11044587893214906 0.33632585447800312 0.11032180453946278 0.011600329083381974 -0.10772604540697416 -0.1007055038281905 -0.04461142679714427 0.10013264742232933 0.062024613446874981 0.011007774605539191 0.34797962754964828 -0.13543389276379633 0.093647907049396989 0.11220325374059262
leaf_count=27455 12133 3891 17235 103 71 91 1428 222 185 82 55 98 96 93 60 55 56 91 616 275 76 1229 380 1655 413 450 79 409 9533 127 306 245 193 146 415 86 63 506 63
internal_value=0 0.0953149 -0.0439363 0.188837 0.480412 0.394443 0.163525 0.296316 0.117278 -0.362027 0.532963 0.923201 0.270641 0.325924 0.0051338 -0.583556 0.462847 0.788499 0.0259837 -0.164173 -0.495211 0.0394011 0.200598 0.135184 0.173868 0.5377 0.721837 0.382535 -0.00508067 0.038395 -0.161187 0.00482594 0.151317 0.305979 0.395646 0.807476 0.087731 0.27956 -0.0610551
internal_count=80765 25608 55157 10899 869 798 10030 2588 7442 267 695 249 151 446 264 115 149 182 14709 967 351 13742 1609 7175 5520 1160 529 631 27702 10467 934 628 501 1629 1153 232 476 921 308
cat_boundaries=0 1 2 3 4
cat_threshold=8918024 537138707 538973184 21777
shrinkage=0.2


Tree=23
num_leaves=40
num_cat=7
split_feature=11 8 19 19 3 6 7 6 7 2 6 21 21 15 5 6 7 15 3 2 16 6 9 13 10 7 18 12 17 16 13 4 2 3 11 16 20 17 3
split_gain=218.155 139.099 48.6754 42.1241 87.3067 64.42 42.8088 74.665 77.383 66.0744 192.659 70.0095 52.8662 73.579 72.3532 50.2106 48.6994 40.7753 39.5004 48.8857 43.806 83.9503 68.5985 66.0663 41.5412 70.139 37.7947 37.0814 82.3333 47.8617 46.9539 58.3669 36.0562 36.8243 32.8499 31.6685 31.5418 29.5194 29.3399
threshold=1.0000000180025095e-35 2.5000000000000004 2.5000000000000004 4.5000000000000009 0 21.000000000000004 0.51450000000000007 14.500000000000002 0.70850000000000013 1 24.500000000000004 24.300000000000004 24.300000000000004 8.5000000000000018 11.500000000000002 24.500000000000004 0.43650000000000005 12.500000000000002 2 3 9.5000000000000018 24.500000000000004 12.500000000000002 0.87850000000000017 0.41450000000000004 0.5545000000000001 1.0000000180025095e-35 8.5000000000000018 8.0000000000000018 7.5000000000000009 0.69050000000000022 39.095000000000006 4 5 7.5000000000000009 6.5000000000000009 2.5000000000000004 4.5000000000000009 6
decision_type=2 2 2 2 5 2 2 2 2 5 2 2 2 2 2 2 2 2 5 5 2 2 2 2 2 2 2 2 2 2 2 2 5 5 2 2 2 2 5
left_child=-1 2 17 6 5 -5 12 -8 9 10 26 -11 -3 14 16 -15 -14 -2 24 -20 22 36 -21 -24 -6 -26 37 34 30 -30 35 32 -32 -34 -4 -29 -22 -9 -13
right_child=1 3 27 4 18 -7 7 8 -10 11 -12 38 13 15 -16 -17 -18 -19 19 20 21 -23 23 -25 25 -27 -28 28 29 -31 31 -33 33 -35 -36 -37 -38 -39 -40
leaf_value=-0.01142006558690311 0.00041377518201797162 0.019483975026200605 0.013075868484360834 0.071666466711827054 0.077952427084141587 0.3685117887223468 0.015866019124844321 0.088321600011602816 0.2680109589034087 0.08424882130655513 0.39682779620237213 -0.10955894623629073 0.10691888515765852 -0.043297648194589117 -0.24281418140571898 0.22466482953340919 -0.098151212635467638 -0.077554247091520867 -0.050034270780877424 0.080031169141453418 0.0025750282346396836 -0.20247289812458413 0.097636474359710262 0.41501726762012203 -0.2045438739586245 0.074328099110474194 0.032238479086079783 0.11164724625590626 0.0682864784857347 -0.098399129460067167 -0.020204528997982703 0.25863759274776471 -0.0051554229675925206 0.1328702612075808 -0.12861463900542622 -0.055617193489645923 0.20192754016372194 0.27002682093869557 0.0053411016762252893
leaf_count=36469 26831 3868 6479 53 94 68 2142 110 77 534 85 100 65 57 101 54 159 271 120 455 74 56 53 54 89 60 339 66 105 198 114 87 102 396 66 144 57 55 458
internal_value=0 0.0473356 0.0181626 0.155044 0.327645 1.10523 0.129042 0.204981 0.357793 0.312502 0.580351 0.160785 0.0601155 -0.269686 -0.51047 0.430808 -0.190989 -0.00181079 0.230571 0.330246 0.425967 0.00967753 0.571173 1.29372 -0.122869 -0.457876 0.354124 0.0880114 0.248807 -0.201534 0.399471 0.524063 0.41391 0.524291 0.0581589 -0.0128609 0.450398 0.74748 -0.084694
internal_count=80765 44296 34859 9437 1233 121 8204 3900 1758 1681 589 1092 4304 436 325 111 224 27102 1112 869 749 187 562 107 243 149 504 7757 1212 303 909 699 612 498 6545 210 131 165 558
cat_boundaries=0 1 2 3 4 5 6 7
cat_threshold=285736961 553719426 8401472 553713668 295552 25199108 8521795
shrinkage=0.2


Tree=24
num_leaves=40
num_cat=5
split_feature=8 12 13 11 3 12 4 15 1 15 19 1 11 2 14 12 13 3 8 9 9 10 17 6 21 21 3 17 16 21 3 17 16 1 5 11 17 21 16
split_gain=163.22 101.784 106.604 69.6639 118.247 77.6996 77.1204 65.1929 79.6262 88.8024 75.0642 73.524 51.3618 45.7588 49.7535 45.4575 51.8838 85.0294 72.3458 63.7893 38.0555 134.224 39.4799 42.8882 37.5763 37.0778 36.0172 33.7855 32.8561 32.1205 31.1649 31.1103 37.7256 30.7568 27.3003 92.949 35.4825 39.7653 33.7199
threshold=1.5000000000000002 5.5000000000000009 0.87850000000000017 7.5000000000000009 0 8.5000000000000018 36.415000000000006 5.5000000000000009 11.500000000000002 6.5000000000000009 3.5000000000000004 35.500000000000007 1.0000000180025095e-35 1 1.5000000000000002 7.5000000000000009 0.77500000000000013 2 4.5000000000000009 9.5000000000000018 9.5000000000000018 0.5355000000000002 6.5000000000000009 21.000000000000004 24.300000000000004 20.400000000000002 3 8.0000000000000018 9.5000000000000018 24.300000000000004 4 4.5000000000000009 3.5000000000000004 31.000000000000004 2.5000000000000004 7.5000000000000009 8.0000000000000018 20.400000000000002 9.5000000000000018
decision_type=2 2 2 2 5 2 2 2 2 2 2 2 2 5 2 2 2 5 2 2 2 2 2 2 2 2 5 2 2 2 5 2 2 2 2 2 2 2 2
left_child=12 20 15 -4 6 -6 -5 13 -9 -10 -11 -12 25 -7 31 -3 26 19 27 -18 22 24 23 -2 -22 -1 -17 30 -25 -24 -19 -15 -33 -20 35 -14 -36 -38 -39
right_child=1 2 3 4 5 7 -8 8 9 10 11 -13 34 14 -16 16 17 18 33 -21 21 -23 29 28 -26 -27 -28 -29 -30 -31 -32 32 -34 -35 36 -37 37 38 -40
leaf_value=-0.011740812517349859 0.0056536141471100858 -0.0055584700279466669 0.13057853364607011 0.089850803275229568 -0.10917027014331869 0.094839969348648329 0.42329041593604622 -0.11273830679227721 0.34751279835235072 0.25932646233966383 0.17153556762171573 -0.11837753841608037 -0.0099090965155826591 0.092719906278244862 -0.20353908445213695 -0.059728383566785642 0.043328518866443302 0.19883452975073784 0.35568401668100591 -0.18964686915810622 0.015703317556161372 0.13111036170186841 -0.013644347227006047 0.11763527956552422 -0.092908338536407883 -0.16426864576060327 0.031422969532822469 -0.014386070848611945 -0.036726309621418027 -0.092245620836763978 0.064231070622992825 0.043516381708058445 -0.18855397616113936 0.14794647038603823 0.0071885414665211651 0.21062763281553598 0.00062765727045189124 -0.021848474096787987 -0.13598780135763586
leaf_count=27872 16463 1614 669 59 154 105 54 53 71 69 61 82 9974 77 69 226 142 109 62 70 1513 438 1350 234 139 64 643 110 71 247 263 55 56 57 16334 77 640 212 207
internal_value=0 0.0665508 0.195555 0.404493 0.231769 0.0949681 1.14873 0.238429 0.555781 0.767202 0.439864 0.0229619 -0.0302844 -0.0547485 -0.280344 0.0918213 0.206896 0.38854 0.575281 -0.158167 0.0354342 0.163328 0.0208522 0.0351844 0.0325208 -0.0604691 0.0363826 0.410933 0.40687 -0.129319 0.555059 -0.0219731 -0.363316 1.2851 0.000423223 -0.0410482 0.0244173 -0.152878 -0.392379
internal_count=80765 25385 4930 1634 965 852 113 698 336 283 212 143 55380 362 257 3296 1682 813 601 212 20455 2090 18365 16768 1652 27936 869 482 305 1597 372 188 111 119 27444 10051 17393 1059 419
cat_boundaries=0 1 2 3 4 5
cat_threshold=1605636 689963013 25168396 1716241 268444737
shrinkage=0.2


Tree=25
num_leaves=40
num_cat=8
split_feature=12 19 2 3 9 5 10 20 3 21 16 18 2 5 8 3 2 17 6 18 14 21 21 15 13 21 5 9 18 7 6 3 2 11 7 11 4 5 7
split_gain=110.674 60.3945 51.846 63.7104 167.425 40.2046 37.3321 34.7217 45.6538 33.5939 50.9579 31.457 30.5183 72.1483 27.185 27.0257 24.9352 32.2009 25.1255 24.9244 35.4963 27.5264 24.375 35.5418 61.8422 72.1018 49.9751 34.6509 30.3481 24.3465 55.0219 54.9731 71.0958 81.6701 46.4581 52.6922 39.1353 64.1501 45.3623
threshold=2.5000000000000004 4.5000000000000009 0 1 12.500000000000002 1.0000000180025095e-35 0.26800000000000007 2.5000000000000004 2 20.400000000000002 9.5000000000000018 2.5000000000000004 3 9.5000000000000018 4.5000000000000009 4 5 2.5000000000000004 21.000000000000004 1.5000000000000002 3.5000000000000004 20.400000000000002 14.150000000000002 8.5000000000000018 0.87850000000000017 24.300000000000004 11.500000000000002 9.5000000000000018 1.5000000000000002 0.51450000000000007 16.500000000000004 6 7 7.5000000000000009 0.5545000000000001 7.5000000000000009 39.785000000000004 11.500000000000002 0.61250000000000016
decision_type=2 2 5 5 2 2 2 2 5 2 2 2 5 2 2 5 5 2 2 2 2 2 2 2 2 2 2 2 2 2 2 5 5 2 2 2 2 2 2
left_child=5 6 15 4 -4 -1 19 12 -9 14 11 16 13 -5 -7 -3 -11 -18 -19 -2 -21 -22 -10 24 27 -26 -25 28 -24 -8 -31 34 33 -33 -32 -36 37 -34 -39
right_child=1 2 3 7 -6 9 29 8 22 10 -12 -13 -14 -15 -16 -17 17 18 -20 20 21 -23 23 26 25 -27 -28 -29 -30 30 31 32 36 -35 35 -37 -38 38 -40
leaf_value=-0.016591484254415322 0.0047933726961233471 -0.10189111545437674 0.077289430632821329 0.043278359387391802 0.46012086429685922 -0.0023851519521623562 0.0074485602323770984 -0.053697046587273249 0.025821924376601427 -0.075628236166627727 -0.10989311064847491 -0.099250155835083342 0.021902114348890559 -0.26699975414096183 0.031793607307889826 0.0079949735849006495 0.11597092487372276 -0.025511665913609812 0.10091642024807441 -0.0074589396036413751 -0.030529375050216911 -0.13893593953058025 0.22424506765804184 0.099002620270605093 0.11381680821349104 0.39741485193371773 -0.11661520272981925 -0.048144491094706671 0.040448154187128868 0.012734426851666984 0.090232253332776347 0.11273480419330693 0.09306914955659798 0.37556377649307254 -0.004445122260061142 -0.21484142709523441 0.17131229930234201 -0.077455868254298788 0.064199409674148306
leaf_count=9853 8951 112 341 68 53 43301 6326 116 248 108 286 133 580 53 951 332 123 324 78 2276 250 153 67 144 83 65 61 67 81 3674 127 189 396 64 190 64 98 231 148
internal_value=0 0.0544949 0.203146 0.270228 0.629234 -0.0250561 0.0385976 0.180003 0.307589 -0.0124523 -0.189086 -0.0538791 0.0122267 -0.423972 -0.00824186 -0.105688 0.038278 0.129627 -0.00366044 -0.00131583 -0.0859763 -0.359672 0.388623 0.507893 0.696333 1.19523 0.171777 0.350582 0.621646 0.0789811 0.129847 0.290847 0.400071 0.863935 -0.0400886 -0.28926 0.256813 0.183643 -0.109377
internal_count=80765 25608 2471 2027 394 55157 23137 1633 932 45304 1052 766 701 121 44252 444 633 525 402 11630 2679 403 816 568 363 148 205 215 148 11507 5181 1507 1126 253 381 254 873 775 379
cat_boundaries=0 1 2 3 4 5 6 7 8
cat_threshold=554009088 18481155 580 1028 269125698 538973186 25330705 673252356
shrinkage=0.2


Tree=26
num_leaves=40
num_cat=8
split_feature=19 21 17 6 7 18 2 12 8 7 3 9 9 2 5 16 4 3 2 5 6 3 7 21 13 3 19 12 8 18 21 14 17 21 18 16 17 12 2
split_gain=81.499 67.2622 85.4274 71.9654 46.155 39.2396 58.6324 39.9248 37.5595 33.0291 35.8022 185.318 126.019 35.7619 30.9083 29.7554 32.4524 33.585 29.3413 27.5012 26.2624 41.3311 25.1319 42.7865 24.5302 23.7023 25.3215 28.7474 23.486 23.1074 24.3742 26.1851 22.8186 34.865 28.9715 23.5019 23.1211 41.4444 21.6872
threshold=2.5000000000000004 11.500000000000002 4.5000000000000009 16.500000000000004 0.29150000000000004 1.0000000180025095e-35 0 8.5000000000000018 1.0000000180025095e-35 0.45250000000000007 1 12.500000000000002 12.500000000000002 2 11.500000000000002 6.5000000000000009 39.785000000000004 3 4 9.5000000000000018 16.500000000000004 5 0.57700000000000007 24.300000000000004 0.69050000000000022 6 4.5000000000000009 8.5000000000000018 4.5000000000000009 1.5000000000000002 18.200000000000006 3.5000000000000004 5.5000000000000009 17.100000000000005 1.5000000000000002 9.5000000000000018 1.5000000000000002 7.5000000000000009 7
decision_type=2 2 2 2 2 2 5 2 2 2 5 2 2 5 2 2 2 5 5 2 2 5 2 2 2 5 2 2 2 2 2 2 2 2 2 2 2 2 5
left_child=8 -2 3 29 -4 6 7 -6 20 19 12 13 -11 14 -12 24 17 -17 -19 25 -1 -22 23 -8 -5 -7 -27 -28 -20 30 -3 -32 33 -10 36 -36 37 -35 -23
right_child=1 2 4 15 5 9 22 -9 32 10 11 -13 -14 -15 -16 16 -18 18 28 -21 21 38 -24 -25 -26 26 27 -29 -30 -31 31 -33 -34 34 35 -37 -38 -39 -40
leaf_value=-0.0070917381360756275 -0.00077538036736223362 0.027896731379134645 0.18833766529303897 0.20348496670882765 0.061402141574743024 -0.069010258232808028 0.01813549655695736 0.23150602947332355 0.00089060720733138076 -0.0032248296235085059 -0.0097336350904347821 0.30780550082298846 -0.32006649851799013 0.028693232993444347 -0.13574310582058102 -0.051448461685736635 0.17743968323550441 -0.023421989442383658 0.07519551307625022 -0.10034419527305433 0.060876434935932672 -0.15529019721832715 0.068407668573501765 -0.11203114878615242 0.10097161550705035 -0.022839685679898355 0.0036331992596387863 0.16657989804233825 0.21878354794011928 -0.0062566210999244103 0.14246567151110087 -0.0039851314527218915 -0.013615078931505875 0.045860285115733805 0.009314679916598026 -0.063716609596919563 0.023256359850714753 0.19106856971146896 -0.04831884490343763
leaf_count=31475 6806 932 57 126 137 244 610 95 27047 585 338 88 55 1082 102 109 88 112 377 199 103 104 266 121 399 434 117 70 53 576 168 67 3510 506 1152 208 1795 94 358
internal_value=0 0.0682737 0.132893 0.263999 0.0470803 0.0357458 0.188399 0.630272 -0.0146891 -0.020715 0.0477643 0.127112 -0.150694 0.0459831 -0.191509 0.44583 0.315149 0.237054 0.335931 -0.165996 -0.039313 -0.253145 0.0779708 -0.0163688 0.628826 -0.0881812 0.0172207 0.32582 0.455048 0.131851 0.212798 0.50143 0.00828977 0.0170081 0.107308 -0.00890641 0.173509 0.343881 -0.376954
internal_count=80765 14413 7607 3007 4600 4543 1229 232 66352 3314 2250 1610 640 1522 440 1264 739 651 542 1064 32040 565 997 731 525 865 621 187 430 1743 1167 235 34312 30802 3755 1360 2395 600 462
cat_boundaries=0 1 2 3 4 5 6 7 8
cat_threshold=70915 293615634 2168212 270008402 136577666 293634112 8397335 2118913
shrinkage=0.2


Tree=27
num_leaves=40
num_cat=4
split_feature=13 12 11 12 3 21 5 7 2 16 4 17 1 7 18 20 1 17 13 12 12 1 16 21 17 13 12 11 11 6 19 6 3 21 7 5 3 6 9
split_gain=65.3925 137.681 99.9352 121.662 61.8882 62.6529 87.7415 87.8177 60.4361 60.4301 86.0418 79.1367 51.0374 39.7926 37.2261 53.0347 50.4574 48.6302 36.1563 47.7411 73.4171 36.1328 31.7975 27.9826 36.2831 25.8664 145.117 81.4666 67.3696 28.5546 25.5992 25.5887 24.4661 23.4167 43.2754 72.3455 66.359 54.1991 34.8081
threshold=0.77500000000000013 6.5000000000000009 7.5000000000000009 8.5000000000000018 0 24.300000000000004 7.5000000000000009 0.40450000000000003 1 4.5000000000000009 39.095000000000006 3.5000000000000004 25.500000000000004 0.29150000000000004 1.5000000000000002 3.5000000000000004 37.500000000000007 5.5000000000000009 0.87850000000000017 7.5000000000000009 8.5000000000000018 33.500000000000007 6.5000000000000009 17.100000000000005 3.5000000000000004 0.87850000000000017 5.5000000000000009 4.5000000000000009 4.5000000000000009 21.000000000000004 2.5000000000000004 17.500000000000004 2 24.300000000000004 0.70850000000000013 11.500000000000002 3 24.500000000000004 9.5000000000000018
decision_type=2 2 2 2 5 2 2 2 5 2 2 2 2 2 2 2 2 2 2 2 2 2 2 2 2 2 2 2 2 2 2 2 5 2 2 2 5 2 2
left_child=33 25 18 -4 8 13 -7 -8 -5 -9 11 -11 -13 -6 16 17 32 -16 19 -3 -21 -12 23 -15 -25 27 28 29 -27 -2 -26 -18 -10 38 36 -36 37 -35 -1
right_child=1 2 3 4 5 6 7 9 14 10 21 12 -14 22 15 -17 31 -19 -20 20 -22 -23 -24 24 30 26 -28 -29 -30 -31 -32 -33 -34 34 35 -37 -38 -39 -40
leaf_value=-0.0041354410382042888 0.010397100847440811 0.015784858967820111 -0.09893352570987328 -0.14282845376225992 0.16213935138522717 0.31968417973883118 -0.15554858184066311 -0.030577300109521106 -0.075759302574241988 0.24774336234073746 0.1714671383488853 0.14478049877580706 -0.04412583762329389 -0.039993968042801691 -0 0.067529117620804088 0.061290560181563106 -0.24215236310273003 0.13033383994629966 0.14525915913608126 0.011863773133981424 0.40856485261961267 -0.051772589855009821 0.17763570321102939 -0.053270877031916443 0.0035526356264905475 0.085426689308004455 -0.054341757999712817 -0.049436979160911165 0.12020195535783257 0.092652375144090984 0.22862236610081582 0.055020033104955096 -0.012917471395382669 -0.044111326992826244 0.19138731360435488 -0.08245473074641356 0.21467401926804866 0.028852309545016872
leaf_count=52185 1006 516 319 113 69 67 58 108 106 88 53 91 153 127 62 88 81 73 426 448 264 54 262 90 91 17909 845 1194 1014 105 101 70 103 163 134 85 677 56 1311
internal_value=0 0.0411831 0.209928 0.0804858 0.16776 0.28696 0.510194 0.388854 -0.0763736 0.513465 0.678536 0.425078 0.129585 0.087442 0.056357 -0.262631 0.256907 -0.657626 0.399563 0.311698 0.479692 1.46029 0.0123234 0.187264 0.36343 0.00996177 0.0216715 -0.0902459 0.00353936 0.104324 0.11485 0.697619 -0.0591104 -0.0196257 -0.163109 0.234178 -0.260771 0.214327 -0.0166258
internal_count=80765 26154 4081 2427 2108 1412 672 605 696 547 439 332 244 740 583 223 360 135 1654 1228 712 107 671 409 282 22073 19768 2305 18923 1111 192 151 209 54611 1115 219 896 219 53496
cat_boundaries=0 1 2 3 4
cat_threshold=276970004 134251264 12804 293637640
shrinkage=0.2


Tree=28
num_leaves=40
num_cat=7
split_feature=6 7 20 11 18 16 10 7 7 11 7 2 17 12 7 14 18 21 17 19 20 3 12 14 21 19 1 1 1 12 3 20 17 2 5 3 3 3 5
split_gain=49.541 113.175 44.5723 32.458 32.4533 38.6889 36.2398 34.7222 34.0652 34.7104 59.1831 33.9097 28.0953 75.9175 33.3238 26.8317 26.4898 44.5612 33.5907 31.3742 30.8565 29.125 51.8234 27.2511 26.732 31.4807 25.4568 48.9535 36.5913 62.7353 25.1023 41.6956 26.2438 28.2535 20.9662 22.173 20.6782 20.3657 20.2627
threshold=21.000000000000004 0.61250000000000016 2.5000000000000004 1.0000000180025095e-35 1.5000000000000002 5.5000000000000009 0.5355000000000002 0.51450000000000007 0.57700000000000007 7.5000000000000009 0.51450000000000007 0 4.5000000000000009 8.5000000000000018 0.45250000000000007 1.5000000000000002 1.5000000000000002 14.150000000000002 2.5000000000000004 3.5000000000000004 3.5000000000000004 1 8.5000000000000018 2.5000000000000004 20.400000000000002 4.5000000000000009 15.500000000000002 25.500000000000004 55.500000000000007 8.5000000000000018 2 3.5000000000000004 5.5000000000000009 3 11.500000000000002 4 5 6 11.500000000000002
decision_type=2 2 2 2 2 2 2 2 2 2 2 5 2 2 2 2 2 2 2 2 2 5 2 2 2 2 2 2 2 2 5 2 2 5 2 5 5 5 2
left_child=3 4 -3 -1 5 6 7 38 9 37 15 -6 13 -13 -14 -11 17 -5 19 -19 23 22 -22 -20 -18 30 -16 -28 29 -29 31 -26 33 -32 35 -35 -25 -7 -2
right_child=1 2 -4 16 11 8 -8 -9 -10 10 -12 12 14 -15 26 -17 24 18 20 -21 21 -23 -24 36 25 -27 27 28 -30 -31 32 -33 -34 34 -36 -37 -38 -39 -40
leaf_value=-0.0053120185741060647 0.092447635969883188 0.099090313201195726 0.30733190929328186 0.0010920431043616667 -0.10785008538218717 0.070333809236909781 -0.061001203075284144 0.20484333206348274 0.13632410586995566 0.081998992830514913 -0.23967496275396671 -0.016947142348574303 -0.065880683302552229 0.19487233667975606 -0.068488170371243828 -0.080724886212159286 -0.0010317210928739394 0.029477669791419654 0.0081751320504833223 0.11404505242653035 0.050441815106065151 0.020445513766404189 0.27112363725900651 0.03760086605256862 -0.024583655135867036 0.041253510368024486 0.20036606763058634 0.056245876705706722 0.14586568344723094 -0.19739901876309887 -0.079933265257471561 0.17398083500825523 -0.076255391292143371 0.063950456450853885 0.096212555707236871 -0.035328935250575212 -0.049588611596913711 -0.00088828295184713269 -0.028492406344235832
leaf_count=36313 291 107 69 23984 116 228 64 98 81 75 59 203 332 101 95 88 7087 2872 3788 188 175 806 57 126 162 232 67 99 55 64 230 57 663 106 81 393 592 494 67
internal_value=0 0.129456 0.906493 -0.0047094 0.0781828 0.172502 0.394845 0.494166 0.0592162 0.00528106 -0.33997 -0.0501064 0.0104533 0.265491 -0.09759 -0.0261922 0.0143527 0.0276307 0.0893736 0.17353 0.0428334 0.19829 0.503747 0.00691164 -0.0336112 -0.138155 0.103626 0.254069 0.0219591 -0.213656 -0.185677 0.127388 -0.231852 -0.111791 0.00825347 -0.0673277 -0.171578 0.112131 0.347671
internal_count=80765 2853 176 77912 2677 1545 520 456 1025 944 222 1132 1016 304 712 163 41599 32588 8604 3060 5544 1038 232 4506 9011 1924 380 285 218 163 1692 219 1473 810 580 499 718 722 358
cat_boundaries=0 1 2 3 4 5 6 7
cat_threshold=153096208 269490190 16814144 539280642 8921105 133125 293771270
shrinkage=0.2


Tree=29
num_leaves=40
num_cat=5
split_feature=8 6 7 20 4 3 18 2 16 4 8 16 19 17 11 5 5 2 10 19 16 20 16 1 21 20 7 6 5 7 6 7 5 21 7 7 3 3 11
split_gain=38.9385 27.71 42.5317 42.1401 20.8923 30.5263 49.8703 43.9551 32.0292 29.2532 29.7543 27.806 25.9935 29.3817 36.3107 26.997 25.4529 23.7619 68.7419 50.8733 23.6949 20.7136 34.4727 20.5109 18.5983 17.3745 16.6555 56.4476 97.9568 164.288 234.761 64.3688 55.8324 44.4791 39.8366 52.1542 27.7111 22.919 19.1265
threshold=1.0000000180025095e-35 21.000000000000004 0.61250000000000016 2.5000000000000004 33.445000000000007 0 2.5000000000000004 1 9.5000000000000018 39.095000000000006 3.5000000000000004 6.5000000000000009 1.5000000000000002 5.5000000000000009 4.5000000000000009 11.500000000000002 11.500000000000002 2 0.38750000000000007 3.5000000000000004 5.5000000000000009 3.5000000000000004 7.5000000000000009 31.000000000000004 24.300000000000004 2.5000000000000004 0.51450000000000007 14.500000000000002 9.5000000000000018 0.5545000000000001 16.500000000000004 0.70850000000000013 9.5000000000000018 20.400000000000002 0.5545000000000001 0.57700000000000007 3 4 7.5000000000000009
decision_type=2 2 2 2 2 5 2 5 2 2 2 2 2 2 2 2 2 5 2 2 2 2 2 2 2 2 2 2 2 2 2 2 2 2 2 2 5 5 2
left_child=-1 26 4 -4 24 6 21 9 17 16 -11 -8 -10 -14 -15 -16 -7 18 19 -9 -19 25 -23 -22 -3 -6 32 -28 29 30 -29 34 -2 -31 36 -36 -30 -37 -39
right_child=1 2 3 -5 5 7 11 8 12 10 -12 -13 13 14 15 -17 -18 20 -20 -21 23 22 -24 -25 -26 -27 27 28 31 33 -32 -33 -34 -35 35 37 -38 38 -40
leaf_value=-0.0048522735672139709 0.00074672153786959684 0.00611756982217575 0.039282100162271301 0.24804568889622508 0.016453403014480613 -0.0018830194205835167 -0.027540183398458696 -0.092017354184919797 0.1369466518362363 -0.040430277666415687 0.14339858698281083 -0.2277218831454714 0.0856586062619763 0.053104140977846104 -0.021577932464109884 -0.19470516048780043 -0.1271489800612346 0.11228852627869204 0.29390023112297059 0.16866900872315882 -0.027814005396181819 -0.031224627105984837 0.16460039542551386 0.069119471530107279 -0.088739294350499251 -0.090691287002001686 0.0017065555566109824 -0.094298194711513447 0.13438914734380025 0.2152224151034878 0.16433694121056105 0.13295479930355997 -0.082528731293306387 0.093256130905456536 -0.10080128028902538 0.04524219053018308 0.01814757600924085 -0.0073419347258636778 -0.098211962708405098
leaf_count=36331 26474 232 99 65 196 151 54 53 57 66 74 60 93 89 74 73 116 212 80 68 152 64 80 202 127 87 11845 353 104 292 233 149 326 209 259 299 342 820 105
internal_value=0 0.0198758 0.119583 0.613168 0.0864739 0.124692 -0.0793657 0.195038 0.294636 -0.0862173 0.280111 -0.668881 0.0607284 -0.0458621 -0.23483 -0.541165 -0.283401 0.415542 0.713379 0.268288 0.291142 0.0749927 0.384363 0.136079 -0.135802 -0.0806586 0.0136062 0.0402769 0.158921 0.402202 0.0418366 0.0314202 -0.00131262 0.822709 -0.0172422 -0.0962924 0.244488 -0.00961113 -0.0878751
internal_count=80765 44434 2624 164 2460 2101 541 1560 1153 407 140 114 386 329 236 147 267 767 201 121 566 427 144 354 359 283 41810 15010 3165 1087 586 2078 26800 501 1929 1483 446 1224 925
cat_boundaries=0 1 2 3 4 5
cat_threshold=8403022 151011862 1153 17960961 17306706
shrinkage=0.2


Tree=30
num_leaves=40
num_cat=10
split_feature=19 15 21 18 3 17 3 20 2 20 8 13 8 7 2 2 17 13 8 9 2 3 16 20 17 12 5 6 21 20 21 3 16 3 21 12 2 1 1
split_gain=29.7867 25.0126 35.2504 47.9637 51.5709 41.6311 34.8447 34.8513 64.3169 60.6559 106.793 35.8514 34.0506 33.3301 50.4363 32.2183 37.1551 31.1204 27.9412 27.9134 24.2181 30.1127 23.3042 21.7111 21.096 20.8794 19.3416 37.6185 16.8101 15.8053 39.0235 26.674 25.6877 23.5748 35.4959 30.1724 20.852 17.7172 18.0693
threshold=2.5000000000000004 12.500000000000002 18.200000000000006 1.0000000180025095e-35 0 6.5000000000000009 1 2.5000000000000004 2 3.5000000000000004 4.5000000000000009 0.55000000000000016 4.5000000000000009 0.45250000000000007 3 4 6.5000000000000009 0.77500000000000013 3.5000000000000004 4.5000000000000009 5 6 6.5000000000000009 3.5000000000000004 8.0000000000000018 8.5000000000000018 7.5000000000000009 21.000000000000004 19.300000000000001 3.5000000000000004 18.200000000000006 7 13.000000000000002 8 24.300000000000004 8.5000000000000018 9 13.500000000000002 6.0000000000000009
decision_type=2 2 2 2 5 2 5 2 5 2 2 2 2 2 5 5 2 2 2 2 5 5 2 2 2 2 2 2 2 2 2 5 2 5 2 2 5 2 2
left_child=24 2 -2 4 5 17 15 11 9 10 -9 -8 -11 -6 -15 16 18 -4 -5 -3 -13 -22 25 -18 29 -10 -26 -28 -21 32 -31 -32 -1 34 -34 -35 -33 38 -38
right_child=1 19 3 6 13 -7 7 8 22 12 -12 20 -14 14 -16 -17 23 -19 -20 28 21 -23 -24 -25 26 -27 27 -29 -30 30 31 36 33 35 -36 -37 37 -39 -40
leaf_value=-0.0020430297275036472 0.0037920543710556059 0.0037948135367930494 0.10617945942900738 -0.069908403983858766 0.15883229117197786 0.051396031960244948 0.10967939222248756 0.071648980830383444 0.030219915969726702 0.12884337423222789 0.4210906354303916 -0.060422796865557918 -0.059259222276898019 -0.10713451401396466 0.041832222115616179 0.0050010840066963538 -0.08348135952378663 0.2725680759499724 -0.26843506061871136 -0.009047789757864343 0.099827489059818683 -0.011917475293226102 -0.012190736451480721 0.082072728728516064 -0.0071832470822445378 0.16643298084418925 -0.10252415492696068 0.013693215233939036 -0.13669772378706302 0.0019199915857778093 0.13754975425212509 -0.019067676699420145 -0.047749702408743488 -0.034811978536070272 -0.23259418943479401 0.1043655191677519 0.020972469173095847 0.032794620729383876 0.17055311911664475
leaf_count=55536 10315 269 88 61 71 149 108 79 167 89 64 274 67 103 456 549 71 98 56 63 111 466 389 57 711 63 300 175 130 7935 102 232 154 454 58 72 54 482 87
internal_value=0 0.0412514 0.0488608 0.133548 0.324757 0.636427 0.0642794 0.138284 0.278304 0.650595 1.14371 0.00517053 0.237073 0.145818 0.0651844 -0.110387 -0.40482 0.971921 -0.828922 -0.187445 -0.0631825 0.0537173 0.0857695 -0.044884 -0.00890404 0.339826 -0.141097 -0.297484 -0.477739 -0.0064905 0.032672 0.223453 -0.0126876 -0.198064 -0.47171 -0.0764022 0.157591 0.252588 0.569881
internal_count=80765 14413 13951 3636 965 335 2671 1877 918 299 143 959 156 630 559 794 245 186 117 462 851 577 619 128 66352 230 1186 475 193 65166 8892 957 56274 738 212 526 855 623 141
cat_boundaries=0 1 2 3 4 5 6 7 8 9 10
