tree
version=v2
num_class=1
num_tree_per_iteration=1
label_index=0
max_feature_idx=27
objective=regression
feature_names=Player Rk Num_Game Date Tm Home Opp GS Mins FG FGA FGPct 3P 3PA 3PPct FT FTA FTPct ORB DRB TotRBs STL BLK TOV PFouls PTS GmSc +/-
feature_infos=4:129 [2:72] [1:72] [1.5721344e+18:1.6119648e+18] 12:15:0:1:5:8:14:24:28:6:9:19:22:2:4:7:16:21 [0:1] 6:11:22:23:27:15:19:2:13:16:18:24:28:4:5:7:8:10:25:26:29 [0:1] [0.089999999999999997:39.350000000000001] [0:14] [0:25] [0:1] [0:5] [0:11] [0:1] [0:10] [0:13] [0:1] [0:5] [0:14] [0:18] [0:5] [0:3] [0:8] [0:6] [0:36] [-2.7000000000000002:30.600000000000001] [-31:25]
tree_sizes=4614 4683 4709 4721 4767 4734 4744 4768 4753 4770 4711 4739 4805 4762 4752 4769 4720 4762 4791 4800 4768 4738 4757 4787 4770 4779 4777 4774 4757 4765 4772 4784 4810 4766 4748 4797 4764 4728 4825 4789 4741 4798 4741 4766 4761 4791 4803 4750 4755 4760 4766 4810 4799 4792 4800 4774 4776 4835 4756 4792 4795 4792 4759 4826 4776 4768 4801 4817 4773 4798 4777 4786 4770 4836 4777 4795 4809 4810 4822 4817 4758 4790 4822 4819 4809 4787 4881 4816 4813 4846 4815 4802 4784 4772 4802

Tree=0
num_leaves=60
num_cat=1
split_feature=8 26 8 23 23 11 26 26 26 11 4 23 26 11 26 11 8 26 25 3 18 11 23 26 25 25 23 11 26 11 11 26 22 25 27 26 11 23 23 26 11 25 20 18 20 25 18 26 18 11 23 11 23 18 25 11 25 20 11
split_gain=40299.4 9467.71 6646.35 3717.55 3017.48 1948.96 1872.06 1654.27 980.329 1308.73 858.382 694.102 642.485 605.403 1143.83 596.109 576.173 562.546 788.816 620.304 541.614 529.487 499.529 443.181 437.128 428.134 379.501 368.243 330.982 321.656 314.751 308.92 296.606 368.894 259.423 251.688 558.821 236.27 228.444 206.496 296.257 206.345 244.623 206.065 199.627 198.9 224.532 187.886 186.547 184.97 182.332 179.203 176.455 166.823 211.982 163.885 163.622 177.479 161.915
threshold=28.145000000000003 15.850000000000003 15.265000000000002 1.5000000000000002 2.5000000000000004 0.51450000000000007 8.6500000000000004 24.450000000000003 9.4000000000000004 0.41900000000000009 0 2.5000000000000004 21.300000000000001 0.46900000000000008 9.8000000000000025 0.45300000000000007 6.5900000000000007 21.300000000000001 22.500000000000004 1.6093728000000003e+18 2.5000000000000004 0.45300000000000007 1.5000000000000002 16.850000000000005 14.500000000000002 15.500000000000002 3.5000000000000004 0.40600000000000008 16.150000000000002 0.51450000000000007 0.34300000000000003 1.7000000000000004 1.5000000000000002 22.500000000000004 6.5000000000000009 3.1500000000000004 0.34300000000000003 4.5000000000000009 3.5000000000000004 2.7000000000000006 0.43650000000000005 16.500000000000004 6.5000000000000009 1.5000000000000002 4.5000000000000009 10.500000000000002 1.0000000180025095e-35 12.300000000000002 1.5000000000000002 0.45300000000000007 4.5000000000000009 0.51450000000000007 2.5000000000000004 2.5000000000000004 33.500000000000007 0.61250000000000016 11.500000000000002 4.5000000000000009 0.61250000000000016
decision_type=2 2 2 2 2 2 2 2 2 2 5 2 2 2 2 2 2 2 2 2 2 2 2 2 2 2 2 2 2 2 2 2 2 2 2 2 2 2 2 2 2 2 2 2 2 2 2 2 2 2 2 2 2 2 2 2 2 2 2
left_child=2 4 16 12 13 10 22 32 27 25 -5 15 21 14 -2 47 -1 18 49 -19 29 -3 35 44 30 -10 53 31 45 -14 -16 -6 33 52 -31 -4 -37 -27 -35 -24 43 42 -11 -41 -13 46 -17 56 -32 -12 -33 -43 -7 54 -9 -30 57 -8 -28
right_child=1 3 6 5 8 7 11 26 9 41 17 23 20 -15 24 28 -18 19 -20 -21 -22 -23 39 -25 -26 37 58 -29 55 34 48 50 -34 38 -36 36 -38 -39 -40 40 -42 51 -44 -45 -46 -47 -48 -49 -50 -51 -52 -53 -54 -55 -56 -57 -58 -59 -60
leaf_value=1.3118063507444109 2.4336944820071262 3.6946422081950288 1.7499667490101445 3.2733490287595424 2.4616230197476057 3.6094561853355631 3.4826148771051679 4.9460696910604174 5.3413526998067979 4.24747516703271 5.7450439697741782 3.1675432187494152 4.6179582257203862 2.2534502695338841 4.4327320296772852 2.947681863527134 1.6274836693513173 5.1458981582226837 4.1723215791814638 6.7395454583238905 2.6703443507908649 2.635375521553494 2.0121412852129907 3.9763527302051669 2.8904755547694814 3.7449241664826243 5.453071452833596 2.4402797935613085 3.0265482793156275 3.0980691639775673 3.7270670186347754 3.2206687057620997 2.727352749159444 2.9756269413032763 4.0358649161901621 2.3198777005592386 1.8434327146297975 4.8446860383058672 3.7229619306635842 2.7323363590678724 2.0916571682886689 3.3413527422751077 3.2063903354701964 2.0999241821927059 2.4023354085517181 2.0924478942390783 2.2454068062895076 3.4834319463820878 2.8246860862166483 4.7735445055320262 4.0265175624814695 2.6068457085530259 4.4608839616811604 3.587456634615009 3.9437336783002612 2.431413913835311 2.3431384678431293 2.6152657931715551 4.5720345386470438
leaf_count=2337 1469 152 1544 117 111 116 103 106 110 98 149 168 109 1087 87 158 3789 231 289 83 119 527 837 100 570 140 128 233 179 134 126 307 125 248 164 922 1851 75 174 488 657 200 133 175 173 1461 407 101 105 73 91 142 128 77 105 327 168 138 88
internal_value=0 1.75757 -0.931732 3.03827 0.890505 3.80102 -0.427498 3.00494 2.00693 2.70972 4.89543 0.163663 1.62227 0.358874 0.643599 -0.00630842 -1.7513 5.25182 4.66818 6.36889 2.4519 0.979592 -0.745541 1.33612 1.53959 4.31268 4.42087 1.15638 -0.20498 3.00059 2.47893 1.63301 2.10276 2.36805 2.46293 -0.94189 -0.761717 3.49171 1.80213 -0.352571 -0.10619 1.80054 2.53071 0.365409 0.793248 -0.385667 0.118179 0.98004 1.86838 6.08576 2.04443 1.30735 3.3468 3.66938 4.12914 0.51848 0.678419 1.20651 5.42285
internal_count=24609 8526 16083 3442 5084 2237 9957 1295 1640 898 942 3483 1205 3444 2357 3042 6126 825 511 314 526 679 6474 441 888 325 504 742 2532 407 318 509 791 666 298 4317 2773 215 422 2157 1320 573 231 663 341 2026 565 510 231 222 398 342 244 288 211 506 409 241 216
cat_boundaries=0 1
cat_threshold=273154338
shrinkage=1


Tree=1
num_leaves=60
num_cat=3
split_feature=8 26 23 22 26 11 26 23 25 25 11 11 26 11 25 4 26 8 12 18 11 26 4 12 20 25 26 8 23 27 20 17 23 15 23 18 12 11 26 27 20 25 26 19 11 26 3 11 25 4 11 26 22 12 23 20 20 26 20
split_gain=10907.7 3620.52 2052.97 1123.85 1041.28 871.883 857.662 730.438 490.959 402.291 400.769 336.606 322.965 736.799 319.462 436.557 291.5 285.085 276.93 305.242 251.022 237.114 226.322 218.422 280.204 214.273 348.074 209.498 209.356 208.336 205.927 199.351 193.581 178.87 177.506 162.13 182.169 157.167 157.474 160.84 154.824 154.554 209.812 148.89 146.805 156.835 145.734 144.515 143.8 141.667 141.092 137.866 134.534 132.732 131.039 165.8 127.071 126.193 125.168
threshold=24.580000000000002 13.650000000000002 4.5000000000000009 1.5000000000000002 3.9000000000000004 0.46900000000000008 21.300000000000001 3.5000000000000004 15.500000000000002 16.500000000000004 0.58100000000000007 0.40600000000000008 5.7000000000000002 0.34300000000000003 22.500000000000004 0 16.150000000000002 11.730000000000002 2.5000000000000004 1.5000000000000002 0.26150000000000007 9.8000000000000025 1 2.5000000000000004 6.5000000000000009 22.500000000000004 21.300000000000001 36.225000000000001 1.5000000000000002 4.5000000000000009 4.5000000000000009 0.63350000000000006 1.5000000000000002 1.5000000000000002 1.5000000000000002 1.5000000000000002 1.5000000000000002 0.65500000000000014 24.450000000000003 1.0000000180025095e-35 3.5000000000000004 13.500000000000002 8.3000000000000025 10.000000000000002 0.29000000000000009 0.45000000000000001 1.5964560000000003e+18 0.36950000000000005 13.500000000000002 2 0.26150000000000007 7.3000000000000016 1.0000000180025095e-35 1.5000000000000002 1.0000000180025095e-35 4.5000000000000009 6.5000000000000009 7.3000000000000016 4.5000000000000009
decision_type=2 2 2 2 2 2 2 2 2 2 2 2 2 2 2 5 2 2 2 2 2 2 5 2 2 2 2 2 2 2 2 2 2 2 2 2 2 2 2 2 2 2 2 2 2 2 2 2 2 5 2 2 2 2 2 2 2 2 2
left_child=4 7 3 5 17 9 8 12 16 28 25 33 20 31 -8 -16 56 -1 19 34 -2 54 -11 24 32 -4 -27 -5 -3 -12 47 52 -10 51 -15 36 -24 38 -17 -40 48 42 -36 -29 45 -19 -28 -9 -23 -32 -33 53 -14 -6 -13 -56 -7 -51 -44
right_child=1 2 10 27 11 6 14 30 23 22 29 21 13 18 15 37 -18 44 -20 -21 -22 40 35 -25 -26 26 46 43 -30 -31 49 50 -34 -35 41 -37 -38 -39 39 -41 -42 -43 58 -45 -46 -47 -48 -49 -50 57 -52 -53 -54 -55 55 -57 -58 -59 -60
leaf_value=-0.53177628657691112 0.073157438611904699 1.2048988845944404 2.5094431609600441 -0.12765333459650263 0.29919512611700266 1.0663293375645155 1.7271393154547594 1.1771882802930584 0.29879394208489379 1.6588750752883079 0.3134442237325204 -0.41169791487581969 1.3370962162724638 0.074905045875424139 0.15858749409102732 0.78793777449275637 1.8100395305720094 -0.38140575269005805 -0.26129667962064768 -0.17455627912391619 -0.33008726795624199 0.42334307649749031 1.5869257499021714 -0.004359210772733939 0.038905650751516682 1.0836844687851577 1.7190678026161941 0.72533953792758676 2.3510261099128162 1.3564090872964552 -0.13097768420002598 0.81931574397853446 0.97080178667549122 -0.10347940160448436 0.2469447608173683 0.47907032786558074 0.81991194406340662 0.58271169369864106 0.78098401816096152 1.6073839749322343 -0.18101555404674594 0.17846654743236434 1.5396105343848467 -0.11061361204923653 -0.44721454861661736 -0.11265826656442167 2.6372012585401534 0.541462950297256 -0.066577649483337872 0.091353127285544802 0.23296546098814966 0.76717885359431859 0.57376728642542485 -0.24523817445453885 -0.10069460343103856 -0.43200778951716295 0.19846379003402861 0.71041128190600467 0.66278430940897282
leaf_count=3518 693 75 87 583 410 81 107 161 203 107 78 1363 113 858 215 170 73 1103 727 713 871 257 99 665 326 156 102 152 85 124 128 140 227 769 151 240 355 148 80 223 997 319 75 82 1643 1069 75 201 359 127 384 108 118 154 1200 551 88 234 89
internal_value=0 0.734343 1.36466 1.12344 -0.603524 1.36576 1.06553 0.217241 0.633532 2.1799 3.06481 -0.300715 0.0779572 0.239482 1.82736 1.61913 1.95017 -0.858226 0.0126366 0.189105 -0.302823 -0.429697 1.89074 0.409305 0.777012 3.62148 3.2564 0.0655065 3.62756 1.90736 1.07667 1.12042 1.3071 0.122391 0.446309 1.59986 1.97434 2.03206 2.34619 2.77839 -0.118506 0.847565 1.34443 0.864797 -0.668884 -0.498271 4.21621 1.64841 0.275642 0.653428 0.779248 0.499282 1.89434 0.301076 -0.590889 -0.409903 1.22885 0.958696 2.12754
internal_count=24609 11108 5006 4384 13501 3567 2606 6102 1663 961 622 6168 5251 3687 943 836 242 7333 2932 2205 1564 4727 801 1421 756 420 333 817 160 202 851 755 430 1441 1492 694 454 621 473 303 1613 634 315 234 3815 2172 177 362 616 489 524 672 231 564 3114 1751 169 361 164
cat_boundaries=0 1 2 3
cat_threshold=273154867 16793605 524579
shrinkage=0.5


Tree=2
num_leaves=60
num_cat=3
split_feature=26 23 23 18 25 26 4 18 14 4 26 11 25 26 25 11 26 11 25 11 10 25 26 4 11 10 26 18 25 22 16 25 26 11 20 8 26 11 21 15 26 23 9 17 20 26 25 8 15 11 25 11 21 11 20 13 17 12 20
split_gain=3176.95 1203.19 680.539 666.333 508.62 576.486 530.9 355.586 344.291 309.581 305.685 289.444 263.145 255.645 376.499 250.396 331.832 243.83 231.222 211.634 203.329 188.967 180.542 178.412 176.339 166.298 160.114 154.186 208.51 151.817 150.794 149.584 145.843 345.87 152.7 144.449 133.447 131.818 131.377 131.217 158.106 125.528 242.693 116.952 116.18 128.149 136.628 111.332 110.791 109.775 125.471 99.5754 98.6336 98.355 96.21 89.6338 89.63 117.018 88.54
threshold=11.650000000000002 1.5000000000000002 1.5000000000000002 3.5000000000000004 15.500000000000002 16.850000000000005 0 1.0000000180025095e-35 0.42750000000000005 1 24.450000000000003 0.46900000000000008 22.500000000000004 4.7000000000000011 7.5000000000000009 0.51450000000000007 6.3500000000000005 0.34300000000000003 10.500000000000002 0.51450000000000007 11.500000000000002 20.500000000000004 7.3000000000000016 2 0.26150000000000007 14.500000000000002 24.450000000000003 2.5000000000000004 9.5000000000000018 1.0000000180025095e-35 4.5000000000000009 13.500000000000002 -1.0000000180025095e-35 0.26150000000000007 3.5000000000000004 33.82500000000001 24.450000000000003 0.43650000000000005 1.5000000000000002 2.5000000000000004 2.7000000000000006 3.5000000000000004 12.500000000000002 0.63350000000000006 5.5000000000000009 7.3000000000000016 9.5000000000000018 35.235000000000007 1.5000000000000002 0.61250000000000016 20.500000000000004 0.58100000000000007 1.0000000180025095e-35 0.51450000000000007 3.5000000000000004 4.5000000000000009 0.63350000000000006 1.5000000000000002 4.5000000000000009
decision_type=2 2 2 2 2 2 5 2 2 5 2 2 2 2 2 2 2 2 2 2 2 2 2 5 2 2 2 2 2 2 2 2 2 2 2 2 2 2 2 2 2 2 2 2 2 2 2 2 2 2 2 2 2 2 2 2 2 2 2
left_child=2 7 13 4 20 11 10 8 37 -5 -7 21 25 -1 22 16 32 30 -9 44 31 35 24 -14 58 -8 29 28 -19 -20 38 -3 -4 39 48 -6 53 -2 -18 40 -34 43 47 -25 45 -16 -47 -43 -35 50 52 -28 -13 -10 -24 -39 57 -30 -15
right_child=1 3 15 9 5 6 12 18 36 -11 -12 49 23 14 19 -17 17 27 26 -21 -22 -23 54 41 -26 -27 51 -29 56 -31 -32 -33 33 34 -36 -37 -38 55 -40 -41 -42 42 -44 -45 -46 46 -48 -49 -50 -51 -52 -53 -54 -55 -56 -57 -58 -59 -60
leaf_value=-0.23831100426880816 1.0652004375813469 1.2208327328087762 -0.22102626876439899 0.6213501585840151 0.41972613602888115 0.88488375665005392 0.66703369075320829 0.53459338575382442 0.3146047930464696 -0.31860692900479087 1.8920233024314779 0.79944430799223487 -0.014319814044145236 0.88408237289298663 -0.20441904063219404 -0.18580687933203913 1.2634742172824283 0.86464271973818541 -0.0041497368491239034 -0.35700200168577262 1.6934711437710781 0.15947935694383214 0.76806965538011007 0.8055518933487209 -0.065212623317858015 1.4360208982745042 0.71021818101740952 -0.25493091917197985 0.74279962321285342 -0.29412006596997053 0.2757738783784246 0.55194085728909292 0.35708528826141667 0.21866195237829675 -0.23064717842683963 1.2043139373603384 0.66180887029451485 0.71757916868271598 0.44389173042601399 0.021634763311434151 1.089451535566089 0.5957119264942291 0.015029100531881506 0.23054935083933126 -0.28475903207823611 0.41879652506382814 -0.017563659633602829 1.176315081975517 -0.20912620503559848 -0.34438891417175455 -0.20538727519261904 0.018223286855965852 0.11276327872291109 -0.12145253298998189 0.23675353222060949 0.19396338371201333 0.010465253206676097 0.14585534595991986 0.1374856437124857
leaf_count=7268 124 160 640 106 122 197 217 153 177 351 122 80 217 77 636 991 119 120 889 1189 97 230 119 110 1072 104 89 181 122 917 159 175 232 517 723 113 85 166 83 145 108 154 99 451 601 232 791 178 214 201 181 125 151 480 300 161 455 251 82
internal_value=0 0.560556 -0.229792 0.944968 1.0991 0.949608 1.28847 0.124751 0.563408 -0.187923 2.46291 0.368386 1.02083 -0.356196 -0.184543 0.0791461 0.188928 0.564634 -0.116076 -0.372489 2.11199 0.96333 0.208323 0.813812 0.0153375 1.83235 -0.205851 0.335886 0.497363 -0.302765 1.28002 1.74282 -0.0281333 0.108488 -0.135437 1.59399 0.144586 1.25247 1.85343 0.839759 1.17944 0.988423 1.40423 0.68659 -0.192817 -0.0563503 0.162792 1.814 0.186854 -0.0829183 0.212659 0.612031 0.70115 -0.0079518 0.775305 0.919549 0.318824 0.682205 0.99809
internal_count=24609 7182 17427 3816 3359 2927 1849 3366 1193 457 319 1078 1530 12367 5099 5060 4069 1490 2173 3449 432 465 1650 1209 1231 321 2020 1129 948 1806 361 335 2579 1939 1454 235 742 451 202 485 340 992 431 561 2260 1659 1023 332 731 613 412 214 231 657 419 327 828 373 159
cat_boundaries=0 1 2 3
cat_threshold=16453 4296896 273154594
shrinkage=0.5


Tree=3
num_leaves=60
num_cat=5
split_feature=23 26 22 18 25 26 11 4 14 26 21 11 25 10 11 22 16 26 8 8 22 23 26 8 25 26 11 22 26 17 14 6 10 20 6 11 1 12 18 25 26 26 26 25 11 12 4 15 21 27 16 20 21 23 5 6 10 15 15
split_gain=990.246 719.399 388.899 372.417 451.893 312.838 422.444 285.474 276.885 217.005 216.946 245.068 212.072 178.706 176.496 175.139 172.654 176.813 163.504 162.747 151.563 147.703 145.689 139.758 137.568 347.85 179.783 123.416 114.558 114.048 112.774 108.873 106.271 103.517 103.393 113.395 117.955 101.316 101.269 99.6512 173.738 123.854 98.7284 159.558 87.759 84.6277 84.4407 84.1783 75.8478 74.0596 72.9466 72.7155 70.6832 70.5797 70.4407 66.7208 65.7696 65.7617 65.0493
threshold=1.0000000180025095e-35 14.550000000000002 1.0000000180025095e-35 1.5000000000000002 16.500000000000004 1.7000000000000004 0.36950000000000005 0 0.52800000000000014 21.300000000000001 2.5000000000000004 0.43650000000000005 28.000000000000004 9.5000000000000018 0.22500000000000003 2.5000000000000004 1.5000000000000002 9.8000000000000025 30.200000000000003 38.865000000000009 1.5000000000000002 4.5000000000000009 24.450000000000003 36.225000000000001 14.500000000000002 9.4000000000000004 0.61250000000000016 1.0000000180025095e-35 6.3500000000000005 0.5355000000000002 0.18350000000000002 1 6.5000000000000009 7.5000000000000009 2 0.46900000000000008 13.500000000000002 2.5000000000000004 1.5000000000000002 7.5000000000000009 5.7000000000000002 6.3500000000000005 9.4000000000000004 10.500000000000002 0.36950000000000005 1.0000000180025095e-35 3 6.0000000000000009 1.5000000000000002 -1.0000000180025095e-35 6.5000000000000009 4.5000000000000009 1.5000000000000002 3.5000000000000004 1.0000000180025095e-35 4 13.500000000000002 2.5000000000000004 3.5000000000000004
decision_type=2 2 2 2 2 2 2 5 2 2 2 2 2 2 2 2 2 2 2 2 2 2 2 2 2 2 2 2 2 2 2 5 2 2 5 2 2 2 2 2 2 2 2 2 2 2 5 2 2 2 2 2 2 2 2 5 2 2 2
left_child=33 2 5 4 13 -2 14 27 9 10 11 50 52 -3 32 23 28 30 -9 51 34 24 -22 37 25 39 48 -5 45 -13 58 -31 -7 46 -20 47 -37 38 42 40 -8 -41 53 -44 -25 -16 -1 -36 -27 -38 -6 -14 -11 -4 -51 -10 -45 -17 -18
right_child=1 3 15 7 8 6 21 18 55 12 -12 29 19 -15 16 57 17 -19 20 -21 22 -23 -24 44 -26 26 -28 -29 -30 31 -32 -33 -34 -35 35 36 49 -39 -40 41 -42 -43 43 56 -46 -47 -48 -49 -50 54 -52 -53 -54 -55 -56 -57 -58 -59 -60
leaf_value=0.13710298496974452 -0.086626683412704186 0.65647230612163521 -0.10262543521978923 0.040126785398668548 1.1820921180279631 0.37922181163728236 0.016502458584997267 -0.13897384526467646 0.26358838815865598 1.3954807721491249 -0.34014350769287049 0.65517991852969071 0.65064621444414306 1.5868722150813004 0.74216468863877927 -0.34792448263341452 0.41894854542031817 0.6314612421773228 -0.032993100348889359 0.99731110969577175 -0.34753480076089799 0.50061230079270902 0.51466075051256954 0.59319422177263892 -0.12325245424599569 0.77561928656546519 0.043618283996132212 -0.53003120735520493 0.98408255401049172 0.42189289270358721 -0.13249531460171363 -0.025993446890186733 1.0073239381061485 -0.32392694542209088 1.1440675251223906 -0.076320480440923003 0.13200240107253194 -0.37720368411618432 -0.21797812192252172 -0.27450684566499184 0.54075494162303395 0.03027090300532137 0.7930379164603989 -0.11369180632967792 -0.0072557035255158553 0.23773941778294419 -0.1309463338282483 0.46624392138924015 0.33710569753602615 0.3540258194508526 0.57174316011738069 0.07986561711877585 0.7993128022347924 0.34197128333494459 0.98162932417274096 -0.063807802395184798 0.4001880441952882 -0.88331244968041478 -0.07049440895442409
leaf_count=300 2215 113 1479 157 95 125 799 287 223 97 121 132 79 95 119 255 216 153 117 99 149 175 73 116 1063 257 214 240 102 205 411 372 146 681 98 114 80 329 957 540 197 871 89 219 128 276 7593 86 160 79 101 190 102 95 103 462 87 74 99
internal_value=0 0.147234 0.023719 0.510464 0.751877 0.147362 0.267262 0.13134 0.623045 0.851663 0.577288 0.745428 1.34815 2.16283 0.697576 -0.239136 0.552299 0.285943 0.376025 0.89842 0.588985 0.101516 -0.12804 -0.173547 0.0631234 0.171463 0.832347 -0.59414 1.02338 0.471823 0.0800506 0.279991 1.43522 -0.273776 0.824109 0.993513 0.696466 -0.228266 -0.169106 -0.00178941 0.24039 -0.17274 -0.0394083 0.407586 0.556408 0.779411 -0.241501 1.65452 1.21473 1.06592 1.73515 0.494985 2.17981 -0.151583 1.41842 0.0913834 0.0648226 -0.936692 0.530247
internal_count=24609 16035 11966 4069 2486 8138 5923 1583 2278 1593 1026 905 567 208 1647 3828 1376 879 1186 368 899 4276 222 3499 4101 3038 631 397 497 709 726 577 271 8574 677 560 376 3255 2926 2407 996 1411 1969 395 244 395 7893 184 417 262 196 269 199 1574 182 685 306 329 315
cat_boundaries=0 1 2 3 4 5
cat_threshold=285741347 335815124 34375712 16384 353140932
shrinkage=0.5


Tree=4
num_leaves=60
num_cat=5
split_feature=23 4 26 15 26 11 12 18 21 11 20 9 16 6 26 6 8 14 4 8 26 20 20 12 22 3 21 17 4 25 3 26 22 16 25 26 25 26 11 18 25 26 21 26 11 27 25 14 8 14 16 12 25 12 17 17 21 11 11
split_gain=499.984 243.231 225.62 296.647 261.333 446.291 232.404 202.59 189.997 222.946 162.705 155.345 162.185 149.369 146.157 141.272 139.651 223.052 134.794 124.235 115.857 111.165 109.13 109.005 99.8517 124.165 96.9952 93.5637 91.89 90.7517 87.3917 84.9353 84.8546 83.7728 79.8932 77.8499 138.322 99.8052 78.3551 75.6579 75.3667 74.3112 70.1873 87.5292 91.0791 69.6087 67.662 67.4319 67.4302 72.1952 63.8053 61.6471 59.2733 58.3854 57.7667 52.1993 52.1808 51.9469 51.705
threshold=3.5000000000000004 0 24.450000000000003 4.5000000000000009 7.9500000000000002 0.58100000000000007 2.5000000000000004 3.5000000000000004 1.5000000000000002 0.40600000000000008 5.5000000000000009 9.5000000000000018 8.0000000000000018 1 14.550000000000002 2 20.005000000000006 0.18350000000000002 3 36.225000000000001 16.850000000000005 4.5000000000000009 3.5000000000000004 1.0000000180025095e-35 1.0000000180025095e-35 1.5750720000000003e+18 1.0000000180025095e-35 0.5355000000000002 4 14.500000000000002 1.5825456000000003e+18 12.300000000000002 1.0000000180025095e-35 1.5000000000000002 9.5000000000000018 0.45000000000000001 4.5000000000000009 3.1500000000000004 0.22500000000000003 1.0000000180025095e-35 5.5000000000000009 16.850000000000005 1.0000000180025095e-35 3.9000000000000004 0.36950000000000005 -7.4999999999999991 11.500000000000002 0.26800000000000007 33.82500000000001 0.26800000000000007 3.5000000000000004 1.5000000000000002 3.5000000000000004 4.0000000000000009 0.6795000000000001 0.76400000000000012 1.5000000000000002 0.73850000000000005 0.34300000000000003
decision_type=2 5 2 2 2 2 2 2 2 2 2 2 2 5 2 5 2 2 5 2 2 2 2 2 2 2 2 2 5 2 2 2 2 2 2 2 2 2 2 2 2 2 2 2 2 2 2 2 2 2 2 2 2 2 2 2 2 2 2
left_child=2 29 3 4 10 6 7 8 9 33 16 12 -4 -13 21 19 35 42 31 -3 23 27 41 55 48 -26 -20 -11 -7 -2 -21 -8 53 -6 -30 -1 37 38 -37 -31 -19 -5 43 58 -45 -41 -23 -35 -17 -50 -27 -47 -12 -15 -16 -10 -24 -36 -18
right_child=1 15 11 22 5 28 18 -9 20 14 52 13 -14 32 54 24 17 40 26 30 -22 46 56 -25 25 50 -28 -29 34 39 -32 -33 -34 47 57 36 -38 -39 -40 45 -42 -43 -44 44 -46 51 -48 -49 49 -51 -52 -53 -54 -55 -56 -57 -58 -59 -60
leaf_value=-0.13982493274229749 0.23285636323327832 0.38553071557835211 1.1173908502754311 -0.1726281578493212 1.1919875711885795 0.047120244743418881 -0.024722162271953292 -0.10272302133608205 0.60092944226632217 0.65938871631311025 -0.030641456925552216 0.59279571480874438 0.17333912320124606 0.41738286013751069 1.0147430575271319 0.21356039190393572 0.25542650880528661 0.12452325185250419 0.099786246283844054 0.56437023891627436 0.57625547413798894 0.2920676104715047 -0.25612075304620457 -0.091831261473668171 0.5318743544904625 0.21450422537912214 -0.19672673811880267 0.22205316621864982 0.072090231146912945 0.17474842230225668 1.2858157277834126 0.47102162937732861 -0.22901971391681983 0.80738743137856384 -0.13911633870142329 0.11047832693326698 -0.12968543336429869 0.21039778231858061 -0.089310513442449502 -0.72849406929661153 -0.11485338883541692 0.26295271731913089 0.078462728688305255 0.95265616313821966 0.31038302093719605 0.059284931500084126 -0.072516785147032636 0.34145446969470117 0.86527817169169208 0.33890453882559518 -0.24439717334512079 -0.4614299000194757 -0.25576795015919457 -0.13059749238145274 0.4734780278573506 0.077802092444313603 -0.50132225694118493 -0.33079006509624342 -0.13471371877508667
leaf_count=2806 206 320 92 282 76 790 144 368 99 191 380 118 90 129 77 363 463 416 451 86 110 199 909 528 102 112 710 340 321 114 82 216 233 181 1095 788 2171 650 1301 73 1569 150 755 87 151 130 353 136 106 169 234 101 1268 78 137 92 285 522 104
internal_value=0 0.455649 -0.0441326 -0.0626737 -0.0293512 0.124221 0.320957 0.487621 0.588871 0.781221 -0.114245 0.498845 1.3011 0.237176 0.581289 0.662811 -0.0712967 0.092997 0.00461314 1.11383 0.196745 0.432067 -0.473467 0.0505227 0.451831 0.0941371 -0.161695 0.758724 -0.193671 -0.0763019 1.83301 0.530706 -0.0431369 1.44105 -0.309922 -0.146779 -0.070845 0.0785853 -0.0278947 -0.345245 -0.129374 -0.0427696 0.375949 0.581369 1.09033 -0.605773 0.117837 1.21498 0.710084 1.0836 -0.191702 -0.336774 -0.407715 0.421795 1.33646 0.697904 -0.629298 -0.401985 0.367733
internal_count=24609 2198 22411 21671 20045 7136 4408 2887 2519 1690 12909 740 182 558 1297 1574 11261 3545 1521 488 829 1083 1626 719 1086 448 1161 531 2728 624 168 360 440 393 1938 7716 4910 2739 2089 418 1985 432 1560 805 238 304 552 317 638 275 346 231 1648 207 214 191 1194 1617 567
cat_boundaries=0 1 2 3 4 5
cat_threshold=285839650 469827604 92572048 268456738 272732322
shrinkage=0.5


Tree=5
num_leaves=60
num_cat=8
split_feature=22 27 11 26 17 26 25 11 26 25 17 26 25 25 26 6 26 11 23 6 23 11 4 20 10 11 20 23 6 23 26 12 25 26 4 23 21 4 14 20 4 25 23 12 20 21 26 16 26 13 11 13 25 4 23 25 26 13 20
split_gain=256.829 246.515 178.211 227.723 230.794 165.422 152.29 129.082 135.427 123.021 116.963 107.462 169.778 104.357 168.093 117.679 98.4354 158.41 95.07 89.0558 91.2632 85.9727 81.2961 80.1926 77.0521 129.051 75.2105 73.1435 72.6284 70.0321 68.6392 66.8092 65.8177 65.7693 73.7476 63.431 63.108 62.7261 61.8735 61.6136 59.5075 56.4366 55.5747 55.2003 54.481 52.9644 57.282 89.6127 56.1232 82.2351 53.0343 52.4839 52.2068 51.0801 51.8111 50.5945 76.1295 49.2626 47.8984
threshold=1.5000000000000002 13.500000000000002 0.58100000000000007 4.7000000000000011 0.76400000000000012 12.300000000000002 11.500000000000002 0.36950000000000005 15.850000000000003 13.500000000000002 0.6795000000000001 16.850000000000005 20.500000000000004 20.500000000000004 16.850000000000005 0 0.85000000000000009 0.22500000000000003 2.5000000000000004 1 4.5000000000000009 0.29000000000000009 2 2.5000000000000004 2.5000000000000004 0.14600000000000002 2.5000000000000004 1.0000000180025095e-35 3 3.5000000000000004 21.300000000000001 1.5000000000000002 20.500000000000004 12.300000000000002 4 2.5000000000000004 1.5000000000000002 5 0.36650000000000005 4.5000000000000009 6 18.500000000000004 1.5000000000000002 2.5000000000000004 6.5000000000000009 1.0000000180025095e-35 24.450000000000003 6.5000000000000009 12.300000000000002 5.5000000000000009 0.43650000000000005 7.5000000000000009 6.5000000000000009 7 4.5000000000000009 28.000000000000004 21.300000000000001 3.5000000000000004 4.5000000000000009
decision_type=2 2 2 2 2 2 2 2 2 2 2 2 2 2 2 5 2 2 2 5 2 2 5 2 2 2 2 2 5 2 2 2 2 2 5 2 2 5 2 2 5 2 2 2 2 2 2 2 2 2 2 2 2 5 2 2 2 2 2
left_child=1 2 3 10 5 6 18 8 27 -7 16 41 -13 14 -4 -15 -1 24 21 20 37 -5 44 -19 -18 -26 -23 -6 -14 -24 32 -29 33 52 -35 38 -28 -9 -32 -33 -8 42 -3 58 -11 50 47 48 57 -50 -21 -31 -2 -30 55 56 -55 -47 -42
right_child=30 11 13 4 7 9 40 19 -10 22 -12 12 28 15 -16 -17 17 23 -20 45 -22 26 29 -25 25 -27 36 31 53 51 35 39 -34 34 -36 -37 -38 -39 -40 -41 43 -43 -44 -45 -46 46 -48 -49 49 -51 -52 -53 -54 54 -56 -57 -58 -59 -60
leaf_value=-0.06488885744764164 -0.10658707240308431 0.057610194990034731 -0.086351584303605289 0.49384378224889608 -0.140933838777275 0.86412442358210684 0.199289888829215 -0.18880463204600811 0.79373602504531537 0.19289125102822349 -0.1706394872357101 0.79914840720593927 -0.15086714974454335 0.19613700359962724 0.3763612979960641 -0.36138451629954538 0.10180292159120398 0.088339241493769899 0.56867854057166434 0.1803207679660106 0.58426060468618624 0.30728638920999818 0.28356062873234711 -0.090727328914816094 0.92049998632632191 0.23922728375008886 0.12163766799256186 0.29755169391013758 -0.037738872773683908 0.95356136686229087 0.12152603705276231 0.19253135321677223 -0.45984535019677458 -0.26202686266387226 0.096320837715506064 0.31629799653782736 -0.15869120463643593 0.12229183760844949 -0.41198188787782375 -0.34546659669446711 0.16140262152570553 -0.21102337129549056 0.27004901368885842 -0.24948957890951898 -0.33271517929358357 -0.13630409294217466 0.14083089451263617 -0.5920892047621803 0.21322417107483979 -0.24028312532525314 -0.11453844339061979 0.36977691607332075 -0.30843530001248476 0.15173538883441481 0.72679563280104142 0.027737307294112879 0.74390452152446784 -0.48792885537356295 -0.12641391580864028
leaf_count=3589 562 989 3224 174 241 100 208 235 75 134 1328 150 114 110 209 566 319 1256 156 221 79 406 598 1245 100 228 859 424 104 77 122 121 199 206 419 138 262 469 98 95 261 138 447 348 78 207 111 151 178 228 492 77 745 116 82 123 102 192 324
internal_value=0 0.0347817 -0.00174467 0.0469291 0.171364 0.333765 0.213543 -0.0160966 0.297498 0.672508 -0.0700379 0.339889 0.640584 -0.187082 -0.116364 -0.546216 -0.0165708 0.112495 0.390211 -0.133067 0.147484 0.321689 0.562992 -0.00160051 0.553536 0.893865 0.2458 0.187682 0.41647 0.71251 -0.304034 0.364497 -0.372099 -0.315696 -0.0488837 0.101123 0.112238 0.0350019 -0.232255 -0.0881762 -0.0739863 0.188777 0.247477 -0.181664 -0.000940147 -0.25587 -0.398315 -0.477267 -0.344666 -0.0829096 -0.046289 1.32334 -0.443284 0.566802 0.722811 0.568277 0.857611 -0.611014 0.00399308
internal_count=24609 22120 19755 15646 7581 4062 2998 3519 956 1064 8065 2365 791 4109 3433 676 6737 3148 1857 2563 783 1701 964 2501 647 328 1527 881 641 752 2489 640 2131 1932 625 358 1121 704 220 216 1141 1574 1436 933 212 1780 1067 956 805 406 713 154 1307 527 423 341 218 399 585
cat_boundaries=0 1 2 3 4 5 6 7 8
cat_threshold=302514196 185084320 17301559 17566720 285294933 273175137 33169 16846850
shrinkage=0.5


Tree=6
num_leaves=60
num_cat=5
split_feature=18 23 21 26 25 11 17 26 9 8 20 12 26 21 24 4 23 12 26 11 26 25 26 16 27 4 4 15 26 26 12 18 4 26 15 15 11 17 26 11 6 12 25 17 27 11 15 26 25 12 15 8 14 25 15 26 25 11 25
split_gain=257.441 187.114 124.333 142.21 224.041 124.673 102.426 111.533 94.4898 84.6863 91.7377 83.6899 104.062 81.8974 81.3654 80.1438 78.842 72.7192 102.594 162.618 70.6216 91.9643 103.45 87.5035 69.7677 69.1772 66.8154 94.9214 65.1416 62.7841 70.7072 59.54 57.1528 56.3204 55.5151 55.4318 55.17 53.4322 52.5847 96.4579 62.6441 55.7339 50.7666 48.8132 46.5985 45.353 45.2545 41.8429 62.1676 41.46 41.2037 40.7692 42.7073 39.0859 38.8688 65.4371 50.977 38.7339 38.552
threshold=1.0000000180025095e-35 1.0000000180025095e-35 1.5000000000000002 7.3000000000000016 9.5000000000000018 0.41900000000000009 0.6795000000000001 21.300000000000001 9.5000000000000018 38.865000000000009 8.5000000000000018 4.0000000000000009 9.8000000000000025 3.5000000000000004 1.5000000000000002 0 4.5000000000000009 1.5000000000000002 0.85000000000000009 0.29000000000000009 11.650000000000002 18.500000000000004 21.300000000000001 8.0000000000000018 8.0000000000000018 1 2 6.0000000000000009 16.850000000000005 15.850000000000003 1.5000000000000002 4.5000000000000009 3 24.450000000000003 4.5000000000000009 2.5000000000000004 0.51450000000000007 0.63350000000000006 7.3000000000000016 0.45300000000000007 4 1.5000000000000002 13.500000000000002 0.6795000000000001 13.500000000000002 0.51450000000000007 3.5000000000000004 15.850000000000003 16.500000000000004 1.5000000000000002 3.5000000000000004 30.200000000000003 0.26800000000000007 9.5000000000000018 2.5000000000000004 3.1500000000000004 6.5000000000000009 0.22500000000000003 16.500000000000004
decision_type=2 2 2 2 2 2 2 2 2 2 2 2 2 2 2 5 2 2 2 2 2 2 2 2 2 5 5 2 2 2 2 2 5 2 2 2 2 2 2 2 5 2 2 2 2 2 2 2 2 2 2 2 2 2 2 2 2 2 2
left_child=1 46 3 17 -5 34 7 13 -9 10 20 12 42 14 -2 -4 33 18 -3 43 57 29 45 24 -24 51 -14 36 35 30 -22 38 -12 -11 -6 -17 -28 -13 53 41 -41 -40 -7 -20 -30 -23 47 48 -1 -37 -34 -16 -53 -27 55 -21 -57 -8 -42
right_child=6 2 15 4 5 11 9 8 -10 16 32 37 26 -15 25 28 -18 -19 19 54 21 22 23 -25 -26 31 27 -29 44 -31 -32 -33 50 -35 -36 49 -38 -39 39 40 58 -43 -44 -45 -46 -47 -48 -49 -50 -51 -52 52 -54 -55 -56 56 -58 -59 -60
leaf_value=-0.012125692870148206 -0.087713619398488832 0.003171776939212599 -0.21102868660015683 0.84697901599907455 0.59929523589833 0.088842828402628651 0.0057380492175683889 0.73981891952478041 0.11933152540908987 -0.19389568011631533 0.1174091045935215 0.14514090191347129 0.47820527600071361 -0.45014256668010993 0.10117719207822172 0.053177820135650984 0.57499481314494283 -0.086572029905601727 0.70476544232000238 0.0047984394359906072 0.20048130610480142 -0.1201480007560279 0.050924903097061013 -0.21861529543709296 0.60334484162283875 -0.017194796464532338 0.44368582974986831 -0.19311081357828691 0.10818298014334446 0.40587918600353179 -0.17641595042769567 -0.27477618068099974 -0.17014998122996045 0.33696176617955548 0.21248531976322593 -0.060631282471720713 0.15452513070226911 -0.33271115809236163 0.49255285431686585 -0.23230761287717208 0.13034037866881443 0.12578794243745506 -0.311739143471641 0.32214136119911124 0.53595435274274728 -0.396044916104278 -0.24145272665088419 0.25883010038059961 -0.41663373706228646 -0.51317842034944172 -0.3686868885167871 0.64551657644264837 0.14280920094322591 -0.24769776013384287 -0.15211055694817333 0.42715771935069663 0.13688910280657227 -0.17644996393540058 -0.092959682779400143
leaf_count=4570 2627 1343 414 140 238 207 353 81 253 139 100 99 253 112 386 549 81 591 156 514 312 390 130 130 102 1588 253 141 193 163 207 188 477 78 152 121 474 143 184 213 645 237 128 179 95 241 226 138 97 87 578 85 84 208 128 239 412 1681 276
internal_value=0 0.102584 0.205419 0.271161 0.46932 0.387209 -0.101977 -0.0246237 0.539618 -0.209377 -0.24108 0.270101 0.360611 -0.0522041 -0.0380715 -0.0554756 0.308095 0.147214 0.21094 0.37972 -0.164443 -0.0123854 -0.206572 0.219566 0.587598 0.0500657 0.506756 0.360521 0.0929037 0.270353 0.100316 -0.00193567 -0.487182 -0.00616112 0.897077 -0.0602068 0.510309 -0.274452 0.0287813 0.163408 0.0116545 0.572168 -0.128431 1.00064 0.498576 -0.451045 -0.0455884 -0.0250195 -0.0410662 -0.499836 -0.552606 0.374935 0.7913 -0.08778 0.218848 0.276318 0.486909 -0.289663 0.125484
internal_count=24609 12280 7249 5790 2228 2088 12329 7167 334 5162 4864 1698 1456 6833 6721 1459 298 3562 2971 1628 3709 1675 993 362 232 4094 1121 868 1045 682 519 3539 1155 217 390 757 727 242 3351 1555 1134 421 335 335 288 631 5031 4805 4667 208 1055 555 169 1796 1293 1165 651 2034 921
cat_boundaries=0 1 2 3 4 5
cat_threshold=285250213 4227712 20676 384 285739076
shrinkage=0.5


Tree=7
num_leaves=60
num_cat=6
split_feature=21 22 23 24 20 22 26 25 26 11 11 15 6 26 4 10 21 19 26 25 25 26 11 4 13 26 25 20 11 27 8 6 26 6 14 26 11 11 15 23 6 12 26 15 26 18 25 27 24 23 10 18 26 25 11 11 15 11 26
split_gain=201.749 176.643 202.504 90.8947 113.303 90.8641 88.5345 107.445 85.1585 128.909 78.4698 76.0059 100.547 77.4882 69.8128 70.6302 67.3163 62.5926 69.1175 73.4013 70.741 84.7039 75.8622 66.1964 57.7333 75.3939 136.394 76.4854 57.2915 55.9011 54.9083 54.8839 60.9369 51.5138 50.178 49.134 72.2808 55.7289 48.9445 48.4828 53.4 45.6453 92.5709 64.4704 46.1688 45.3852 44.459 43.8914 50.6594 49.2329 44.6024 43.888 50.5703 43.8203 43.1711 42.9006 42.7931 41.9965 40.3255
threshold=2.5000000000000004 1.0000000180025095e-35 2.5000000000000004 1.5000000000000002 4.5000000000000009 2.5000000000000004 9.4000000000000004 9.5000000000000018 2.7000000000000006 0.43650000000000005 0.36950000000000005 3.5000000000000004 0 21.300000000000001 1 18.000000000000004 1.0000000180025095e-35 6.5000000000000009 16.850000000000005 20.500000000000004 28.000000000000004 24.450000000000003 0.61250000000000016 2 9.5000000000000018 3.9000000000000004 10.500000000000002 2.5000000000000004 0.36950000000000005 5.5000000000000009 31.890000000000004 3 21.300000000000001 4 0.52800000000000014 12.300000000000002 0.51450000000000007 0.46900000000000008 1.0000000180025095e-35 1.5000000000000002 5 1.5000000000000002 9.4000000000000004 2.5000000000000004 9.4000000000000004 2.5000000000000004 20.500000000000004 6.5000000000000009 3.5000000000000004 2.5000000000000004 18.000000000000004 3.5000000000000004 9.4000000000000004 13.500000000000002 0.51450000000000007 0.36950000000000005 3.5000000000000004 0.41900000000000009 14.550000000000002
decision_type=2 2 2 2 2 2 2 2 2 2 2 2 5 2 5 2 2 2 2 2 2 2 2 5 2 2 2 2 2 2 2 5 2 5 2 2 2 2 2 2 5 2 2 2 2 2 2 2 2 2 2 2 2 2 2 2 2 2 2
left_child=1 2 3 41 8 6 28 45 -5 29 -9 13 30 24 -14 -16 51 18 19 39 22 -22 -20 -19 25 27 -27 -4 -3 38 -13 32 55 -18 35 37 -37 -28 -10 -12 -41 42 56 -44 -43 -8 -24 50 49 -49 -33 52 -6 -30 -42 -2 -1 -46 -11
right_child=31 5 11 4 16 -7 7 10 9 58 17 12 14 -15 15 -17 33 23 20 -21 21 -23 46 -25 -26 26 34 -29 53 -31 -32 47 -34 -35 -36 36 -38 -39 -40 40 54 44 43 -45 57 -47 -48 48 -50 -51 -52 -53 -54 -55 -56 -57 -58 -59 -60
leaf_value=-0.015000045934867675 0.14602661910064427 -0.027132874692954591 0.32844729033143572 0.016252297081412116 -0.0058436269444434282 -0.22120159862229752 0.52402705175176978 0.28031711506524254 0.44426503683152119 0.042949882693208166 -0.082800795486702286 -0.0032135036914315942 0.29925380706661892 0.71300738286456944 0.0032317691395785343 -0.38144681935405567 0.036908869691998573 -0.35954804207043101 0.40700043530540136 -0.38236374297532544 -0.51124448760098162 0.12831605800804741 0.25650767522345574 -0.045890115315778891 -0.17731663514342572 0.72843709741171225 0.34756393021982257 -0.054487986660692406 -0.13753855958942862 0.52927562163677067 0.52728040121039566 -0.27350319576505777 0.28892211698643538 -0.1939982315374591 -0.0097090758294045565 0.89321482992051426 0.27063468979701161 -0.061588131160371831 0.15274531923583454 -0.15022239015619879 0.50289134871574082 -0.215317186922137 0.3847968736471773 0.01057061323978738 0.23938699379082648 0.055472833663225175 -0.21300259216555528 -0.14784773868848947 -0.45695742252470134 0.28042555268934016 -0.66477418198649374 -0.24379734275439247 0.22308540242134697 -0.51666735615581272 0.087777730165444739 -0.29828205319742362 -0.3389814865412728 -0.076215635350813285 0.23591735349460083
leaf_count=5104 81 1790 210 1526 582 721 146 231 210 1314 656 73 109 81 354 180 360 230 307 145 77 158 97 597 90 170 217 344 1611 232 147 548 115 731 167 74 126 135 458 105 114 555 249 214 124 80 105 241 87 93 84 110 412 80 139 165 104 703 341
internal_value=0 0.0224672 0.082134 0.0333396 0.120881 -0.105168 -0.0687029 0.0517229 0.219422 0.33106 0.000996096 0.344702 0.105146 0.472792 -0.0977188 -0.248222 -0.062327 -0.0463579 0.0534612 -0.099232 0.291326 -0.162484 0.500845 -0.27605 0.422426 0.470891 0.651333 0.181336 -0.178958 0.635655 0.671962 -0.366606 -0.0224385 -0.23849 0.460872 0.606177 1.00198 0.38129 0.488781 -0.00406741 0.291928 -0.0445582 -0.00484492 0.423657 -0.20752 0.716334 0.0249106 -0.479827 -0.234238 -0.057196 -0.651015 0.111762 0.178089 -0.31095 0.528751 -0.303971 -0.0429394 -0.0577886 0.165419
internal_count=24609 23195 15806 13329 6276 7389 6668 3187 4081 2555 2961 2477 863 1614 643 534 2195 2730 1903 1159 744 235 509 827 1533 1443 889 554 3481 900 220 1414 361 1091 719 552 200 352 668 1014 358 7053 5671 463 1382 226 202 1053 421 334 632 1104 994 1691 253 246 5208 827 1655
cat_boundaries=0 1 2 3 4 5 6
cat_threshold=184583312 16814145 289423941 25201872 142975380 8948820
shrinkage=0.5


Tree=8
num_leaves=60
num_cat=4
split_feature=21 26 11 24 26 20 22 17 20 10 15 4 17 11 26 25 25 26 6 20 12 11 12 10 26 25 26 15 23 18 16 26 11 25 26 26 11 27 18 13 26 4 16 23 26 25 11 15 26 11 23 6 26 11 26 25 11 10 26
split_gain=140.209 100.551 136.789 90.6031 117.015 107.375 96.0631 75.6432 73.236 73.6276 88.541 71.3786 72.8841 69.0982 77.7494 75.9418 69.6304 67.967 61.5217 85.5763 68.8706 53.5435 52.4049 50.1989 49.9583 71.4979 48.0291 47.8354 47.4609 46.5034 46.1493 58.026 131.122 54.3102 54.7048 41.7152 61.8862 40.2685 39.8402 47.9992 62.6039 60.1766 52.8242 61.262 55.7283 54.8799 41.9891 39.5986 38.7548 44.7379 39.8907 38.5926 40.1917 38.3404 37.0502 76.9317 59.9386 57.2713 38.494
threshold=1.0000000180025095e-35 2.7000000000000006 0.29000000000000009 2.5000000000000004 24.450000000000003 3.5000000000000004 1.5000000000000002 0.5355000000000002 2.5000000000000004 12.500000000000002 1.5000000000000002 0 0.76400000000000012 0.77500000000000013 11.650000000000002 13.500000000000002 7.5000000000000009 5.7000000000000002 1 11.500000000000002 2.5000000000000004 0.51450000000000007 4.0000000000000009 12.500000000000002 13.650000000000002 15.500000000000002 4.7000000000000011 1.5000000000000002 1.5000000000000002 1.5000000000000002 2.5000000000000004 8.3000000000000025 0.61250000000000016 13.500000000000002 14.550000000000002 8.6500000000000004 0.40600000000000008 2.5000000000000004 2.5000000000000004 6.5000000000000009 7.3000000000000016 2 8.0000000000000018 3.5000000000000004 16.150000000000002 20.500000000000004 0.61250000000000016 4.5000000000000009 5.7000000000000002 0.45300000000000007 1.5000000000000002 3 16.850000000000005 0.45300000000000007 4.7000000000000011 6.5000000000000009 0.14600000000000002 3.5000000000000004 6.3500000000000005
decision_type=2 2 2 2 2 2 2 2 2 2 2 5 2 2 2 2 2 2 5 2 2 2 2 2 2 2 2 2 2 2 2 2 2 2 2 2 2 2 2 2 2 5 2 2 2 2 2 2 2 2 2 5 2 2 2 2 2 2 2
left_child=1 -1 8 4 5 24 21 13 -3 10 -10 12 26 14 16 -16 17 28 20 30 23 -6 37 -13 27 -26 -5 54 -4 -19 31 -20 33 53 -35 -32 47 -7 39 40 -9 -41 43 44 46 -46 -42 -37 -18 50 -50 -27 -53 -33 56 58 57 -2 -56
right_child=3 2 7 11 6 22 -8 38 9 -11 -12 18 -14 -15 15 -17 48 29 19 -21 -22 -23 -24 -25 25 51 -28 -29 -30 -31 35 32 -34 34 -36 36 -38 -39 -40 41 42 -43 -44 -45 45 -47 -48 -49 49 -51 -52 52 -54 -55 55 -57 -58 -59 -60
leaf_value=-0.018320457171401645 -0.020745229536232136 0.66162290384968869 0.078226437158631826 0.05993608831869144 0.66153965767803069 -0.19195691049973693 -0.28532124242999335 -0.057279339127737888 0.42946240545845488 0.64554111441461048 -0.070914833530413571 0.12559073264999157 -0.051974862968297987 -0.05923075658769103 0.77640248570680515 0.22939262958531528 -0.11502606584628423 0.6276239859011884 -0.036969698855062121 -0.30791106376589555 -0.12237820421085432 0.19065744500062465 -0.49197674653365869 0.47068929066881537 0.5639433376729871 -0.20392666008891697 0.49136413756262198 -0.15708795999539796 0.41805892323433352 0.18590089151297104 -0.2579394841828182 0.81937349064607323 -0.12763481082697492 -0.0072340588238531426 0.47801490034908056 0.47287401824860886 -0.09426313391443164 -0.082229284376213588 -0.12488011630128638 0.19994635819778617 0.12652518601799062 -0.16258325751239627 -0.17313682601479422 0.48749067249397438 0.68953931712137206 0.17556748018703527 -0.096953475952456777 0.021128273680311654 0.086655094104921421 0.0036261799699276848 0.43972511377024392 -0.079191909627266355 0.31105529344671107 0.34071956263684039 0.15425247133380787 -0.019413180402296067 -0.15391538589454748 0.4417961042167412 0.5801351090662995
leaf_count=5206 261 116 752 95 79 1810 88 785 144 82 229 468 178 558 73 485 375 130 923 269 222 256 110 136 78 108 201 762 119 110 268 73 253 152 94 85 882 1554 536 135 725 563 143 120 73 180 296 113 208 756 130 116 153 98 136 658 724 90 87
internal_value=0 0.0710485 0.142713 -0.0801773 -0.150825 -0.183279 0.359157 0.105608 0.61396 0.433132 0.244521 0.0305715 0.393416 0.205786 0.263444 0.60191 0.190241 0.379146 -0.0129846 -0.0757082 0.228761 0.603403 -0.304746 0.40659 -0.0502887 0.256393 0.705798 -0.101628 0.249312 0.850335 -0.0265638 0.0886679 0.312678 0.657259 0.356373 -0.162739 -0.075108 -0.282536 0.0014867 0.0460789 0.1152 -0.183862 0.232546 0.291922 0.227584 0.647735 0.123472 0.430119 0.0473726 0.142468 0.444903 0.0760841 0.275306 1.09011 -0.0188255 0.133204 -0.143419 0.19571 0.640808
internal_count=24609 13029 7823 11580 7070 6647 423 7252 571 455 373 4510 474 3696 3138 558 2580 1111 4036 3210 826 335 3474 604 3173 455 296 2718 871 240 2941 1593 670 417 246 1348 1080 3364 3556 3020 2322 698 1537 1394 1274 253 1021 198 1469 1094 338 377 269 171 1956 881 1075 351 223
cat_boundaries=0 1 2 3 4
cat_threshold=4194848 167871504 16777299 193495136
shrinkage=0.5


Tree=9
num_leaves=60
num_cat=6
split_feature=14 18 26 11 25 15 6 26 25 4 11 25 10 21 24 25 10 26 26 25 20 26 25 25 1 11 19 25 26 24 4 19 6 12 13 26 20 26 22 25 26 2 25 26 26 6 24 25 25 21 23 11 25 11 17 19 20 6 23
split_gain=114.344 95.6742 116.717 134.117 95.5211 79.2082 90.8269 77.1149 79.0541 68.4705 85.0729 67.7499 60.6595 58.3344 55.7319 52.1563 108.346 94.844 52.6185 56.6752 50.5804 50.369 170.837 66.684 53.8896 51.7202 53.7875 49.2712 61.1087 48.1978 47.7603 48.8833 45.6087 44.4188 43.6585 51.5976 42.1449 42.0875 58.9074 66.2535 41.3526 65.4705 55.3491 48.0225 44.7057 44.6028 43.2877 42.4509 40.1886 39.9703 39.5257 38.4143 46.4465 37.7961 42.3554 37.5563 36.1555 35.9408 35.6727
threshold=0.36650000000000005 2.5000000000000004 5.7000000000000002 0.40600000000000008 6.5000000000000009 3.5000000000000004 0 12.300000000000002 13.500000000000002 1 0.65500000000000014 11.500000000000002 12.500000000000002 3.5000000000000004 3.5000000000000004 4.5000000000000009 5.5000000000000009 1.7000000000000004 1.7000000000000004 2.5000000000000004 3.5000000000000004 12.300000000000002 13.500000000000002 13.500000000000002 40.500000000000007 0.41900000000000009 3.5000000000000004 18.500000000000004 14.550000000000002 2.5000000000000004 2 10.000000000000002 3 1.5000000000000002 5.5000000000000009 9.4000000000000004 1.5000000000000002 8.3000000000000025 1.0000000180025095e-35 9.5000000000000018 24.450000000000003 28.500000000000004 22.500000000000004 16.850000000000005 16.850000000000005 4 3.5000000000000004 33.500000000000007 2.5000000000000004 1.5000000000000002 1.5000000000000002 0.65500000000000014 28.000000000000004 0.51450000000000007 0.76400000000000012 5.5000000000000009 7.5000000000000009 5 1.5000000000000002
decision_type=2 2 2 2 2 2 5 2 2 5 2 2 2 2 2 2 2 2 2 2 2 2 2 2 2 2 2 2 2 2 5 2 5 2 2 2 2 2 2 2 2 2 2 2 2 5 2 2 2 2 2 2 2 2 2 2 2 5 2
left_child=1 2 15 5 -5 14 -7 11 -9 -10 27 49 -8 21 34 16 18 -18 48 -20 -14 23 24 37 -23 26 -24 28 -11 57 32 -32 -3 -22 35 -4 -27 -2 39 -39 42 47 44 -44 46 -46 56 -42 -1 50 -6 52 58 54 -17 -43 -38 -29 -45
right_child=13 30 3 4 7 6 12 8 9 10 -12 -13 20 -15 -16 53 17 -19 19 -21 33 22 25 -25 -26 36 -28 29 -30 -31 31 -33 -34 -35 -36 -37 40 38 -40 -41 41 55 43 51 45 -47 -48 -49 -50 -51 -52 -53 -54 -55 -56 -57 -58 -59 -60
leaf_value=-0.010520632228619525 -0.082196980741353037 0.33895003397923867 0.26388680893644517 0.33465831380060596 0.026604379265472957 0.49452073713846967 -0.17274460662567476 0.43169903950183652 0.42300094453971987 0.026985519126781241 -0.24755566982835855 -0.16279958537376255 0.45409061081315344 -0.34355250981965718 0.57117139311673437 0.010694691230846487 0.10442122479017901 0.51223871378815744 0.18978935737898284 -0.0049664422945810711 0.21713440334295026 0.24879290647189714 0.52505984373118098 -0.20845257150511698 0.76065280151210335 0.17905432726850445 0.025967364541337461 -0.32022636531828308 0.48864751029130371 0.15653687089605986 -0.093103988814668512 -0.40010940628070041 -0.021012649150838239 -0.19291229034606061 0.12059478882418133 0.66013035644297891 -0.099950615684834737 0.39852590320180309 -0.12918054935570664 0.034285110479799874 0.38227559583511478 -0.34124924629112752 -0.49908079229291097 -0.18488352538578295 0.35192753395981968 0.0020365581654554622 0.1203165357185912 0.032433343453980655 -0.17534555129454907 -0.15415127722621441 0.29601472820292596 -0.43390961574215908 -0.31952406078046403 -0.22808828790507954 -0.13228992122893707 0.041434983019348531 -0.39891769694125589 -0.0021749398205429316 0.10609512351626574
leaf_count=3466 2672 101 406 259 639 103 269 160 111 139 230 779 95 164 157 1617 600 187 674 838 144 159 82 798 76 197 158 107 148 394 1390 143 425 122 383 103 643 165 352 513 164 119 112 178 114 354 189 184 414 225 173 100 172 284 762 139 120 380 258
internal_value=0 0.0479834 0.0768734 0.190882 0.0834034 0.416696 0.164484 0.0398592 0.195026 0.124158 0.0603606 -0.102747 0.0137574 -0.0967086 0.592933 0.00562119 0.0560414 0.402646 0.005452 0.163699 0.281832 -0.0846326 0.0050084 -0.154712 0.828661 -0.0539494 0.392981 0.17026 0.53011 0.0530325 -0.153616 -0.241906 0.10628 0.0581357 0.496232 0.688139 -0.0891986 -0.0981939 0.0735407 0.245856 -0.120161 0.11159 -0.182858 -0.389714 -0.0634059 0.189659 -0.187812 0.394603 -0.0562152 0.064661 0.168007 -0.293463 -0.198996 -0.11137 -0.0702073 -0.270149 -0.293941 -0.15735 -0.0253978
internal_count=24609 16427 14368 5526 3744 1782 733 3485 1669 1509 1398 1816 630 8182 1049 8842 6179 787 5392 1512 361 8018 3518 4500 235 3283 240 1168 287 881 2059 1533 526 266 892 509 3043 3702 1030 678 2846 606 2240 820 1420 468 952 348 3880 1037 812 708 608 2663 2379 258 763 487 436
cat_boundaries=0 1 2 3 4 5 6
cat_threshold=67143696 4194432 4293520 67470464 293969984 167805236
shrinkage=0.5


Tree=10
num_leaves=60
num_cat=14
split_feature=23 20 26 25 20 21 26 11 26 12 23 11 15 10 17 4 16 27 15 19 23 25 21 6 13 4 6 14 23 24 4 25 26 18 6 25 4 6 24 15 11 4 26 6 26 25 6 6 4 17 4 15 1 8 22 3 8 18 10
split_gain=122.974 130.871 86.7887 102.676 79.7828 72.2826 77.5484 115.898 68.9471 84.9071 89.9007 61.9917 63.9469 58.2148 54.6286 52.751 58.8248 52.2155 51.3314 50.4151 62.543 50.0582 48.4773 44.5878 59.9381 41.9103 47.0968 41.5465 38.0597 37.7504 37.6356 36.609 36.5867 35.0052 34.4807 34.3467 33.9621 49.0945 40.8569 33.5515 33.5174 34.2272 58.8432 34.9746 32.7781 35.5827 32.6144 30.7876 30.6823 30.435 30.0137 28.8967 28.618 28.359 28.3083 30.3698 36.9402 27.5619 27.1751
threshold=1.0000000180025095e-35 6.5000000000000009 16.850000000000005 18.500000000000004 2.5000000000000004 1.5000000000000002 -0.54999999999999993 0.22500000000000003 3.9000000000000004 1.5000000000000002 3.5000000000000004 0.51450000000000007 1.5000000000000002 5.5000000000000009 0.63350000000000006 0 4.5000000000000009 -3.4999999999999996 3.5000000000000004 10.000000000000002 4.5000000000000009 18.500000000000004 2.5000000000000004 1 6.5000000000000009 2 3 0.18350000000000002 2.5000000000000004 2.5000000000000004 4 6.5000000000000009 9.8000000000000025 4.5000000000000009 5 10.500000000000002 6 7 2.5000000000000004 2.5000000000000004 0.36950000000000005 8 9.8000000000000025 9 9.8000000000000025 16.500000000000004 10 11 12 0.63350000000000006 13 3.5000000000000004 15.500000000000002 27.240000000000006 1.0000000180025095e-35 1.5770592000000003e+18 30.740000000000006 1.0000000180025095e-35 14.500000000000002
decision_type=2 2 2 2 2 2 2 2 2 2 2 2 2 2 2 5 2 2 2 2 2 2 2 5 2 5 5 2 2 2 5 2 2 2 5 2 5 5 2 2 2 5 2 5 2 2 5 5 5 2 5 2 2 2 2 2 2 2 2
left_child=4 5 19 18 -1 6 53 13 27 10 11 12 35 -8 40 16 -5 -17 -4 20 21 32 -6 24 -19 -16 -27 28 -9 -21 -13 -15 -3 50 -32 -10 37 -7 -38 -28 -11 -42 -43 -44 51 -46 -40 -34 -49 -22 -25 -14 -12 -2 55 -48 -57 -30 -52
right_child=1 2 3 15 22 36 7 8 9 14 52 30 44 31 25 17 -18 23 -20 29 49 -23 -24 33 -26 26 39 -29 57 -31 34 -33 47 -35 -36 -37 38 -39 46 -41 41 42 43 -45 45 -47 54 48 -50 -51 58 -53 -54 -55 -56 56 -58 -59 -60
leaf_value=-0.0017541871380767592 -0.027268644561538997 -0.13763656764960741 0.58746773622804827 0.1112465503659234 -0.086293657222688738 0.057022860620991656 0.16847261005622607 0.015813023637287857 0.4504738243788115 0.34604506590729256 0.71318967582774351 0.23316091581390383 0.14218174524658356 0.60651516278102502 0.11358103083736461 -0.1612991642292933 -0.41399861867195809 0.093634042979007764 0.080458380281925201 -0.57710265866998167 0.43224360988345706 -0.31742186917037496 -0.34360511947306804 0.29433187969574115 0.64874631213024259 0.074013950662071212 -0.0065006701066236579 -0.083490639282968862 0.44882944270890829 -0.16949351662097123 0.2516316677851626 0.23647414524578028 -0.15115900594551873 -0.28610273634426686 -0.038079422269482167 0.13163034644043237 -0.055053865840587836 -0.23638681047293661 -0.063065599030518824 -0.21870956777148176 -0.037556703324985043 0.02355232839091409 0.51417777052521707 0.16961836891089668 0.50955207791982915 0.12243675487115979 0.05876109424571041 -0.099896096896601325 0.12952261656220487 0.023875382349446968 -0.21547410901635886 -0.10040786443278193 0.33682035191501253 -0.31994294097854031 0.024876000606454909 0.18306789382671315 0.61831125938640596 0.079813797792820176 0.077230859142375555
leaf_count=4457 1030 1145 119 83 3925 226 449 950 326 143 80 212 386 168 427 249 149 124 86 90 79 246 192 113 80 389 299 948 96 154 109 111 241 76 740 114 1001 375 214 494 369 452 115 276 102 142 112 209 436 108 100 180 137 90 200 105 91 107 383
internal_value=0 0.0521443 -0.0978138 0.0899022 -0.0962195 0.10657 0.145459 0.17871 0.142167 0.201105 0.33574 0.277954 0.428847 0.559855 0.0862749 -0.00974867 -0.43349 0.0807716 0.749542 -0.20609 -0.163153 -0.20881 -0.196587 0.19635 0.593554 -0.0383092 -0.134991 -0.0118982 0.115612 -0.639682 0.100182 0.918589 -0.157208 0.0659561 0.00322375 0.735729 -0.0514133 -0.253851 0.0205531 -0.273938 0.234213 0.180189 0.289399 0.576896 0.262146 0.568527 0.201989 -0.00462995 0.109587 0.392789 0.148439 0.130066 0.951148 -0.101574 0.336081 0.53292 0.77029 0.508647 0.0325842
internal_count=24609 16035 4270 1562 8574 11765 9441 8321 7593 5492 2528 2311 1250 728 2964 1357 232 1125 205 2708 2464 2277 4117 876 204 1609 1182 2101 1153 244 1061 279 2031 672 849 440 2324 601 1723 793 1355 1212 843 391 810 244 722 886 645 187 596 566 217 1120 508 308 196 203 483
cat_boundaries=0 1 2 3 4 5 6 7 8 9 10 11 12 13 14
cat_threshold=272634387 155255184 16847158 508370944 4243840 599104 16863429 373588276 21545522 210010244 71639268 512230404 16876373 65664
shrinkage=0.5


Tree=11
num_leaves=60
num_cat=10
split_feature=22 24 20 26 11 26 25 25 23 11 21 26 25 25 26 25 23 4 1 17 10 6 24 25 26 13 1 26 14 25 20 23 9 13 11 26 11 3 20 25 4 25 4 11 6 11 1 8 6 4 26 25 25 26 9 6 6 4 11
split_gain=91.8187 73.4296 84.5547 58.7569 65.6857 48.2876 59.6227 50.2632 49.4907 47.682 44.6196 46.3961 75.3306 46.7526 44.1262 64.3117 74.8185 44.0102 46.828 42.7505 41.5131 40.4948 46.5854 40.478 45.4599 40.3696 38.9685 36.4155 61.1842 36.1314 35.9793 35.7021 40.4262 33.5682 33.0006 32.9474 56.35 32.6312 31.528 31.2841 34.6116 30.7712 31.2651 30.3761 30.0546 29.6275 36.2844 29.6203 29.5264 28.8061 28.7563 42.1631 33.2686 28.6 28.1757 27.6616 26.8017 28.051 26.3296
threshold=1.0000000180025095e-35 1.0000000180025095e-35 2.5000000000000004 1.7000000000000004 0.29000000000000009 14.550000000000002 14.500000000000002 16.500000000000004 1.0000000180025095e-35 0.73850000000000005 1.0000000180025095e-35 12.300000000000002 16.500000000000004 14.500000000000002 21.300000000000001 28.000000000000004 4.5000000000000009 0 9.5000000000000018 0.76400000000000012 12.500000000000002 1 3.5000000000000004 33.500000000000007 24.450000000000003 4.5000000000000009 51.500000000000007 9.4000000000000004 0.18350000000000002 10.500000000000002 8.5000000000000018 3.5000000000000004 8.5000000000000018 2.5000000000000004 0.77500000000000013 7.3000000000000016 0.34300000000000003 1.5801264000000003e+18 7.5000000000000009 18.500000000000004 2 13.500000000000002 3 0.46900000000000008 4 0.51450000000000007 23.500000000000004 26.500000000000004 5 6 4.7000000000000011 5.5000000000000009 5.5000000000000009 9.4000000000000004 8.5000000000000018 7 8 9 0.61250000000000016
decision_type=2 2 2 2 2 2 2 2 2 2 2 2 2 2 2 2 2 5 2 2 2 5 2 2 2 2 2 2 2 2 2 2 2 2 2 2 2 2 2 2 5 2 5 2 5 2 2 2 5 5 2 2 2 2 2 5 5 5 2
left_child=1 25 3 -3 47 7 -7 8 -2 17 11 13 58 20 19 37 -17 18 -8 34 50 22 38 24 31 -1 -14 29 -29 43 -26 33 -33 -23 35 -12 -37 -16 -19 40 -21 -30 -43 -6 -42 -20 -47 -5 -41 55 51 -4 -52 -15 -27 -10 -38 -58 -13
right_child=5 2 10 4 27 6 9 -9 49 -11 14 12 26 53 15 16 -18 21 45 39 -22 23 -24 -25 30 54 -28 28 41 -31 -32 32 -34 -35 -36 36 56 -39 -40 48 44 42 -44 -45 -46 46 -48 -49 -50 -51 52 -53 -54 -55 -56 -57 57 -59 -60
leaf_value=-0.01959609103052979 -0.12399618248527329 0.023845854628351936 0.037848663995654397 0.2713509586387865 0.20450862821561691 0.28561291060690391 0.52274325375396802 -0.24271937726830789 0.28094181480507058 -0.23303159611449706 -0.0552540818736596 0.67899863059456289 0.0211884330286937 -0.38106108011337569 0.1301763729662985 -0.16955125050052353 0.40267084038963441 -0.10049698242500167 0.28365243572209564 -0.19451596327023393 0.30049883793172838 0.15180785423361284 0.12550244156042473 -0.20513292688499146 0.52132458499308387 -0.11855445435677853 0.31418887586136102 0.60405225192799283 0.37369459383906078 -0.057291965227988031 0.07045918948609721 0.45720887146043504 -0.0063772009740961661 -0.10591543107545454 -0.25182220188250382 0.42518246877938509 -0.081482850423271067 0.54365091276300448 -0.4121924588321953 0.0078327812605552497 -0.14876409090904152 0.31374969826321358 0.035490563132010836 0.05405191172813547 0.068003406585194173 -0.31442572520918227 0.14922587176784874 0.64447342859555601 -0.29610546109381941 -0.044597858693173668 0.40567770098646483 -0.14918196129414821 0.060757101002235185 -0.056090823902758123 -0.43335577301023637 0.022195202681198987 -0.067790803131958524 0.13836157950154182 0.271087694825495
leaf_count=3145 1772 1890 904 196 546 189 77 387 116 211 1035 74 565 104 93 230 76 174 112 331 144 172 114 158 89 434 142 85 130 405 88 88 101 476 126 100 346 98 152 114 224 125 436 870 495 73 100 73 321 2751 75 452 1030 194 85 607 222 602 85
internal_value=0 0.0431388 0.0785303 0.184564 0.274825 -0.0872371 0.0323853 -0.137651 -0.111995 -0.0142238 0.0168955 0.0968029 0.299941 0.0362042 -0.0513509 0.229338 -0.0548615 0.0340731 0.344031 -0.0869745 0.0791266 -0.0374349 -0.292589 0.0600216 0.133893 -0.0818327 0.160074 0.226102 0.407499 0.148801 0.594331 0.0365245 0.418945 -0.0750148 -0.00531255 0.0219282 0.129859 0.684651 -0.491655 -0.220658 -0.127236 0.309017 0.207433 0.224134 -0.00128691 0.166587 -0.092838 0.745214 -0.446159 -0.0426261 0.0485905 -0.0489898 0.168336 -0.339007 -0.340223 0.133951 0.0682768 0.165347 0.921866
internal_count=24609 16602 12938 4756 2866 8007 2374 5633 5246 2185 8182 3769 866 2903 4413 497 306 1974 362 3916 2605 1612 440 1172 1014 3664 707 2597 776 1821 177 837 189 648 2431 2305 1270 191 326 1485 1050 691 561 1416 719 285 173 269 435 3474 2461 1356 1105 298 519 723 1170 824 159
cat_boundaries=0 1 2 3 4 5 6 7 8 9 10
cat_threshold=82082 168037776 285234053 4884 306515216 239173952 4195094 67446016 507544644 16827109
shrinkage=0.5


Tree=12
num_leaves=60
num_cat=5
split_feature=21 23 26 25 26 25 10 16 26 24 23 25 4 20 24 11 15 25 26 25 11 10 15 19 4 6 14 11 14 27 15 24 26 11 12 11 19 6 26 15 25 10 26 11 23 26 15 26 11 25 26 11 20 25 26 6 25 11 25
split_gain=69.2255 64.0037 52.511 83.481 134.737 65.5793 62.3159 58.9626 52.1715 50.3946 47.0443 46.5955 46.1067 42.2836 41.2602 39.1415 38.9383 38.4275 41.835 48.9398 38.355 53.3956 38.7277 45.765 48.1674 47.6561 43.38 37.2931 35.2332 34.6642 39.795 33.6882 32.0014 40.9451 32.3232 31.9671 42.5241 31.5332 31.1748 30.1445 29.9144 29.3767 29.3671 32.6619 32.8579 28.9412 28.5191 33.6264 43.8423 29.9661 40.7857 30.627 37.9043 28.4307 30.9611 28.2475 28.0646 27.8828 27.1629
threshold=1.0000000180025095e-35 1.5000000000000002 16.850000000000005 11.500000000000002 9.8000000000000025 18.500000000000004 11.500000000000002 1.0000000180025095e-35 13.650000000000002 4.5000000000000009 2.5000000000000004 7.5000000000000009 0 3.5000000000000004 1.5000000000000002 0.29000000000000009 2.5000000000000004 2.5000000000000004 4.7000000000000011 5.5000000000000009 0.43650000000000005 18.000000000000004 1.5000000000000002 6.5000000000000009 1 2 0.42750000000000005 0.69050000000000022 0.52800000000000014 6.5000000000000009 3.5000000000000004 2.5000000000000004 -1.7499999999999998 0.29000000000000009 1.0000000180025095e-35 0.73850000000000005 6.5000000000000009 3 1.7000000000000004 6.0000000000000009 22.500000000000004 1.0000000180025095e-35 8.3000000000000025 0.61250000000000016 3.5000000000000004 6.3500000000000005 2.5000000000000004 6.3500000000000005 0.51450000000000007 5.5000000000000009 2.7000000000000006 0.65500000000000014 4.5000000000000009 7.5000000000000009 11.650000000000002 4 11.500000000000002 0.36950000000000005 20.500000000000004
decision_type=2 2 2 2 2 2 2 2 2 2 2 2 5 2 2 2 2 2 2 2 2 2 2 2 5 5 2 2 2 2 2 2 2 2 2 2 2 5 2 2 2 2 2 2 2 2 2 2 2 2 2 2 2 2 2 5 2 2 2
left_child=1 46 3 4 6 35 10 -7 11 15 17 -6 -12 32 -15 -5 42 41 -19 45 21 -9 -22 24 -24 -25 31 -13 -28 55 -31 -27 -3 34 -34 36 -4 -18 -35 -23 -26 -2 -17 44 58 -20 47 49 53 50 -1 52 -52 -49 56 -16 -55 -57 -44
right_child=2 13 5 9 8 7 -8 20 -10 -11 12 27 -14 14 29 16 37 18 19 -21 22 39 23 25 40 26 28 -29 -30 30 -32 -33 33 38 -36 -37 -38 -39 -40 -41 -42 -43 43 -45 -46 -47 -48 48 -50 -51 51 -53 -54 54 -56 57 -58 -59 -60
leaf_value=-0.009186139145781879 -0.24534691923150892 -0.061180219754197032 0.51275532401962776 0.14968627952770444 0.50935007550586497 -0.3372852483670376 0.18426672428933866 -0.095846375274030782 0.58011853077177755 0.085115401252563241 -0.21974663416426465 0.16639242426777001 0.13266601541269074 -0.078216817457809729 -0.076085368911590193 -0.27766263803237978 -0.34114253506112585 -0.17030341455139408 -0.011285149769329499 -0.091024790779808282 0.23764965176101654 0.59787722037592317 0.23314629661317374 0.15731935081927756 0.17396339946777895 -0.26443690371566586 -0.59155223225102282 -0.15111771565588081 -0.16864178419393505 0.31489421303584803 0.020707655396331483 0.065047779794910859 0.55435654385668087 -0.051819595037442115 0.15944259885513293 -0.042672377355031772 0.096907088742377828 -0.151951088727064 0.17796908623159852 0.17239879662255672 -0.068820081278051476 0.047960880393503318 -0.032988629023640768 -0.19713322392067431 0.22107646547398774 0.26371611067244483 -0.069783631897315651 0.40200237597589594 0.010080256396849022 -0.075263051184166291 0.26938962450626436 -0.0092067162681239833 -0.0053479637562192693 0.17310593586171308 0.33495919304906574 0.22815175554239933 -0.0453434095808702 0.025805295788846563 -0.33814696585641629
leaf_count=4033 95 157 141 121 78 119 298 95 79 303 103 415 538 558 390 191 338 1209 224 1611 155 79 238 113 159 140 99 119 98 278 196 174 117 180 93 74 109 816 820 88 628 842 948 378 119 167 1162 104 1278 1212 382 348 187 320 139 245 272 558 79
internal_value=0 0.0503745 -0.0558856 -0.0913011 -0.0188786 0.0721552 -0.0751598 0.00989936 0.395452 -0.218376 -0.102769 0.296729 0.149359 0.163979 0.0789364 -0.257756 -0.281253 -0.141731 -0.193725 -0.105023 0.0493243 0.406855 -0.00260088 -0.0475218 0.0824614 -0.261036 -0.386923 0.191273 -0.762341 0.157722 0.386495 -0.163712 0.302399 0.357512 0.758932 0.491998 0.662891 -0.423274 0.273214 0.747346 -0.0390435 0.0364463 -0.185689 -0.139364 -0.0552857 0.212341 0.00713328 0.0277334 0.136593 -0.00959548 0.0249112 0.215273 0.358196 0.314798 0.245198 0.0668271 0.145475 0.172931 -0.112925
internal_count=24609 13029 11580 9071 5778 2509 5087 2185 691 3293 4789 612 641 3592 2225 2990 2869 4148 3211 2002 2066 262 1804 1649 1025 624 511 534 197 1667 474 314 1367 1210 210 324 250 1154 1000 167 787 937 1715 1524 1146 391 9437 8275 2113 6162 4950 917 569 835 731 1193 592 803 1027
cat_boundaries=0 1 2 3 4 5
cat_threshold=16777636 21054212 147391488 428082400 277422308
shrinkage=0.5


Tree=13
num_leaves=60
num_cat=8
split_feature=21 24 17 26 20 12 25 26 11 9 15 10 10 22 6 11 4 8 26 6 25 26 20 26 25 8 26 14 21 4 15 26 14 11 10 20 8 26 25 26 11 22 6 16 26 6 27 3 11 26 19 20 4 15 6 14 25 13 8
split_gain=80.4058 64.6561 52.1437 53.6076 75.2848 53.8958 52.9299 64.6437 71.7222 49.4888 47.8819 46.7166 45.5019 44.0965 41.321 56.4828 40.0246 42.1952 39.776 38.0574 37.645 54.3548 41.6468 37.4852 40.4035 36.9252 36.4124 35.4277 34.621 34.4915 36.8161 35.1156 34.1454 32.4711 31.9721 30.9147 34.3857 29.8532 41.147 29.5512 35.9385 28.7201 28.3482 28.1278 27.7357 28.1701 29.0087 28.2482 26.8444 31.1641 38.8743 26.527 25.8927 25.7574 24.5878 24.0465 23.8915 23.4081 22.7688
threshold=2.5000000000000004 3.5000000000000004 0.91650000000000009 13.650000000000002 7.5000000000000009 4.0000000000000009 16.500000000000004 8.3000000000000025 0.51450000000000007 3.5000000000000004 3.5000000000000004 18.000000000000004 9.5000000000000018 1.5000000000000002 0 0.36950000000000005 1 33.82500000000001 11.650000000000002 2 28.000000000000004 21.300000000000001 7.5000000000000009 3.1500000000000004 10.500000000000002 30.200000000000003 21.300000000000001 0.26800000000000007 3.5000000000000004 3 1.5000000000000002 15.850000000000003 0.52800000000000014 0.34300000000000003 11.500000000000002 1.5000000000000002 13.730000000000002 6.3500000000000005 4.5000000000000009 3.9000000000000004 0.29000000000000009 1.0000000180025095e-35 4 6.5000000000000009 11.650000000000002 5 11.500000000000002 1.5780096000000003e+18 0.51450000000000007 11.650000000000002 2.5000000000000004 11.500000000000002 6 3.5000000000000004 7 0.42750000000000005 9.5000000000000018 2.5000000000000004 29.455000000000002
decision_type=2 2 2 2 2 2 2 2 2 2 2 2 2 2 5 2 5 2 2 5 2 2 2 2 2 2 2 2 2 5 2 2 2 2 2 2 2 2 2 2 2 2 5 2 2 5 2 2 2 2 2 2 5 2 5 2 2 2 2
left_child=1 2 3 4 6 14 7 9 13 12 23 25 35 18 41 -16 -12 -18 33 -19 21 51 -23 58 -25 -7 28 -28 32 42 31 54 34 -9 -2 36 -1 38 39 -37 -41 -5 -4 -21 -26 -46 47 -47 49 53 -51 -17 -52 -32 -31 -49 -10 -30 -3
right_child=26 10 29 5 -6 11 -8 8 56 -11 16 -13 -14 -15 15 20 17 19 -20 43 -22 22 -24 24 44 -27 27 -29 57 30 48 -33 -34 -35 -36 37 -38 -39 -40 40 -42 -43 -44 -45 45 46 -48 55 -50 50 52 -53 -54 -55 -56 -57 -58 -59 -60
leaf_value=0.011203479668395657 -0.14414392411183255 0.04094002805594299 -0.37435726568082828 0.10214208808063649 -0.14475795819494319 -5.7768923315134913e-05 -0.17712648227890759 0.48262411664410304 0.16022285460022048 -0.10193040228692624 -0.20303719457450922 0.11330931971164106 0.1978816542501084 -0.1154459723263014 0.56102950784931827 0.14823330430597823 -0.084212722945518723 0.39956254079132469 0.55151509078887273 0.26408968587466836 -0.050312424234739209 0.6924596803274925 0.21564128105974226 0.22408830404887151 0.0036330678415569394 -0.42284793213009836 -0.19215710981337875 0.15946549859409692 -0.1205067621736691 0.15492752301003548 -0.029938433565036476 0.33870669257114916 -0.38190841874908682 0.1562433733689815 0.08007214785104752 -0.02148802323576491 0.12495998510482231 0.095094999604074582 -0.11141822153186631 0.45049242880865165 0.047400448858337642 -0.16350639809161516 -0.10140233437774449 -0.092424913653291307 -0.072132608072047147 -0.042856497078678987 0.43718856988782318 0.41624743951199289 -0.11821409379115226 0.29642979384795443 -0.19532022493705153 -0.091210431680365495 0.066430543176348514 -0.18506406625595198 -0.043481665078459249 0.097665633789930997 -0.034467452138514175 -0.4033569917106305 -0.21166839137745713
leaf_count=2789 443 666 118 202 867 88 373 93 207 1081 236 154 316 83 79 935 376 101 106 88 249 77 113 799 605 125 111 202 116 226 1415 102 96 422 248 2289 872 469 1290 73 228 205 491 149 111 131 109 111 1132 146 115 132 377 330 454 127 660 198 103
internal_value=0 0.0141916 -0.00885381 0.0211587 -0.00548792 0.15917 0.0162064 0.0287935 0.216569 -0.00256561 0.135149 -0.192978 0.0235694 0.453686 0.224049 0.295973 -0.0585076 0.0612045 0.545183 0.318462 0.254605 0.324973 0.817756 0.201757 0.274122 -0.496348 -0.231431 0.0695373 -0.316993 -0.0980289 -0.0658205 0.13027 -0.204984 0.430364 -0.127345 0.0088861 0.0765974 -0.0481135 -0.0769187 -0.00424157 0.290321 -0.0618039 -0.318967 0.0766687 0.157649 0.312116 0.412485 0.287224 -0.109633 -0.0494013 0.139725 0.237223 0.0052585 -0.118549 0.0481982 0.492496 0.0240314 -0.597729 0.0142112
internal_count=24609 23195 19483 14577 12218 2359 11351 10978 1571 9407 3712 367 8326 704 1992 1585 950 714 621 338 1506 1257 190 2762 1993 213 1414 313 1101 4906 4297 782 787 515 691 8010 3661 4349 3880 2590 301 407 609 237 1194 589 478 369 3515 2383 638 1067 492 1745 680 238 867 314 769
cat_boundaries=0 1 2 3 4 5 6 7 8
cat_threshold=8391120 268980720 54526196 285736962 167774304 155197488 752 423723236
shrinkage=0.5


Tree=14
num_leaves=60
num_cat=11
split_feature=22 11 26 14 20 25 18 15 10 26 18 6 11 17 15 11 6 26 26 11 25 13 4 6 1 26 15 7 19 15 4 19 6 24 20 18 24 4 7 16 13 6 4 26 21 17 9 10 23 23 11 25 6 17 10 6 9 26 27
split_gain=68.1376 67.0442 49.2617 83.771 61.0461 51.4845 44.9867 44.3828 40.3213 39.5895 45.6108 38.3698 35.118 33.853 33.1564 30.7359 33.8347 30.434 29.7244 40.199 28.6086 28.5842 27.5506 36.4679 33.0254 26.211 25.8986 25.6768 24.8198 24.4004 23.534 25.2687 28.6949 23.2277 29.209 24.6796 22.327 30.1665 21.7935 40.5942 35.1992 34.672 31.9786 42.4832 35.8176 31.0438 26.2185 21.6746 21.4295 20.9852 23.0223 20.6965 20.6178 20.5882 20.5167 20.1694 32.0527 28.8621 24.2449
threshold=2.5000000000000004 0.69050000000000022 3.9000000000000004 0.18350000000000002 2.5000000000000004 4.5000000000000009 1.0000000180025095e-35 6.0000000000000009 7.5000000000000009 9.8000000000000025 4.5000000000000009 0 0.22500000000000003 0.63350000000000006 1.0000000180025095e-35 0.45300000000000007 1 -1.2 14.550000000000002 0.29000000000000009 18.500000000000004 3.5000000000000004 2 3 4.5000000000000009 -1.2 4.5000000000000009 1.0000000180025095e-35 7.5000000000000009 3.5000000000000004 4 4.5000000000000009 5 1.5000000000000002 3.5000000000000004 1.0000000180025095e-35 1.0000000180025095e-35 6 1.0000000180025095e-35 3.5000000000000004 5.5000000000000009 7 8 16.850000000000005 1.0000000180025095e-35 0.91650000000000009 8.5000000000000018 12.500000000000002 1.0000000180025095e-35 3.5000000000000004 0.34300000000000003 22.500000000000004 9 0.5355000000000002 8.5000000000000018 10 12.500000000000002 21.300000000000001 11.500000000000002
decision_type=2 2 2 2 2 2 2 2 2 2 2 5 2 2 2 2 5 2 2 2 2 2 5 5 2 2 2 2 2 2 5 2 5 2 2 2 2 5 2 2 2 5 5 2 2 2 2 2 2 2 2 2 5 2 2 5 2 2 2
left_child=1 2 5 4 36 8 13 9 25 12 11 -11 -6 15 -14 16 -5 -10 19 29 -20 30 23 -22 -24 -1 28 -26 48 54 -3 -32 -33 34 -27 -35 -4 -38 39 -15 -41 51 44 49 -43 -45 -47 -2 -21 50 -44 -40 -7 -49 -8 57 58 -29 -57
right_child=47 21 3 6 7 52 18 -9 17 10 -12 -13 14 38 -16 -17 -18 -19 20 26 22 -23 24 -25 27 33 -28 55 -30 -31 31 32 -34 35 -36 -37 37 -39 41 40 -42 42 43 45 -46 46 -48 53 -50 -51 -52 -53 -54 -55 -56 56 -58 -59 -60
leaf_value=-0.075470035488926376 -0.20434468381610646 0.12880883827826686 0.068464240361307119 0.32363528785728185 0.27033075646138172 -0.017061565789578341 0.080061887931078671 -0.11218797412593834 -0.0038327942222204743 0.36553390703442756 -0.058542214023375221 0.13504603580669372 0.11473698448389769 0.022653105836663464 -0.030867419265802755 0.04511343387528554 0.09043387021840911 0.36054558211100707 0.16709621134458297 -0.12110188726099744 -0.12260694032073276 -0.19214696889559243 0.23574166940432964 0.2173058427550788 -0.28991028854631751 0.0076228307316160548 -0.26803070519896555 -0.078599606154371157 -0.24608121669125679 -0.086190065068917146 -0.030272473336856381 0.069262514369608744 -0.21183223632887718 0.12684270045827226 -0.14253827737920405 -0.0052209548036216101 0.029228295521002954 0.35374260363364063 0.0038900416891235823 -0.068750073265676434 -0.41205435119781308 0.12489759091125882 0.20725346855697749 0.42739315131110706 -0.2561411996253003 0.35073908645832952 -0.0024880098661890738 0.18113851359252026 -0.01858890206301957 0.22691690836820685 -0.074951407415322538 -0.23601077052648939 -0.12263786310539934 -0.11967958073029343 0.41746794650467428 -0.090768072060994937 -0.32444337050657013 0.28287619621389443 0.11899908269222646
leaf_count=992 519 166 148 242 153 733 100 313 98 264 199 679 603 540 1112 1269 480 138 292 730 107 405 101 256 112 2812 163 113 172 90 1566 114 429 782 366 646 103 369 218 190 123 115 92 154 133 86 135 81 1690 114 337 153 1310 191 82 523 111 108 187
internal_value=0 0.00947852 0.0283699 0.0655761 0.187758 -0.034267 0.0138737 0.134012 0.0135749 0.171279 0.317956 0.409762 0.0816086 0.0876345 0.0406552 0.183945 0.348667 0.418472 -0.0515803 -0.113216 0.0461018 -0.139524 -0.00588988 0.233021 -0.0762423 -0.00349469 -0.149426 -0.124841 -0.125112 0.25354 -0.0959491 -0.12441 -0.310887 0.0282608 -0.0193415 0.134199 0.475819 0.582082 0.0074023 -0.12078 -0.407318 0.0785404 0.162619 0.248542 -0.152741 0.510113 0.269934 -0.288853 -0.0990245 0.072476 -0.0288639 -0.1851 -0.170885 -0.0601954 0.46416 -0.0759371 -0.14737 0.187609 -0.0710391
internal_count=24609 23818 21138 13261 3943 7877 9318 3323 5834 3010 1142 943 1868 4381 1715 1991 722 236 4937 3027 1910 2680 1618 363 1255 5598 2755 1154 2592 272 2275 2109 543 4606 3178 1428 620 472 2390 853 313 1537 1166 918 248 375 221 791 2420 543 429 371 2043 272 182 1042 821 221 710
cat_boundaries=0 1 2 3 4 5 6 7 8 9 10 11
cat_threshold=218147008 142967204 285266017 25177156 4194432 76021812 21057556 306742528 4297028 42568020 142936384
shrinkage=0.5


Tree=15
num_leaves=60
num_cat=9
split_feature=21 23 20 4 24 16 26 25 25 26 6 11 23 20 11 6 10 26 26 6 14 27 25 26 4 25 25 26 9 2 10 25 26 26 6 12 11 10 26 18 11 26 25 10 26 17 11 17 6 16 26 6 9 9 12 4 22 23 20
split_gain=79.2061 50.1986 34.9475 36.5227 28.9556 35.8963 28.7994 54.2839 48.5184 51.1004 36.5763 31.5611 28.6566 27.6298 27.6091 27.0487 32.8148 27.7487 26.8498 26.0239 24.5691 23.6734 23.4828 24.0535 28.7984 29.2869 27.6516 26.3309 30.0382 33.2131 24.5244 23.3869 39.9123 37.334 28.266 25.5956 23.4497 22.7326 25.6974 26.3053 31.4869 25.7623 25.4759 22.0788 24.2168 21.7306 21.6429 20.8577 28.3737 30.4757 21.7989 45.3506 32.4479 24.9975 30.5907 22.6059 22.0615 21.4509 29.6167
threshold=1.5000000000000002 1.5000000000000002 5.5000000000000009 0 2.5000000000000004 8.0000000000000018 7.3000000000000016 11.500000000000002 9.5000000000000018 4.7000000000000011 1 0.41900000000000009 1.0000000180025095e-35 1.5000000000000002 0.46900000000000008 2 18.000000000000004 12.300000000000002 12.300000000000002 3 0.36650000000000005 2.5000000000000004 1.0000000180025095e-35 11.650000000000002 4 15.500000000000002 10.500000000000002 16.850000000000005 8.5000000000000018 22.000000000000004 14.500000000000002 20.500000000000004 21.300000000000001 13.650000000000002 5 2.5000000000000004 0.51450000000000007 11.500000000000002 1.7000000000000004 1.5000000000000002 0.22500000000000003 7.3000000000000016 7.5000000000000009 2.5000000000000004 -0.89999999999999991 0.63350000000000006 0.51450000000000007 0.63350000000000006 6 2.5000000000000004 21.300000000000001 7 8.5000000000000018 9.5000000000000018 2.5000000000000004 8 1.5000000000000002 4.5000000000000009 8.5000000000000018
decision_type=2 2 2 5 2 2 2 2 2 2 5 2 2 2 2 5 2 2 2 5 2 2 2 2 5 2 2 2 2 2 2 2 2 2 5 2 2 2 2 2 2 2 2 2 2 2 2 2 5 2 2 5 2 2 2 5 2 2 2
left_child=1 4 6 -4 13 -6 8 -8 9 10 -3 18 19 21 -11 16 -5 -17 -9 -2 -19 -1 43 26 30 46 37 -27 -29 -30 -25 33 34 36 -33 -36 -13 38 -24 40 45 -42 -43 -15 -45 -40 -26 48 49 -14 52 -52 55 -53 -55 -49 57 58 -57
right_child=12 2 3 15 5 -7 7 11 -10 14 -12 31 47 22 -16 17 -18 20 -20 -21 -22 -23 23 24 25 27 -28 28 29 -31 -32 32 -34 -35 35 -37 -38 -39 39 -41 41 42 -44 44 -46 -47 -48 50 -50 -51 51 53 -54 54 -56 56 -58 -59 -60
leaf_value=-0.0059525534258012824 -0.021787928324525377 -0.057614953305119343 -0.091029669454979339 0.012077504528861027 0.044943324759245423 -0.29409806174226105 0.41020745478677922 0.13097328766897626 -0.08751080050504069 0.55734345606087066 0.10727578345021802 0.19748401279420644 0.037213698720609575 -0.013148094981245823 0.17744183204815428 0.004750113119563657 -0.26871831541939173 0.23859509197016929 0.4482372992859161 -0.19671135349570518 0.050379975451685398 0.084944243356095336 -0.14663969375523589 0.050820210423392576 0.2680602379638804 -0.20580164860071853 -0.15658311135089495 0.13251949759739401 0.062232753144283046 -0.35370441273541298 0.32788298317925335 0.12429145977578381 0.20485343357804087 0.3706803928415936 0.00070560553630117241 -0.28980435494643947 -0.020212464779301824 0.19637611620278367 0.36645321515545753 -0.11474007094557356 -0.05573718594181519 0.30110589814566002 0.015682594315687227 0.039780551078729333 0.39280526620475043 0.032771841303824829 -0.0048123894650766779 0.057833144203741027 -0.044307704406968781 0.33262392759390241 -0.2324875320922187 0.26357927775546297 -0.33151128617525621 -0.19811592616692739 0.15136717651164372 -0.078759090120814668 -0.30450518769105428 0.15888987985303307 -0.40244326327378172
leaf_count=2912 340 502 710 556 3236 80 156 177 543 76 987 212 409 354 129 605 128 373 107 617 324 950 620 324 109 303 692 190 95 97 106 111 161 130 131 180 297 93 89 766 1585 101 346 110 87 108 218 239 1007 111 131 146 143 108 149 752 131 82 78
internal_value=0 0.0270774 0.098648 0.0111059 -0.0077032 0.0735276 0.15918 0.258888 0.0851004 0.168481 0.104036 0.200722 -0.120418 -0.0339695 0.636567 0.0806734 -0.0797719 0.164928 0.501012 -0.273697 0.302207 0.0328137 -0.0743132 -0.0929262 0.0191601 -0.0732034 -0.12966 -0.191464 -0.0168508 -0.295804 0.232824 0.130933 -0.0138994 0.263073 -0.175512 -0.324438 0.140918 -0.0954134 -0.107972 -0.0696112 -0.0146719 -0.0516787 0.160348 0.123033 0.39137 0.367043 0.17229 -0.0783388 0.00927403 0.196761 -0.146631 0.0256892 -0.211206 0.19196 0.00900536 -0.160808 -0.223131 -0.17015 -0.218355
internal_count=24609 20166 6595 2696 13571 3316 3899 1662 2237 1694 1489 1506 4443 10255 205 1986 684 1302 284 957 697 3862 6393 5842 1442 1012 4400 685 382 192 430 1222 583 639 422 311 509 3708 3615 2995 2229 2032 447 551 197 197 327 3486 1527 520 1959 534 1425 403 257 1282 1043 912 830
cat_boundaries=0 1 2 3 4 5 6 7 8 9
cat_threshold=285213287 122457120 528524320 503579860 16863635 142609732 54633648 234882448 273158672
shrinkage=0.5


Tree=16
num_leaves=60
num_cat=15
split_feature=22 18 24 24 13 23 12 15 26 6 11 15 26 11 4 19 15 2 3 11 4 26 26 4 15 6 23 23 19 23 4 14 13 14 26 26 12 6 15 9 26 4 23 6 4 4 15 4 1 15 6 6 4 9 11 2 23 27 12
split_gain=44.5658 34.6184 35.9542 30.3798 35.5859 29.3584 30.8048 35.7788 50.189 35.9527 36.6184 32.6426 32.8959 53.5842 27.0037 26.2801 49.6685 25.9682 24.8541 24.336 23.715 31.4305 23.5474 32.4812 65.7109 32.5182 32.5629 30.7661 22.938 22.9339 22.0442 21.1028 34.1172 23.7956 20.9173 20.4605 23.8636 24.217 20.0215 38.9714 31.3561 26.032 25.0504 23.2074 19.9518 19.9002 19.5118 27.5515 31.0284 20.5659 19.3749 19.0047 18.5934 17.1956 16.6147 18.5979 19.9107 17.672 15.6879
threshold=1.0000000180025095e-35 2.5000000000000004 1.5000000000000002 1.0000000180025095e-35 7.5000000000000009 4.5000000000000009 2.5000000000000004 6.0000000000000009 7.3000000000000016 0 0.36950000000000005 1.5000000000000002 -1.0000000180025095e-35 0.34300000000000003 1 7.5000000000000009 2.5000000000000004 16.500000000000004 1.5796944000000003e+18 0.22500000000000003 2 21.300000000000001 21.300000000000001 3 6.0000000000000009 4 2.5000000000000004 1.0000000180025095e-35 5.5000000000000009 1.5000000000000002 5 0.42750000000000005 4.5000000000000009 0.52800000000000014 24.450000000000003 9.4000000000000004 4.0000000000000009 6 1.5000000000000002 9.5000000000000018 8.6500000000000004 7 4.5000000000000009 8 9 10 2.5000000000000004 11 3.5000000000000004 6.0000000000000009 12 13 14 3.5000000000000004 0.77500000000000013 8.5000000000000018 1.5000000000000002 5.5000000000000009 1.0000000180025095e-35
decision_type=2 2 2 2 2 2 2 2 2 5 2 2 2 2 5 2 2 2 2 2 5 2 2 5 2 5 2 2 2 2 5 2 2 2 2 2 2 5 2 2 2 5 2 5 5 5 2 5 2 2 5 5 5 2 2 2 2 2 2
left_child=1 2 46 4 52 6 7 8 11 -10 -11 12 19 29 -3 16 -7 20 -9 -4 -8 51 38 24 -24 26 -25 -27 -16 50 -30 32 -29 -33 35 -19 37 -37 40 41 -5 -40 44 -42 -43 58 -1 -48 -49 -50 -14 -22 -2 -15 55 -45 -57 -58 -13
right_child=3 14 5 22 -6 15 17 18 9 10 -12 45 13 53 28 -17 -18 34 -20 -21 21 -23 23 25 -26 27 -28 31 30 -31 -32 33 -34 -35 -36 36 -38 -39 39 -41 43 42 -44 54 -46 -47 47 48 49 -51 -52 -53 -54 -55 -56 56 57 -59 -60
leaf_value=0.0067328155628683427 0.045662413092421569 0.15833098968502504 0.024751716236577532 -0.038678193506526536 -0.42362725065045415 0.36633114956846807 -0.15209478043910601 -0.33308251029423747 0.017332573666873151 0.434332411399308 0.1478326952797018 0.2460622408493098 0.26052384580017907 0.058147712641210984 -0.036913648089814122 0.4107805037450406 -0.055702007672452668 -0.20803053294115798 -0.0013017260153390412 -0.1696388708513549 0.21354433659971933 0.37363112070174381 0.47643005277592043 -0.028506122224710204 -0.07595036474546206 0.20880961001731102 0.36172843146442363 -0.24624382713701315 0.02169921179511794 0.34630591757292989 -0.25466252259594507 -0.48237784293790659 0.19912740722471892 -0.10474692104740981 -0.32234790923510803 -0.1635615079181402 -0.17535733937504974 0.10176920885484211 -0.13394529994791324 -0.33616093680171705 -0.041893274100571025 0.13503323798067868 0.18045140490505909 -0.031893240091277239 -0.050487856240660094 -0.083393579361312517 0.13415469792826723 0.19757655709399841 -0.095253622484389414 -0.31625170252406071 0.077547020148379373 -0.025774765795331923 -0.12194410306856733 -0.077854998142580428 -0.067078142543323338 0.10884815229018782 0.16693154553595546 0.46406764560379088 -0.030947029574409774
leaf_count=6584 214 111 586 2207 84 113 105 96 529 123 1196 92 228 871 665 93 182 174 137 222 106 88 121 110 97 74 104 86 101 177 291 75 86 94 81 102 170 370 657 123 363 149 145 127 1723 798 140 80 697 124 449 289 701 317 112 354 107 94 115
internal_value=0 0.0296334 0.0421954 -0.0611972 -0.224341 0.0898887 0.0758685 0.108094 0.123786 0.259278 0.346472 0.0588342 0.113478 0.181059 -0.13636 0.358042 0.211916 -0.0529451 -0.276002 -0.0573152 0.110385 0.202613 -0.0379408 0.118395 0.44106 -0.000439957 0.307894 -0.16294 -0.185178 0.372119 -0.3788 -0.293704 -0.0471164 -0.544669 -0.160011 -0.111899 -0.0294621 0.0862433 -0.0594335 -0.121951 -0.00745296 -0.0966352 -0.0393288 0.125889 -0.0705397 -0.0961258 -0.00664887 -0.133867 -0.197148 -0.257264 0.288327 0.0864025 -0.167156 0.0437149 0.220033 0.281425 0.360419 0.611781 0.175842
internal_count=24609 16602 15434 8007 999 7809 7421 5936 5703 1848 1319 3855 2850 2042 1168 388 295 1485 233 808 588 483 7008 847 218 629 214 415 1057 854 392 341 172 169 897 816 642 472 6161 2797 3364 2674 2017 1157 1872 1005 7625 1041 901 821 677 395 915 1188 794 682 555 201 207
cat_boundaries=0 1 2 3 4 5 6 7 8 9 10 11 12 13 14 15
cat_threshold=449118212 4751360 98437 21074050 96543060 86546 277350544 289996993 5081488 36 268534324 16781392 184651028 135070800 4735300
shrinkage=0.5


Tree=17
num_leaves=60
num_cat=10
split_feature=21 26 25 14 11 26 9 20 2 6 4 27 8 6 23 9 26 11 15 26 20 20 21 22 13 6 27 6 26 25 25 26 8 25 4 11 17 1 17 1 25 4 6 26 20 12 11 18 26 20 12 8 27 26 10 17 13 6 4
split_gain=43.8866 45.439 84.321 35.4526 29.115 28.5459 37.1866 32.9852 32.3161 48.1138 31.9145 32.8443 29.098 28.2074 27.4431 35.1576 35.2156 29.9099 31.6616 39.3931 37.8721 26.5597 24.9253 25.2206 31.9635 31.0042 24.5294 26.0036 21.4557 46.5962 28.0878 21.4334 22.6083 21.3047 24.4069 22.5999 21.9919 27.8556 20.6278 20.4363 20.3337 19.4866 19.0176 19.1263 18.5487 18.361 18.1299 17.7331 17.4893 21.7239 17.3507 18.9697 17.1641 17.1222 16.5773 16.1528 15.988 15.5188 15.0345
threshold=1.0000000180025095e-35 11.650000000000002 9.5000000000000018 0.18350000000000002 0.36950000000000005 24.450000000000003 9.5000000000000018 2.5000000000000004 52.500000000000007 0 1 18.500000000000004 35.235000000000007 2 1.0000000180025095e-35 12.500000000000002 24.450000000000003 0.46900000000000008 6.0000000000000009 -0.54999999999999993 1.5000000000000002 1.0000000180025095e-35 3.5000000000000004 2.5000000000000004 1.5000000000000002 3 -1.4999999999999998 4 8.3000000000000025 18.500000000000004 13.500000000000002 14.550000000000002 33.82500000000001 18.500000000000004 5 0.61250000000000016 0.91650000000000009 30.500000000000004 0.91650000000000009 46.500000000000007 16.500000000000004 6 7 7.9500000000000002 7.5000000000000009 2.5000000000000004 0.40600000000000008 1.0000000180025095e-35 2.7000000000000006 8.5000000000000018 1.0000000180025095e-35 27.240000000000006 1.0000000180025095e-35 15.850000000000003 14.500000000000002 0.6795000000000001 2.5000000000000004 8 9
decision_type=2 2 2 2 2 2 2 2 2 5 5 2 2 5 2 2 2 2 2 2 2 2 2 2 2 5 2 5 2 2 2 2 2 2 5 2 2 2 2 2 2 5 5 2 2 2 2 2 2 2 2 2 2 2 2 2 2 5 5
left_child=14 3 -3 42 -4 6 7 40 9 -7 -11 12 45 -8 -1 16 17 18 19 -16 -21 -5 23 25 -25 -9 27 -19 30 44 48 32 -27 36 -35 38 37 -33 39 -36 -6 46 43 -2 -30 -12 -23 -44 55 50 51 -50 -14 -20 -42 -22 -43 -28 -49
right_child=1 2 4 21 5 8 13 22 -10 10 11 -13 52 -15 15 -17 -18 26 53 20 28 41 -24 24 -26 31 57 -29 29 -31 -32 33 -34 34 35 -37 -38 -39 -40 -41 54 56 47 -45 -46 -47 -48 58 49 -51 -52 -53 -54 -55 -56 -57 -58 -59 -60
leaf_value=-0.0066089840590194951 0.01084743848019471 0.45609091224043435 0.1596462145080168 0.083453533202645799 0.27125838441210554 -0.25152558041736484 0.069376916089278512 -0.10252109366413528 0.37007257299021235 -0.1360598818854972 0.093041417587625047 0.40571821516468409 0.011160445535873495 -0.20826053851420379 -0.015153444114483612 -0.24476715738484722 0.31486473706061557 0.047011427801419245 -0.27257400752958094 0.23395283647964582 0.054077165309033955 0.040071185914788227 -0.21445606795159733 0.014103795099072159 -0.43869772950481428 0.0098174237627720474 -0.072951241810486178 -0.097152099690300503 0.3515266791471125 -0.024249202400150587 -0.16739155539036624 0.088116777042417369 -0.21919818052573362 -0.1156946412682316 0.34226736591451545 -0.11067747090741234 0.034165429675744638 0.43334156508780708 -0.0014375586173145519 0.021076879936130079 -0.040729637589325143 -0.041784205517765211 0.0075312935645319296 0.18640935089117683 0.12830170935730598 -0.26038495263688871 -0.10661674879527497 0.031220643899852362 0.16907556081190706 -0.08211666334342832 0.094695038279007437 0.46686227140870035 0.29249355470819866 0.034970540644192111 0.21054942773655058 -0.11924033653464793 -0.14428206130599394 0.058716251945352904 -0.1011973385675505
leaf_count=5568 730 106 286 217 152 106 117 539 86 110 73 105 82 400 873 107 118 475 101 482 603 431 162 80 76 505 252 888 240 216 133 113 137 213 154 113 180 121 147 73 191 485 1238 197 152 74 412 267 200 120 554 73 160 82 100 173 1765 1619 1077
internal_value=0 -0.0446981 0.0302692 -0.0970399 0.010187 -0.0100475 -0.0481997 -0.00623879 0.161206 0.0910815 0.200361 0.308881 0.181171 -0.296232 0.0399084 0.0795555 0.0878357 0.0789989 0.136794 0.156264 0.211552 -0.17128 -0.0490162 -0.0239069 -0.412984 0.0025402 0.00747898 -0.0945591 0.161405 0.324442 0.107996 0.067043 -0.078107 0.151295 0.0449429 0.167122 0.331117 0.533261 0.288965 0.477954 0.246081 -0.195007 -0.0270096 0.0952855 0.52994 -0.169748 -0.0624981 -0.0710105 0.142174 0.233375 0.291069 0.497407 0.394332 -0.269534 0.0912411 0.0308762 -0.243295 0.0818125 -0.150823
internal_count=24609 11580 4761 6819 4655 4369 3573 3056 796 710 604 494 389 517 13029 7461 7354 7236 4002 3819 2946 3310 2613 2451 156 2295 3234 1363 2464 608 1856 1756 642 1114 700 487 414 234 374 227 443 3093 3509 927 392 147 843 2582 1723 947 827 273 242 183 291 776 2250 1871 1344
cat_boundaries=0 1 2 3 4 5 6 7 8 9 10
cat_threshold=67438848 272633862 344032256 92801104 520430624 4739734 268440343 155748544 107552 98724
shrinkage=0.5


Tree=18
num_leaves=60
num_cat=8
split_feature=19 24 23 25 26 26 25 21 26 25 26 25 25 20 25 26 10 20 25 8 4 23 22 4 1 26 10 11 26 19 4 6 14 22 10 25 26 19 12 4 6 11 26 11 6 15 10 25 18 24 1 23 26 20 10 10 6 21 25
split_gain=33.2122 29.6559 25.9502 43.5666 51.5211 25.1476 62.5133 35.7968 40.6948 58.149 49.5829 47.9523 37.1918 33.2645 30.8395 45.2033 29.6343 29.3552 28.3718 29.206 40.2505 27.0701 26.6121 26.1709 25.9185 24.8234 24.1513 29.0914 37.5969 23.9171 23.749 23.594 37.9698 29.6305 23.4954 22.7335 27.5607 32.3009 36.672 45.2842 28.6686 46.0528 25.8174 24.0972 24.0673 23.9497 21.7074 21.0159 20.7799 19.8288 19.3175 18.8263 18.7056 26.8162 24.09 18.7038 18.5463 18.4499 18.4017
threshold=13.000000000000002 4.5000000000000009 2.5000000000000004 7.5000000000000009 3.1500000000000004 16.850000000000005 18.500000000000004 1.5000000000000002 9.8000000000000025 9.5000000000000018 5.7000000000000002 5.5000000000000009 13.500000000000002 5.5000000000000009 3.5000000000000004 2.7000000000000006 7.5000000000000009 6.5000000000000009 22.500000000000004 28.615000000000006 0 1.5000000000000002 1.0000000180025095e-35 1 30.500000000000004 1.7000000000000004 1.5000000000000002 0.14600000000000002 -1.7499999999999998 7.5000000000000009 2 3 0.52800000000000014 1.0000000180025095e-35 6.5000000000000009 33.500000000000007 6.3500000000000005 3.5000000000000004 4.0000000000000009 4 5 0.61250000000000016 21.300000000000001 0.29000000000000009 6 4.5000000000000009 2.5000000000000004 6.5000000000000009 1.5000000000000002 2.5000000000000004 18.500000000000004 3.5000000000000004 14.550000000000002 4.5000000000000009 12.500000000000002 5.5000000000000009 7 1.0000000180025095e-35 7.5000000000000009
decision_type=2 2 2 2 2 2 2 2 2 2 2 2 2 2 2 2 2 2 2 2 5 2 2 5 2 2 2 2 2 2 5 5 2 2 2 2 2 2 2 5 5 2 2 2 5 2 2 2 2 2 2 2 2 2 2 2 5 2 2
left_child=1 2 5 4 -4 6 7 8 9 10 14 17 13 49 15 26 25 -12 19 -7 -21 -22 34 24 -20 -16 -1 28 -28 -9 -8 32 33 -25 -13 36 43 40 39 56 -38 45 44 -5 -41 -42 -30 55 52 -10 -37 -2 54 -54 -14 -27 -39 -29 -18
right_child=51 -3 3 35 -6 18 30 29 12 -11 11 22 48 -15 16 -17 58 -19 23 20 21 -23 -24 31 -26 47 27 57 46 -31 -32 -33 -34 -35 -36 50 37 38 -40 42 41 -43 -44 -45 -46 -47 -48 -49 -50 -51 -52 -53 53 -55 -56 -57 -58 -59 -60
leaf_value=-0.046054904470582969 -0.3621090649070276 0.07015140211245241 0.06647253786790408 0.11550866754661346 0.3881006729234075 -0.0080168424388349837 0.053233735428183479 -0.059373668792969111 0.17466529306384518 -0.09580168639870644 0.40261448796247384 0.043059909436290345 -0.049687279655776045 0.042037424255129477 -0.20291286300812447 0.14935034680668088 0.087547247577015139 0.032694386371376019 -0.010219804319281748 0.43838576690225145 0.19600687695571326 -0.07248904331075684 -0.040885546696052925 0.18486832429034014 0.32466703012831649 -0.062030216513762788 -0.039584081292577823 0.0059258985297386242 0.057356665171383665 -0.29499553182987465 -0.21024022722135352 0.0012940636153708457 -0.45587137631852837 -0.25811819640282346 0.21953656778600242 0.0079083098162864816 -0.024698231685446735 -0.28520433285052232 -0.28178438139506257 -0.075676298937496708 0.33362480646541576 -0.088896107590518705 0.22968155276545318 -0.14493082782086525 0.090882517143742625 0.091181704086457038 0.22447288633187246 -0.15141961170969986 -0.098137237389372398 0.42709105655301322 -0.24887347251579567 -0.04978170406927044 0.37264442550943561 -0.00023249806742174457 0.15530202032638912 0.060797002856972919 -0.047430885571482354 -0.14030094861217815 -0.058042206030301247
leaf_count=2041 97 1477 451 116 172 318 103 1949 393 1823 167 591 526 508 346 525 525 79 127 112 277 142 554 75 106 1310 405 1089 358 114 536 649 85 76 277 145 233 112 104 308 322 121 217 379 683 149 425 479 364 97 148 96 94 99 197 406 293 269 370
internal_value=0 0.002957 -0.00588645 0.0678252 0.310537 -0.0212337 -0.0336064 -0.0216359 -0.00389041 -0.0270817 0.00227645 0.159987 0.118673 0.263379 -0.0284981 0.0207458 -0.101762 0.567638 0.0858188 0.223638 0.36717 0.20513 0.0894648 -0.0188396 0.272566 -0.156878 -0.0110672 0.0539006 0.168187 -0.144788 -0.340456 -0.0975377 -0.361796 -0.0761836 0.198756 0.0224169 0.0480808 0.0901184 0.0119806 0.0490898 0.25274 0.366302 0.145743 -0.167797 0.0785399 0.513857 0.296129 -0.117636 0.0058478 0.449271 -0.243594 -0.413509 0.0861671 0.362752 0.0123347 -0.0659394 -0.236947 -0.046079 0.0547189
internal_count=24609 24416 22939 3953 623 18986 17019 16380 14317 12039 10216 1668 2278 998 8548 5112 3436 246 1967 849 531 419 1422 1118 233 2541 4587 2546 1188 2063 639 885 236 151 868 3330 3037 2542 1717 1613 825 592 1208 495 991 471 783 2195 1280 490 293 193 916 193 723 1716 405 1358 895
cat_boundaries=0 1 2 3 4 5 6 7 8
cat_threshold=273174800 21053489 37126 88866992 268468823 151628048 327944356 171968544
shrinkage=0.5


Tree=19
num_leaves=60
num_cat=8
split_feature=11 20 26 11 21 26 11 10 8 14 26 15 11 10 10 9 24 21 26 26 15 6 11 8 23 26 21 15 13 6 25 4 11 26 13 16 19 21 3 6 8 6 19 11 6 4 17 6 25 8 20 17 11 27 24 26 13 25 26
split_gain=36.0398 33.8801 36.9142 39.6666 34.0897 31.3504 41.5161 32.9747 26.3207 22.8936 21.1739 24.8161 22.3432 21.7014 20.8856 20.8476 23.3088 34.9814 22.6999 20.7359 42.2744 23.7256 23.0107 40.4346 38.5327 30.4211 20.3039 19.7221 19.6052 19.3434 29.3492 21.113 27.1076 28.6448 27.0085 27.8926 25.1786 42.1527 27.3277 23.8126 21.8774 20.1752 19.8296 19.1696 18.8633 18.3775 18.0156 17.7494 17.7452 17.3218 17.3056 16.5101 16.0263 16.0032 15.9857 15.704 24.8849 24.3777 19.1152
threshold=0.73850000000000005 3.5000000000000004 3.9000000000000004 0.29000000000000009 1.0000000180025095e-35 4.7000000000000011 0.26150000000000007 5.5000000000000009 28.615000000000006 0.18350000000000002 0.45000000000000001 1.5000000000000002 0.29000000000000009 1.0000000180025095e-35 4.5000000000000009 1.5000000000000002 1.5000000000000002 1.0000000180025095e-35 3.9000000000000004 13.650000000000002 2.5000000000000004 0 0.43650000000000005 28.145000000000003 3.5000000000000004 8.3000000000000025 1.0000000180025095e-35 4.5000000000000009 9.5000000000000018 1 13.500000000000002 2 0.40600000000000008 24.450000000000003 5.5000000000000009 3.5000000000000004 4.5000000000000009 1.5000000000000002 1.5829776000000003e+18 3 36.225000000000001 4 5.5000000000000009 0.58100000000000007 5 6 0.6795000000000001 7 28.000000000000004 30.740000000000006 7.5000000000000009 0.63350000000000006 0.26150000000000007 1.0000000180025095e-35 1.0000000180025095e-35 14.550000000000002 6.5000000000000009 15.500000000000002 7.9500000000000002
decision_type=2 2 2 2 2 2 2 2 2 2 2 2 2 2 2 2 2 2 2 2 2 5 2 2 2 2 2 2 2 5 2 5 2 2 2 2 2 2 2 5 2 5 2 2 5 5 2 5 2 2 2 2 2 2 2 2 2 2 2
left_child=1 2 9 8 45 -3 7 -7 -4 10 52 12 13 -12 -13 18 17 -17 -2 20 22 -22 24 -24 -8 -25 -15 -9 47 -21 -31 34 40 41 39 -36 -35 43 -39 -32 -33 53 -37 -38 -27 51 -41 -6 -43 -23 -51 -5 -1 -34 -49 57 -57 58 -47
right_child=15 5 3 4 28 6 19 27 -10 -11 11 14 -14 26 -16 16 -18 -19 -20 29 21 49 23 25 -26 44 -28 -29 -30 30 31 32 33 36 35 42 37 38 -40 46 -42 48 -44 -45 -46 55 -48 54 -50 50 -52 -53 -54 -55 -56 56 -58 -59 -60
leaf_value=0.0014755261927599868 -0.022685072461428434 -0.064906444976034455 0.14216185954591792 0.10557711582657868 0.093020672656380671 -0.082095693156275878 0.025199580286863199 0.36590650010046111 0.47265894101223066 -0.055363025159846542 0.036939291641049622 -0.13559069198224907 0.03467776567370439 0.35034518796339553 0.087454924721069721 -0.068133452400979025 -0.039624210963334322 -0.29869994782814896 0.24202451899182051 -0.051604152178021237 0.086681190303756414 -0.083897095180015327 0.014129286180189977 -0.32788375296419664 0.34695426844991745 0.096675114808022045 0.1247041385818904 0.064953837037822343 -0.14032702240170819 0.24442567812554813 -0.02561258429341251 0.036420365331448719 0.1683757975180116 0.30287262394362802 0.16584193558647617 0.048153765960020967 0.049626067170273451 -0.32944790212456715 0.069498636000850184 0.40347773212371235 0.34361168780584928 -0.064233565541544316 -0.26739674944335812 0.3579644420268861 -0.12393157343859247 0.095770286425128553 0.16226026097105609 -0.11497370898173276 -0.27622669313205489 -0.1491197620240359 -0.37268259435067658 -0.066444317083673696 -0.13122433278150855 -0.034672009474347724 0.01639100624309172 0.47747153213295418 0.082974730819753345 -0.046860572935469698 0.24424085068296533
leaf_count=2531 426 2316 213 276 631 93 1339 166 84 1427 224 260 782 189 176 426 1075 268 100 754 134 653 1427 155 100 118 211 81 202 162 118 144 162 107 134 89 118 97 77 118 97 1046 113 88 432 721 225 275 109 298 122 282 250 242 1467 78 82 209 310
internal_value=0 0.0120941 0.0520397 0.117231 0.0940339 -0.025916 0.00047417 0.343334 0.471272 -5.23921e-06 0.0341714 0.117328 0.181963 0.323084 -0.0911079 -0.119507 -0.171478 -0.314341 0.0552799 -0.0128059 -0.0572762 -0.219068 -0.0025904 -0.0685392 0.0951184 -0.264469 0.462639 0.534427 0.018414 0.0403139 0.0737428 0.0521766 0.00289348 -0.0344591 0.19116 -0.0220674 0.177245 0.0565879 -0.305805 0.350718 0.320123 -0.100591 -0.256734 0.362687 -0.154194 0.193483 0.476595 0.043872 -0.167034 -0.267202 -0.428119 0.0366267 -0.0209072 0.0912379 -0.00864402 0.253926 0.550584 0.217695 0.280825
internal_count=24609 22314 10880 4830 4533 11434 9118 340 297 6050 4623 1842 1406 624 436 2295 1769 694 526 8778 4778 1207 3571 2132 1439 705 400 247 2575 4000 3246 3084 2287 2046 797 336 487 380 174 461 241 1559 202 206 550 1958 343 2373 1155 1073 420 558 2781 404 1742 1400 160 1240 1031
cat_boundaries=0 1 2 3 4 5 6 7 8
cat_threshold=68608 8955920 273256577 67371332 319030276 134753536 285327889 289964240
shrinkage=0.5


Tree=20
num_leaves=60
num_cat=10
split_feature=23 17 24 16 6 12 26 12 18 26 19 26 11 9 25 24 11 1 22 10 20 6 6 13 14 6 21 25 25 26 26 27 27 4 23 27 11 27 6 3 25 27 6 2 20 26 6 11 23 18 11 27 26 6 4 10 25 26 13
split_gain=40.4747 35.4627 28.6707 30.7097 30.3014 24.1538 22.3717 27.5596 22.2613 21.8287 28.4151 29.76 38.9847 35.1724 26.237 25.3769 22.4166 22.0034 21.2279 20.9882 22.5201 20.8297 19.7968 27.393 22.49 19.6758 19.041 17.9362 17.1218 20.5241 17.0511 16.7276 16.7131 18.3647 16.3995 16.0671 15.8084 15.4826 15.227 19.3785 15.1724 21.3739 20.7598 15.9347 14.7798 14.5723 13.5646 13.5386 13.4518 13.0891 13.0622 12.739 12.2685 12.2599 16.1316 13.6083 17.1065 13.351 12.1722
threshold=1.0000000180025095e-35 0.76400000000000012 1.5000000000000002 5.5000000000000009 0 2.5000000000000004 12.300000000000002 4.0000000000000009 1.0000000180025095e-35 0.85000000000000009 7.5000000000000009 11.650000000000002 0.51450000000000007 6.5000000000000009 2.5000000000000004 4.5000000000000009 0.14600000000000002 59.500000000000007 1.0000000180025095e-35 12.500000000000002 3.5000000000000004 1 2 9.5000000000000018 0.52800000000000014 3 1.0000000180025095e-35 15.500000000000002 4.5000000000000009 7.3000000000000016 24.450000000000003 6.5000000000000009 -7.4999999999999991 4 3.5000000000000004 -3.4999999999999996 0.46900000000000008 5.5000000000000009 5 1.5770592000000003e+18 13.500000000000002 8.0000000000000018 6 11.500000000000002 8.5000000000000018 2.7000000000000006 7 0.46900000000000008 2.5000000000000004 1.5000000000000002 0.65500000000000014 -13.999999999999998 8.3000000000000025 8 9 6.5000000000000009 7.5000000000000009 9.4000000000000004 4.5000000000000009
decision_type=2 2 2 2 5 2 2 2 2 2 2 2 2 2 2 2 2 2 2 2 2 5 5 2 2 5 2 2 2 2 2 2 2 5 2 2 2 2 5 2 2 2 5 2 2 2 5 2 2 2 2 2 2 5 5 2 2 2 2
left_child=8 5 30 6 31 9 40 25 -1 16 11 13 -13 14 49 21 -2 27 -18 26 -21 -12 23 37 44 -8 28 -14 -16 36 35 -5 51 -34 45 38 -30 -7 39 -3 42 43 48 -42 52 -28 -37 -15 -4 -11 -29 -6 -24 -10 58 -56 -57 -58 -55
right_child=1 2 3 4 32 22 7 -9 53 10 15 12 17 47 19 -17 18 -19 -20 20 -22 -23 24 -25 -26 -27 34 50 29 -31 -32 -33 33 -35 -36 46 -38 -39 -40 -41 41 -43 -44 -45 -46 -47 -48 -49 -50 -51 -52 -53 -54 54 55 56 57 -59 -60
leaf_value=-0.0063797015840183222 0.050418849060354834 0.29652493482894526 0.077508321554915077 0.00055772423997077329 -0.064359561215306435 0.036084902948201741 -0.063769329482056492 -0.11894999043518351 -0.098075185585017585 0.23523721864645475 0.13744009685590222 0.30429676083745466 0.1681486962859059 -0.025439473191419475 0.17665909734280827 0.17676695427772673 -0.023378025932178904 0.3300510142587974 -0.21980508974582486 0.35827844726336144 0.079717351310384307 -0.093915221674935906 -0.083938213235630499 -0.15339179072463144 -0.13067326722309075 0.15417533885736218 -0.11407055065760183 0.052208855698138407 0.0791208347386992 0.15979290968971327 0.083398368450648644 0.27011580512888972 -0.23779647794924677 -0.02800914453204199 0.17430889161491295 -0.0075230925586711392 -0.036150196864175907 0.23607338120398874 -0.076192752832587127 -0.016846542010662723 -0.20341982149038013 -0.31565651137240325 -0.0083240489067672261 0.043011692236673005 -0.18764380239292808 0.012008733194052471 -0.14931262311541776 -0.3155635693447148 0.30228500705463496 0.015370671990616569 -0.14788013001478564 -0.30919386333243237 0.076288647470011545 -0.069971468383799626 -0.053677276504038585 0.1950868322304122 -0.1114335171980681 0.047880641358878998 -0.24290985473059118
leaf_count=5031 933 74 264 151 86 215 118 131 1242 305 106 291 199 78 347 132 739 79 169 109 217 649 164 113 547 780 270 228 604 352 170 93 115 687 134 224 586 176 406 148 91 79 1046 235 87 1516 827 83 89 87 127 139 440 547 831 142 182 474 125
