tree
version=v2
num_class=1
num_tree_per_iteration=1
label_index=0
max_feature_idx=21
objective=regression
feature_names=Player Tm Opp Mins FG FGA FGPct 3P 3PA 3PPct FT FTA FTPct ORB TotRBs STL BLK TOV PFouls PTS GmSc +/-
feature_infos=340:157 22:25:3:6:17:19:5:18:27:0:1:4:10:14:21:24:28 24:1:3:17:27:8:12:28:29:0:5:23:4:7:14:15:18:22:26 [0.46000000000000002:41.060000000000002] [0:12] [0:21] [0:1] [0:4] [0:13] [0:1] [0:11] [0:14] [0:1] [0:6] [0:16] [0:4] [0:3] [0:8] [0:6] [0:33] [-2.1000000000000001:28.600000000000001] [-24:31]
tree_sizes=3109 3187 3215 3195 3299 3222 3232 3270 3267 3257 3248 3239 3262 3264 3259 3251 3282 3292 3280 3280 3267 3286 3264 3282 3266 3264 3292 3274 3255 3284 3281 3295 3326 3239 3279 3286 3280 3275 3280 3303 3307 3278 3246 3244 3262 3254 3287 3275 3288 3288 3256 3292 3187 3250 3283 3247 3292 3270 3281 3296 3313 3292 3255 3258 3239 3266 3296 3244 3290 3279 3246 3215 3264 3254 3317 3270 3232 3262 3328 3249 3212 3319 3258 3261 3252 3254 3250 3238 3246 3247 3266 3276 3215 3291 3282 3246 3287 3239 3306 3268

Tree=0
num_leaves=40
num_cat=0
split_feature=3 20 3 17 17 20 6 20 6 6 3 20 6 6 20 20 20 19 20 6 6 20 17 17 20 19 13 19 20 20 13 7 17 20 13 13 17 19 19
split_gain=121330 32864.6 21687.6 13011.2 9240.21 4122.71 4019.1 3441.09 4433.42 3255.01 3121.82 2603.6 3950.52 2010.49 1888.33 1852.76 1528.54 1408.75 1299.44 1205.65 1196.43 1219.27 1177.05 1077.42 956.47 878.953 901.098 817.508 816.815 796.11 792.638 971.041 784.852 770.68 714.295 682.77 667 660.791 654.803
threshold=27.695000000000004 18.800000000000004 17.355000000000004 2.5000000000000004 2.5000000000000004 8.1500000000000004 0.52250000000000008 9.9000000000000021 0.46550000000000008 0.52250000000000008 8.2600000000000016 8.7500000000000018 0.46550000000000008 0.44950000000000007 27.050000000000004 27.050000000000004 17.300000000000001 27.500000000000004 14.300000000000002 0.38200000000000006 0.40600000000000008 6.6000000000000005 1.5000000000000002 5.0000000000000009 27.050000000000004 23.500000000000004 2.5000000000000004 12.500000000000002 23.350000000000005 23.350000000000005 1.5000000000000002 3.5000000000000004 1.5000000000000002 2.7000000000000006 3.5000000000000004 2.5000000000000004 3.5000000000000004 15.000000000000002 27.500000000000004
decision_type=2 2 2 2 2 2 2 2 2 2 2 2 2 2 2 2 2 2 2 2 2 2 2 2 2 2 2 2 2 2 2 2 2 2 2 2 2 2 2
left_child=2 3 10 11 6 22 24 20 19 17 -1 -2 18 -7 30 38 32 29 27 -9 21 -5 -4 -21 25 26 -3 -13 -19 36 31 -8 -15 -12 -10 -16 -6 -20 -11
right_child=1 4 5 7 9 13 14 8 34 15 33 12 -14 16 35 -17 -18 28 37 23 -22 -23 -24 -25 -26 -27 -28 -29 -30 -31 -32 -33 -34 -35 -36 -37 -38 -39 -40
leaf_value=1.5663529703363563 2.3488134274781967 4.6685570409442203 2.0635405755907232 2.8603569062725116 4.4846101694790086 2.8197121763997144 3.4473935453702205 4.4147026658384849 3.2052240362532465 3.9332297843761834 1.7687989883369641 3.2048964136903151 2.4740963404158856 2.2267217237643964 3.9232105076420392 4.4529646616816478 2.7843398318596968 3.9935595325486117 4.0706925491878945 3.5753819592090039 2.5402333475899885 3.5678871342330343 2.2983695951992531 4.7981607697351594 4.7429547003840611 3.5505850351719119 3.334390347243871 2.7354705782977327 4.7500131454880288 6.4203603193019774 2.6526800773569192 2.7194695062686867 2.5044077150950161 1.951351152771569 2.4263670377437192 3.0467074906759146 5.6309464497330222 3.2425828181846432 3.3543105272350182
leaf_count=8953 4764 286 9758 1052 159 2108 705 680 1759 639 6993 835 4870 5107 518 727 1305 353 186 911 853 619 5254 132 211 720 113 2053 647 89 926 502 2391 7858 211 196 166 901 612
internal_value=0 1.68988 -0.930969 1.01313 3.46255 -0.298132 2.46687 2.2117 2.82675 4.68865 -1.62014 0.465584 0.786589 0.169642 1.79643 3.8604 -0.0404162 5.84726 1.52632 3.99833 1.31178 1.80369 -0.638119 3.3229 3.90203 3.53379 4.72434 1.17555 5.20502 7.39854 1.32523 1.85917 -0.214259 -1.33896 1.80207 3.20407 6.67287 2.45827 3.12261
internal_count=77122 27395 49727 19826 7569 25923 4177 6217 3693 3392 23804 13609 8845 10911 2847 1978 8803 1414 3975 1723 2524 1671 15012 1043 1330 1119 399 2888 1000 414 2133 1207 7498 14851 1970 714 325 1087 1251
shrinkage=1


Tree=1
num_leaves=40
num_cat=2
split_feature=20 3 17 6 17 20 3 6 6 20 6 1 20 13 19 1 17 12 13 6 13 19 20 3 20 19 6 20 19 20 19 14 13 19 20 6 6 20 20
split_gain=46615.6 13517.8 10488.2 4509.2 3883.37 3081.92 2612.64 1888.44 1806.48 3089.98 1786.85 1533.44 1476.85 1371.37 1451.52 1268.93 1200.78 1058.14 1047.16 940.231 910.066 889.165 861.784 759.901 740.984 948.529 720.817 989.082 692.141 651.092 838.683 711.092 650.162 901.017 814.097 644.49 602.258 634.479 565.579
threshold=13.65 21.255000000000003 1.5000000000000002 0.46550000000000008 3.5000000000000004 23.350000000000005 12.785000000000002 0.60750000000000004 0.43650000000000005 4.4500000000000002 0.27250000000000008 0 23.350000000000005 2.5000000000000004 12.500000000000002 1 3.5000000000000004 0.76800000000000013 5.5000000000000009 0.40600000000000008 2.5000000000000004 23.500000000000004 9.9000000000000021 39.820000000000007 27.050000000000004 18.500000000000004 0.38200000000000006 7.0500000000000007 23.500000000000004 8.7500000000000018 10.500000000000002 4.5000000000000009 3.5000000000000004 17.500000000000004 17.300000000000001 0.63950000000000007 0.24050000000000002 1.9500000000000002 1.9500000000000002
decision_type=2 2 2 2 2 2 2 2 2 2 2 5 2 2 2 5 2 2 2 2 2 2 2 2 2 2 2 2 2 2 2 2 2 2 2 2 2 2 2
left_child=1 6 7 11 8 13 -1 12 9 36 -11 -4 19 14 -5 -7 35 28 21 -2 22 -17 -12 -23 25 -19 27 -6 -13 -10 31 -31 33 34 -21 -16 37 -3 -8
right_child=2 4 3 5 26 15 38 -9 29 10 20 17 -14 -15 16 18 -18 24 -20 32 -22 23 -24 -25 -26 -27 -28 -29 -30 30 -32 -33 -34 -35 -36 -37 -38 -39 -40
leaf_value=-0.47025307421229745 0.75629023325171463 -0.15110949071784779 0.55022550323679131 2.4287807260240832 0.43951964592500731 0.38856276630408026 -0.35606664653408304 -0.0066552821402257314 -0.2842276407410036 0.67687036035560733 0.1183239656020285 2.3572310430138077 0.9314464123460694 0.11166588704569147 0.55945445944086947 2.3935244248973002 0.91971088253631383 1.9048690283470906 -0.088736735014839377 0.46098620551478114 -0.22292524339993097 1.0978901879177871 0.44336241306969371 1.8427906461348831 2.1426009386161282 1.0279639096187307 0.30547408369812956 1.1847542618096403 1.4877881195960048 0.66183676131107105 -0.14216560674944739 0.022306611159921209 -0.25886906587439984 0.13790371384778363 1.5548592891693116 0.11122554068132647 -0.27698383138829585 0.28023226534758255 -0.19676502244418748
leaf_count=14577 614 1689 395 70 771 399 4957 3196 3464 1202 5017 292 690 1068 1866 108 1207 242 94 843 911 1454 1764 258 145 1070 1572 452 294 398 5171 924 402 2162 125 708 3038 806 12707
internal_value=0 -0.424347 1.4244 2.12592 0.0951383 1.72943 -0.862271 0.579819 -0.0328369 0.193284 0.558308 3.30203 0.974003 1.28179 1.55985 2.68142 1.47632 3.6499 3.01706 0.748561 0.381123 3.20092 0.507198 3.02537 3.21135 2.97428 1.21161 1.78736 4.80256 -0.36047 -0.173693 0.537107 0.550008 0.703767 1.5056 1.09041 -0.393473 -0.0294156 -0.603674
internal_count=77122 59420 17702 9670 27179 7232 32241 8032 24384 14427 8894 2438 4836 4919 3851 2313 3781 2043 1914 4146 7692 1820 6781 1712 1457 1312 2795 1223 586 9957 6493 1322 3532 3130 968 2574 5533 2495 17664
cat_boundaries=0 1 2
cat_threshold=6946858 139198522
shrinkage=0.4


Tree=2
num_leaves=40
num_cat=0
split_feature=20 3 16 17 6 17 19 3 17 13 7 20 19 17 19 13 20 19 20 19 20 12 13 13 16 19 20 6 19 6 6 7 20 6 20 20 19 20 20
split_gain=17802.2 6289.6 3621.86 2587.18 2513.97 1701.76 1730.16 1570.01 1427.26 1242.22 1047.68 1395.26 1904.4 1011.67 868.867 840.181 824.137 836.035 771.835 1028.6 688.869 845.203 676.763 668.089 662.331 654.039 651.1 908.201 618.99 561.1 473.903 452.659 655.13 648.457 435.916 429.331 425.349 409.896 384.974
threshold=16.150000000000002 24.345000000000002 1.5000000000000002 1.5000000000000002 0.44950000000000007 1.5000000000000002 17.500000000000004 14.800000000000002 5.0000000000000009 1.5000000000000002 2.5000000000000004 7.0500000000000007 9.5000000000000018 5.0000000000000009 21.500000000000004 1.5000000000000002 27.050000000000004 19.500000000000004 23.350000000000005 27.500000000000004 18.800000000000004 0.76800000000000013 1.5000000000000002 1.5000000000000002 1.0000000180025095e-35 27.500000000000004 3.6000000000000001 0.34850000000000003 23.500000000000004 0.2970000000000001 0.2970000000000001 2.5000000000000004 6.6000000000000005 0.34850000000000003 -1.0000000180025095e-35 1.0000000180025095e-35 4.5000000000000009 23.350000000000005 9.9000000000000021
decision_type=2 2 2 2 2 2 2 2 2 2 2 2 2 2 2 2 2 2 2 2 2 2 2 2 2 2 2 2 2 2 2 2 2 2 2 2 2 2 2
left_child=1 7 4 24 14 16 -7 35 9 10 11 29 -13 18 -2 -4 17 23 28 -20 -16 37 26 -6 31 -18 30 36 -8 -5 34 32 -3 -34 -9 -1 -28 -22 -29
right_child=2 3 15 8 5 6 13 22 -10 -11 -12 12 -14 -15 20 -17 25 -19 19 -21 21 -23 -24 -25 -26 -27 27 38 -30 -31 -32 -33 33 -35 -36 -37 -38 -39 -40
leaf_value=-0.35240583469329367 1.4790707541551713 -0.088366695501308545 0.26862581101294353 0.3382667406689614 0.76610164015853244 1.5646417215623354 0.57501045224328462 -0.23667647632476987 0.77881457914269092 -0.04267478486914722 0.0038246545119481404 1.4671262279796444 0.41416335036742347 1.0848372696052726 0.35304492255117198 -0.20650979497861038 1.8827228538904874 0.031922844392313084 1.3838519907028943 0.55108579983841233 1.3807002199846403 0.81130667382591892 -0.24090236785749686 0.12081292857443482 -0.17676105315326643 0.54764421474147629 0.64592030389290878 -0.11421816185272737 0.16829267720897134 -0.023325466247699416 -0.30123232519645815 -0.16991796635809364 0.5627347183492214 0.10181799282314322 0.026935672814724476 -0.22357021597353302 0.15518912838999663 2.7022237741521429 0.070708374636799132
leaf_count=6342 442 2563 1044 1175 560 285 1040 1734 662 3072 2012 301 3160 503 352 1386 70 2130 286 1394 114 632 4894 474 4433 364 363 6210 1411 1652 2639 1642 582 3036 2383 11911 1276 56 2537
internal_value=0 -0.211618 1.09029 0.190307 1.35369 1.13786 1.52016 -0.453936 0.519666 0.436574 0.637646 0.838618 1.26435 1.37308 2.50547 -0.00594365 0.615211 0.437957 1.21004 1.73214 2.04883 2.56069 -0.274273 1.17573 -0.133086 1.90745 -0.180635 -0.0234492 0.852174 0.317412 -0.422277 0.0419091 0.16589 0.439905 -0.210232 -0.670835 0.659686 4.54006 -0.151454
internal_count=77122 64579 12543 24290 10113 8517 4919 40289 12034 11372 8300 6288 3461 4634 1596 2430 3598 3164 4131 1680 1154 802 22036 1034 12256 434 17142 10386 2451 2827 6756 7823 6181 3618 4117 18253 1639 170 8747
shrinkage=0.4


Tree=3
num_leaves=40
num_cat=3
split_feature=20 6 20 19 17 1 13 6 20 6 17 17 1 13 14 20 19 19 3 13 19 3 20 19 5 12 20 7 19 14 16 17 1 20 19 11 17 13 20
split_gain=7469.33 3521.98 2126.82 2517.85 2080.18 1543.04 1412.26 1283.56 1754.17 1814.97 1187.73 922.22 864.227 736.206 713.696 797.332 1146.03 702.3 689.976 672.009 825.715 634.626 626.987 596.373 714.479 587.728 602.855 553.406 543.52 532.903 492.517 490.493 451.795 420.668 418.852 345.027 339.062 333.335 328.354
threshold=11.350000000000001 0.60750000000000004 18.800000000000004 15.000000000000002 1.0000000180025095e-35 0 1.5000000000000002 0.52250000000000008 1.9500000000000002 0.2970000000000001 3.5000000000000004 2.5000000000000004 1 1.0000000180025095e-35 5.5000000000000009 5.2000000000000002 10.500000000000002 12.500000000000002 37.225000000000009 3.5000000000000004 23.500000000000004 39.820000000000007 23.350000000000005 19.500000000000004 14.500000000000002 0.63350000000000006 8.1500000000000004 3.5000000000000004 23.500000000000004 4.5000000000000009 1.0000000180025095e-35 2.5000000000000004 2 16.150000000000002 23.500000000000004 8.5000000000000018 5.0000000000000009 1.0000000180025095e-35 18.800000000000004
decision_type=2 2 2 2 2 5 2 2 2 2 2 2 5 2 2 2 2 2 2 2 2 2 2 2 2 2 2 2 2 2 2 2 5 2 2 2 2 2 2
left_child=4 2 3 6 -1 34 11 8 -6 25 23 17 18 27 15 -11 -17 -2 -7 20 22 -22 -14 24 37 26 29 38 36 -10 31 -8 -15 -19 -4 -20 -12 -5 -3
right_child=1 13 5 10 7 12 30 -9 9 14 28 -13 19 32 -16 16 -18 33 35 -21 21 -23 -24 -25 -26 -27 -28 -29 -30 -31 -32 -33 -34 -35 -36 -37 -38 -39 -40
leaf_value=-0.17649651494287105 0.99564569762690747 0.14197951023720884 0.48194878700271471 0.15639805298482587 -0.12293085210291295 0.82565993899387302 0.31017570658163596 -0.17991392989050259 0.75980239218807633 -0.050606147145189989 0.45520648049906332 1.462772234562224 0.84147392307858804 -0.39908300148217835 -0.114634009115723 0.41941790547367958 0.044034081214455893 0.37008534416262617 1.2487418004444668 0.041891231831807395 0.40265918166787779 0.93203886090745558 2.0313380465656521 -0.15274551060538782 0.40626880872084509 0.21787988096577238 1.7521454405970873 -0.13630038714243681 0.083314218089849068 0.2625123016881829 -0.010908075182120086 1.317487326645189 -0.074995341304386981 1.3681706824236448 -0.096565702474125145 2.4712253191101721 1.0717546304510959 -0.1537749048063454 0.51198014595754626
leaf_count=22201 506 1210 272 982 8568 404 550 6160 651 3748 704 226 620 821 3782 2117 3377 1097 77 399 2220 433 80 2828 880 2016 64 831 586 733 866 90 4107 72 759 71 179 1273 562
internal_value=0 0.467239 0.730261 0.475854 -0.207243 1.24713 1.1877 -0.0408214 0.059722 0.250459 0.149526 1.76075 1.5088 -0.0976402 0.0793522 0.229101 0.471701 1.50491 2.69207 1.32802 1.47756 1.22265 2.44365 -0.0488933 0.25147 0.89379 1.37982 0.332561 0.954955 1.24106 0.464349 1.12957 -0.324875 1.0789 0.138801 4.58801 1.45048 -0.0467545 0.648318
internal_count=77122 23705 16174 10839 53417 5335 3407 31216 25056 16488 7432 1901 4304 7531 13024 9242 5494 1675 552 3752 3353 2653 700 5963 3135 3464 1448 2603 1469 1384 1506 640 4928 1169 1031 148 883 2255 1772
cat_boundaries=0 1 2 3
cat_threshold=40501290 64 151520257
shrinkage=0.4


Tree=4
num_leaves=40
num_cat=1
split_feature=17 3 16 21 17 21 14 16 7 20 19 19 16 20 19 17 19 20 6 6 20 20 19 16 20 19 20 16 6 20 6 5 0 19 12 21 13 19 20
split_gain=3815.57 1659.62 1007.51 828.555 737.783 722.865 642.637 623.701 648.399 551.605 723.523 536.942 446.768 619.22 1145.07 545.435 452.435 419.83 565.038 413.698 395.836 377.455 466.355 374.701 391.533 486.396 373.775 353.246 337.638 327.159 316.7 309.808 282.587 281.955 278.893 269.066 262.811 254.058 296.365
threshold=1.5000000000000002 33.775000000000006 1.0000000180025095e-35 13.000000000000002 5.0000000000000009 11.500000000000002 8.5000000000000018 1.5000000000000002 3.5000000000000004 17.300000000000001 19.500000000000004 19.500000000000004 1.5000000000000002 6.6000000000000005 8.5000000000000018 1.0000000180025095e-35 7.5000000000000009 -1.0000000180025095e-35 0.34850000000000003 0.60750000000000004 9.9000000000000021 3.9500000000000006 3.5000000000000004 1.0000000180025095e-35 23.350000000000005 27.500000000000004 13.050000000000002 2.5000000000000004 0.46550000000000008 13.050000000000002 0.38200000000000006 7.5000000000000009 0 12.500000000000002 0.69050000000000022 16.500000000000004 1.0000000180025095e-35 4.5000000000000009 0.65000000000000013
decision_type=2 2 2 2 2 2 2 2 2 2 2 2 2 2 2 2 2 2 2 2 2 2 2 2 2 2 2 2 2 2 2 2 5 2 2 2 2 2 2
left_child=3 2 5 12 7 17 -6 8 9 11 -11 29 13 16 20 -16 21 -2 34 -12 28 37 -23 24 -5 -26 33 32 -15 -3 -28 -24 -4 -17 -19 -34 -20 38 -1
right_child=1 4 27 23 6 -7 -8 -9 -10 10 19 -13 -14 14 15 26 -18 18 36 -21 -22 22 31 -25 25 -27 30 -29 -30 -31 -32 -33 35 -35 -36 -37 -38 -39 -40
leaf_value=-0.14562186707250083 -0.10761335306528091 0.26895009540378828 1.0215470005571843 0.13960423219483517 0.33059027517549838 0.34860697369055932 1.0197013829819657 -0.049125471786323031 0.049318067120873506 1.3455547636445564 0.55572588082631025 -0.041539662329640542 -0.22085484695683327 0.40051862547943395 -0.14594710656476514 0.038673079705576846 -0.25966408595513779 0.43043440081390882 0.13998333066871221 0.068522798122853792 0.68236712633074625 0.35717789922380278 -0.071218917944111323 -0.043722038241608592 1.4161376684569242 0.19056593333521199 0.61886956441096774 -0.34060814427522779 0.069097848387884325 0.66606364264485562 0.091832394939713957 0.30683557513596804 -0.073423481199543048 -0.17427099354157596 0.1478275527589139 0.21348117629323027 -0.016671767106748007 -0.2283895654919102 -0.036584574154486335
leaf_count=8802 1584 1583 40 2733 522 1927 370 1082 1466 158 1274 766 3465 753 5813 2135 2833 1126 3300 357 289 554 3582 2009 89 124 195 689 1418 420 2829 384 5322 1863 1109 580 3564 2720 7293
internal_value=0 0.300986 0.141844 -0.164383 0.683838 0.30778 1.54108 0.57623 0.701789 0.887851 1.32065 0.60823 -0.207183 -0.178356 -0.0185096 -0.138297 -0.271785 0.206093 0.288806 1.12271 0.606479 -0.22597 0.0335151 0.223697 0.450785 1.75665 0.0492643 -0.173714 0.460124 0.880548 0.314545 -0.0865364 -0.095119 -0.151388 0.725514 -0.113072 0.146608 -0.288306 -0.240537
internal_count=77122 27239 19241 49883 7998 12610 892 7106 6024 4558 1789 2769 44928 41463 15295 12835 26168 10683 9099 1631 2460 23335 4520 4955 2946 213 7022 6631 2171 2003 3024 3966 5942 3998 2235 5902 6864 18815 16095
cat_boundaries=0 11
cat_threshold=0 0 0 0 0 0 0 0 0 0 1048576
shrinkage=0.4


Tree=5
num_leaves=40
num_cat=2
split_feature=17 13 20 6 7 20 10 6 1 6 20 10 10 10 20 9 8 2 6 20 15 20 7 14 15 6 13 20 20 19 19 20 7 14 9 20 19 19 7
split_gain=1842.53 967.654 1404.5 1820.2 1152.55 1042.75 791.011 884.65 758.206 721.384 766.078 684.88 584.813 491.03 464.842 434.178 432.55 465.229 410.079 373.202 354.733 327.115 319.79 317.971 314.348 308.089 296.849 316.942 290.214 288.405 281.137 270.58 403.822 301.628 343.505 283.926 396.225 320.235 268.258
threshold=3.5000000000000004 2.5000000000000004 7.0500000000000007 0.34850000000000003 2.5000000000000004 17.300000000000001 2.5000000000000004 0.52250000000000008 0 0.34850000000000003 1.4000000000000001 1.5000000000000002 3.5000000000000004 2.5000000000000004 14.300000000000002 0.18350000000000002 1.0000000180025095e-35 1 0.63950000000000007 23.350000000000005 2.5000000000000004 13.050000000000002 3.5000000000000004 4.5000000000000009 2.5000000000000004 0.60750000000000004 5.5000000000000009 27.050000000000004 3.9500000000000006 27.500000000000004 17.500000000000004 27.050000000000004 3.5000000000000004 8.5000000000000018 0.36650000000000005 14.300000000000002 19.500000000000004 17.500000000000004 1.0000000180025095e-35
decision_type=2 2 2 2 2 2 2 2 5 2 2 2 2 2 2 2 2 5 2 2 2 2 2 2 2 2 2 2 2 2 2 2 2 2 2 2 2 2 2
left_child=1 2 9 12 5 6 7 -5 30 10 -1 15 21 25 -14 28 -10 -18 -15 20 22 24 -6 -8 38 -7 27 -3 -12 -21 -2 32 35 -33 -35 37 -37 -19 -4
right_child=8 26 3 4 19 13 23 -9 16 -11 11 -13 14 18 -16 -17 17 31 -20 29 -22 -23 -24 -25 -26 -27 -28 -29 -30 -31 -32 33 -34 34 -36 36 -38 -39 -40
leaf_value=-0.070559584943276271 0.12020788447774738 -0.14440993929026932 1.1035521971800972 0.26613436831365028 -0.01379297864434386 0.99830378746613868 0.0099581823657137799 0.015260933991833715 -0.10218371568841622 -0.12657596947654168 0.21559685017594066 -0.055212199935070087 0.053979787161017978 0.34541715534668604 0.73820059496429891 0.059192613846507494 0.12115315606060535 0.40828962664368612 -0.053180121401609673 0.4908782279432905 -0.44250986383356639 1.5544383090117884 -0.1866738663425854 -0.20966182777601305 0.11796191517707598 0.4119081204610594 -0.37864186011043421 0.31389738759137248 0.53378350611562164 0.022383456306995536 -0.24769324745323257 0.34845499279297365 0.023122685497502245 0.43515622293247902 1.4955888121153997 1.1746758042828531 0.47189456777131433 -0.03511297006867934 0.56185488391176752
leaf_count=13393 642 6330 189 3869 3770 240 2368 5371 461 13767 2036 3554 744 1506 202 2715 1572 1056 569 261 496 58 3136 1902 193 356 846 251 592 1081 689 198 509 85 115 151 856 346 647
internal_value=0 -0.0476088 -0.00737152 0.165288 0.091077 0.249153 0.136278 0.300768 0.501923 -0.13646 -0.025299 0.202158 1.07513 0.820078 0.500205 0.42844 0.66926 0.757841 0.590288 -0.201446 -0.289413 1.57547 -0.230745 -0.21967 1.44523 1.6201 -0.389006 -0.317325 0.718184 0.283748 -0.174286 0.969684 0.867111 1.74607 2.61226 1.03811 1.44319 0.747155 1.7108
internal_count=77122 70442 63015 26958 24925 16181 13510 9240 6680 36057 22290 8897 2033 2671 946 5343 5349 4888 2075 8744 7402 1087 6906 4270 1029 596 7427 6581 2628 1342 1331 3316 2918 398 200 2409 1007 1402 836
cat_boundaries=0 1 2
cat_threshold=23724074 818171914
shrinkage=0.4


Tree=6
num_leaves=40
num_cat=0
split_feature=17 16 20 19 6 12 19 20 20 20 20 19 13 20 19 17 20 9 14 20 19 15 20 6 10 6 20 20 4 14 19 14 20 19 6 6 5 17 7
split_gain=1049.26 996.954 1020.48 1355.15 625.583 970.865 561.8 782.982 512.115 490.282 475.736 760.524 466.108 506.803 435.21 425.639 372.42 364.988 355.054 352.418 388.1 329.751 335.759 329.751 307.93 292.539 450.57 283.785 274.098 272.881 285.46 270.152 275.059 365.218 237.189 234.124 233.018 230.831 204.054
threshold=1.0000000180025095e-35 1.0000000180025095e-35 8.7500000000000018 11.500000000000002 0.52250000000000008 0.69050000000000022 8.5000000000000018 3.9500000000000006 13.050000000000002 13.050000000000002 17.300000000000001 21.500000000000004 1.0000000180025095e-35 27.050000000000004 19.500000000000004 2.5000000000000004 14.300000000000002 0.26800000000000007 6.5000000000000009 10.400000000000002 9.5000000000000018 2.5000000000000004 13.050000000000002 0.52250000000000008 4.5000000000000009 0.24050000000000002 -1.0000000180025095e-35 27.050000000000004 8.5000000000000018 3.5000000000000004 6.5000000000000009 13.000000000000002 11.350000000000001 12.500000000000002 0.38200000000000006 0.40600000000000008 9.5000000000000018 1.5000000000000002 1.5000000000000002
decision_type=2 2 2 2 2 2 2 2 2 2 2 2 2 2 2 2 2 2 2 2 2 2 2 2 2 2 2 2 2 2 2 2 2 2 2 2 2 2 2
left_child=18 2 6 9 5 8 7 25 35 23 14 -12 19 24 16 29 -6 -10 -1 -3 -21 22 -7 37 31 26 -2 -13 -15 30 -9 32 38 -34 -26 -5 -31 -4 -14
right_child=1 12 3 4 10 21 -8 15 17 -11 11 27 13 28 -16 -17 -18 -19 -20 20 -22 -23 -24 -25 34 -27 -28 -29 -30 36 -32 -33 33 -35 -36 -37 -38 -39 -40
leaf_value=-0.046325124088132975 -0.0092869845195268207 -0.036285603553710404 0.4833005779573033 0.5596711314879238 -0.084489276734248442 -0.00089686168281858422 -0.092697995875198752 0.50965692295035281 1.1250800079666079 1.3975513763430687 0.57980585083574343 -0.036374246692465348 -0.083709615646002489 0.9692435240092343 -0.34896800482278828 0.65620689116130093 0.25980676184962725 0.52348582147551215 -0.18822108038539143 1.2085702714730395 0.13469058633451689 -0.17747283832856395 0.24399296327274902 0.25709424290872579 -0.01187710506611326 -0.057860548623992217 0.26065757018365998 0.28442124486575987 0.15140382341392664 0.018309923185462387 0.14574503947490788 -0.33237551281083144 0.34228893652295411 -0.029339596724302676 -0.34917882050869303 0.14679984607877092 0.58393641139754626 0.9845683711362474 -0.29646812040422649
leaf_count=24190 2988 3539 372 311 1995 1473 5444 626 224 101 535 1652 4105 73 716 336 672 577 3194 55 2566 574 2286 560 445 5473 1479 602 644 1414 768 640 503 2664 1332 749 127 243 875
internal_value=0 0.0865571 0.190597 0.398461 0.297218 0.521738 0.0385898 0.14999 1.12585 1.37963 0.0718974 0.377669 -0.106102 -0.226904 -0.180186 0.574376 0.0056562 1.7293 -0.157189 0.115127 0.393063 0.262276 0.370076 1.1979 -0.282123 0.0103351 0.200226 0.12326 0.586677 0.452323 0.772915 -0.205345 -0.156201 0.0742111 -0.661778 0.669837 0.162314 1.70341 -0.30273
internal_count=77122 49738 32297 13642 12366 6194 18655 13211 1861 1276 6172 2789 17441 11281 3383 3271 2667 801 27384 6160 2621 4333 3759 1175 10564 9940 4467 2254 717 2935 1394 8787 8147 3167 1777 1060 1541 615 4980
shrinkage=0.4


Tree=7
num_leaves=40
num_cat=2
split_feature=6 20 19 19 20 12 6 20 6 19 12 12 13 14 14 14 6 15 7 19 20 15 17 1 9 15 6 20 19 15 19 1 20 20 15 7 20 19 19
split_gain=752.153 862.601 1129.46 1000.01 721.882 615.726 570.918 519.722 827.571 575.667 504.355 417.268 409.333 406.642 404.083 393.353 376.48 339.359 329.076 315.535 306.228 286.346 282.394 269.003 251.247 246.268 244.512 241.65 435.903 337.482 291.521 307.746 229.035 224.441 220.748 213.285 320.68 193.951 187.214
threshold=0.68350000000000011 14.300000000000002 15.000000000000002 17.500000000000004 10.400000000000002 0.52800000000000014 0.43650000000000005 5.2000000000000002 0.38200000000000006 7.5000000000000009 0.76800000000000013 0.52800000000000014 1.0000000180025095e-35 3.5000000000000004 6.5000000000000009 6.5000000000000009 0.38200000000000006 1.5000000000000002 1.5000000000000002 15.000000000000002 27.050000000000004 1.5000000000000002 1.5000000000000002 0 0.5355000000000002 1.0000000180025095e-35 0.24050000000000002 23.350000000000005 21.500000000000004 1.5000000000000002 27.500000000000004 1 2.7000000000000006 5.2000000000000002 3.5000000000000004 1.5000000000000002 5.2000000000000002 27.500000000000004 27.500000000000004
decision_type=2 2 2 2 2 2 2 2 2 2 2 2 2 2 2 2 2 2 2 2 2 2 2 5 2 2 2 2 2 2 2 5 2 2 2 2 2 2 2
left_child=1 3 14 4 5 7 11 18 17 -10 12 -6 24 35 21 19 34 -9 32 22 23 -3 -8 -14 -4 -13 33 28 29 -18 -29 -32 -1 -15 -12 36 -7 -30 -25
right_child=-2 2 10 -5 6 13 15 8 9 -11 16 25 20 26 -16 -17 27 -19 -20 -21 -22 -23 -24 38 -26 -27 -28 30 37 -31 31 -33 -34 -35 -36 -37 -38 -39 -40
leaf_value=-0.023125764518872841 -0.10933125990486661 1.1696760621863638 0.45721788062465507 -0.24152257136881006 0.66297555417835197 -0.061061974595000727 0.13741484596802098 0.45525307854782487 0.22502946187361517 -0.035717829134787174 0.36960884842474562 0.49818144962837591 -0.16249212146249092 -0.11424877651840581 0.28667254232347583 -0.11257579127368739 0.18330434728013781 0.099508689479562956 -0.18127234815774929 -0.069941750368337871 0.44910462828103248 0.52685040850825871 0.46776049266304454 0.17259642250749921 0.10048307130027652 0.10062072259069091 -0.20238523959651999 0.36821623274916288 -0.11782412651486499 -0.15821620944668652 -0.40628141607368679 0.077733095013222495 0.072479691973279317 0.25350492813486103 -0.60236911475658417 -0.16623500966429058 0.13533463378214006 -0.36756041404631368 -0.15382262870256683
leaf_count=17154 8905 178 1023 2781 446 3494 1723 1251 1860 4987 572 346 712 898 674 1459 1327 653 1742 842 343 294 545 1776 457 892 4844 465 1885 711 233 1547 5232 377 40 1296 2148 676 334
internal_value=0 0.0356864 0.264754 -0.0195156 0.0116196 -0.0317726 0.330389 0.0411865 0.249952 0.0877866 0.174895 0.828105 0.433548 -0.215492 1.2136 0.146945 0.0137573 0.833116 -0.0345306 0.347913 0.230551 1.92318 0.541992 0.122108 0.86766 0.529331 -0.403407 -0.0534379 -0.184723 0.160394 0.215506 0.0313259 -0.00195274 -0.0137726 0.765202 -0.0497594 0.0342734 -0.459361 0.30089
internal_count=77122 68217 13247 54970 52189 45936 6253 32879 8751 6847 12101 1684 4645 13057 1146 4569 7456 1904 24128 3110 3165 472 2268 2822 1480 1238 6119 6844 4599 2038 2245 1780 22386 1275 612 6938 5642 2561 2110
cat_boundaries=0 1 2
cat_threshold=16909387 138543128
shrinkage=0.4


Tree=8
num_leaves=40
num_cat=1
split_feature=13 17 15 17 12 13 15 20 7 6 20 19 12 19 10 20 19 14 20 20 14 20 4 1 10 20 6 3 20 19 6 20 20 20 7 6 20 6 20
split_gain=842.467 606.911 476.41 441.232 346.794 342.699 317.453 491.753 491.914 330.723 305.279 361.657 277.433 272.255 271.516 301.736 292.808 237.432 231.705 218.283 212.759 201.253 200.072 198.121 204.315 285.475 240.549 192.695 192.373 249.881 181.957 375.604 193.908 180.984 182.866 168.111 243.667 160.545 159.72
threshold=1.0000000180025095e-35 2.5000000000000004 2.5000000000000004 2.5000000000000004 0.85400000000000009 3.5000000000000004 1.5000000000000002 2.7000000000000006 1.5000000000000002 0.46550000000000008 8.7500000000000018 9.5000000000000018 0.52800000000000014 27.500000000000004 4.5000000000000009 18.800000000000004 17.500000000000004 7.5000000000000009 18.800000000000004 6.6000000000000005 11.500000000000002 27.050000000000004 8.5000000000000018 0 8.5000000000000018 6.0000000000000009 0.43650000000000005 37.225000000000009 1.4000000000000001 6.5000000000000009 0.40600000000000008 6.0000000000000009 10.400000000000002 27.050000000000004 1.0000000180025095e-35 0.52250000000000008 9.9000000000000021 0.46550000000000008 27.050000000000004
decision_type=2 2 2 2 2 2 2 2 2 2 2 2 2 2 2 2 2 2 2 2 2 2 2 5 2 2 2 2 2 2 2 2 2 2 2 2 2 2 2
left_child=1 6 3 14 28 23 7 -1 9 12 -11 -12 19 -6 15 17 20 30 35 -9 -17 -4 -23 -5 25 -25 -27 -26 -3 -30 31 -2 -32 34 -8 36 -10 -18 -16
right_child=2 4 21 5 13 -7 33 8 18 10 11 -13 -14 -15 38 16 37 -19 -20 -21 -22 22 -24 24 27 26 -28 -29 29 -31 32 -33 -34 -35 -36 -37 -38 -39 -40
leaf_value=-0.018842062261901164 -0.033335271775068079 0.043003286105267248 -0.24850929658971938 -0.017791821947271705 0.11500249779650853 -0.16393873965375372 0.033903440459845724 0.32134163256180143 -0.033039469820003282 0.021025573480647018 0.79669168180370908 0.16800229030114885 0.15113622011476108 -0.22154200749684977 -0.21099269272539117 1.12644401123061 0.60850440710783005 -0.13439942570906022 0.21272274802463764 0.77951162445305855 0.1830414163988906 0.87554410123162807 -0.037445702526064321 -0.014309255018135576 -0.367351638164292 0.40939422849182033 0.15689108413363304 0.19761941910880368 0.75717110813540578 0.25679332953732614 -0.10983806194951909 0.16621727524427221 0.0040759245841416126 0.37870817663974332 -0.1496244871954194 -0.094618790276276232 0.18766944922583434 0.039523793120007623 0.080472590452519019
leaf_count=13838 7080 633 2290 1868 1689 968 1234 1206 2492 3442 166 1240 1951 498 2349 76 84 4501 787 193 77 45 262 1051 235 841 2139 164 170 2631 6600 1918 3749 133 2934 2632 1179 1432 345
internal_value=0 0.103145 -0.105906 -0.075641 0.407167 0.144105 0.0520215 0.08947 0.213092 0.379908 0.212945 0.605572 0.62153 0.0959206 -0.132239 -0.100362 0.31069 -0.129129 0.0202059 0.961372 1.62915 -0.519347 0.24095 0.229248 0.343994 0.412337 0.570378 -0.337832 0.60539 0.717906 -0.0810022 0.0230026 -0.17143 -0.201577 -0.238221 -0.0436731 0.0946118 0.177626 -0.434167
internal_count=77122 39048 38074 35477 5621 7266 33427 29126 15288 8198 4848 1406 3350 2187 28211 25517 1669 23848 7090 1399 153 2597 307 6298 4430 4031 2980 399 3434 2801 19347 8998 10349 4301 4168 6303 3671 1516 2694
cat_boundaries=0 1
cat_threshold=134758522
shrinkage=0.4


Tree=9
num_leaves=40
num_cat=2
split_feature=16 18 13 9 20 6 14 20 19 19 12 20 20 7 15 10 4 7 20 10 8 14 20 17 16 21 9 15 20 6 14 3 10 17 1 5 2 20 4
split_gain=706.699 456.229 459.328 341.652 548.439 433.07 297.187 284.443 486.307 449.865 280.666 308.785 277.26 375.441 274.233 242.25 232.405 218.105 302.613 274.347 383.014 234.569 212.502 197.638 185.759 183.399 201.735 172.773 167.272 272.862 164.148 161.676 172.466 158.617 155.649 145.373 141.498 140.09 139.067
threshold=1.5000000000000002 1.5000000000000002 1.5000000000000002 0.22500000000000003 6.0000000000000009 0.52250000000000008 3.5000000000000004 17.300000000000001 19.500000000000004 21.500000000000004 0.63350000000000006 8.1500000000000004 11.350000000000001 1.5000000000000002 1.0000000180025095e-35 2.5000000000000004 11.000000000000002 3.5000000000000004 27.050000000000004 4.5000000000000009 7.5000000000000009 15.500000000000002 13.050000000000002 5.0000000000000009 2.5000000000000004 16.500000000000004 0.36650000000000005 1.0000000180025095e-35 -1.3999999999999997 0.2970000000000001 4.5000000000000009 34.410000000000004 3.5000000000000004 3.5000000000000004 0 1.5000000000000002 1 11.350000000000001 11.000000000000002
decision_type=2 2 2 2 2 2 2 2 2 2 2 2 2 2 2 2 2 2 2 2 2 2 2 2 2 2 2 2 2 2 2 2 2 2 5 2 5 2 2
left_child=1 6 3 4 28 14 12 9 -9 10 11 -5 -1 -14 -6 -16 23 18 21 -20 27 31 -12 -10 -2 26 37 -21 -3 35 -7 32 -4 -33 -19 -30 -18 -8 -36
right_child=24 2 17 7 5 30 25 8 16 -11 22 -13 13 -15 15 -17 36 34 19 20 -22 -23 -24 -25 -26 -27 -28 -29 29 -31 -32 33 -34 -35 38 -37 -38 -39 -40
leaf_value=-0.009983085468115804 -0.073846661721766918 -0.062847163203172393 -0.011173283588036832 0.01251183273641775 0.58490776292087632 0.21444369258155116 -0.090636887961514714 0.70151906849249546 0.1257768105629172 -0.27996834046263747 -0.092607153489975391 0.18279999873214786 0.42808891034202423 0.042073045567296387 0.46894463774148099 0.13912568691293825 -0.463294892171984 0.18226678106002511 1.0315822815283751 0.66433757611683442 1.2581057512760163 -0.38402577239655322 0.10223005641943093 0.58716582336480394 -0.20905285620698649 0.071021402068754957 -0.17523767235313492 -0.33854968880768865 0.007122914665866991 0.010357814956605522 -0.052061716433088205 0.027827547441551321 -0.17428698996863581 0.33304768643165761 -0.20124866524357585 0.21538307536301354 -0.01299917077906778 0.040051141206472907 -0.615070010367885
leaf_count=18901 5202 1400 5800 4656 641 758 4589 230 1920 826 3885 2687 548 1525 596 886 133 118 78 35 40 286 1164 161 2365 1205 3275 128 677 3423 722 1033 1263 370 474 2580 525 1838 179
internal_value=0 0.0315352 0.106038 0.171528 0.301853 0.626313 -0.0565052 0.077465 0.357165 0.0146395 0.0622691 0.187062 0.0131191 0.360292 0.915782 0.679414 0.239886 -0.0801309 -0.0365555 0.984921 0.372435 -0.069352 -0.119223 0.403682 -0.29026 -0.190392 -0.236091 -0.308014 0.157172 0.223041 0.211081 -0.0392618 -0.100853 0.270801 -0.590659 0.430235 -0.278137 -0.133156 -0.774847
internal_count=77122 69555 37674 27870 11683 3603 31881 16187 2969 13218 12392 7343 20974 2073 2123 1482 2739 9804 9033 281 203 8752 5049 2081 7567 10907 9702 163 8080 6680 1480 8466 7063 1403 771 3257 658 6427 653
cat_boundaries=0 1 2
cat_threshold=17039425 402686226
shrinkage=0.4


Tree=10
num_leaves=40
num_cat=0
split_feature=15 20 19 20 19 17 20 14 11 6 20 12 3 6 19 20 10 19 6 20 7 16 5 6 14 20 19 4 15 5 14 15 5 6 19 6 20 14 17
split_gain=596.313 591.971 683.784 638.193 558.737 442.522 380.382 363.494 340.485 332.641 411.061 373.095 314.909 304.927 282.409 244.611 239.214 235.686 228.971 267.746 223.592 223.252 221.134 213.709 212.517 211.302 283.579 191.24 190.46 189.063 186.922 205.795 189.888 183.899 182.084 180.854 327.449 243.185 168.778
threshold=1.0000000180025095e-35 18.800000000000004 15.000000000000002 13.050000000000002 21.500000000000004 1.0000000180025095e-35 23.350000000000005 3.5000000000000004 12.000000000000002 0.63950000000000007 6.0000000000000009 0.63350000000000006 37.225000000000009 0.60750000000000004 10.500000000000002 13.050000000000002 8.5000000000000018 23.500000000000004 0.44950000000000007 16.150000000000002 1.5000000000000002 1.5000000000000002 16.500000000000004 0.38200000000000006 7.5000000000000009 8.1500000000000004 8.5000000000000018 6.5000000000000009 1.5000000000000002 13.500000000000002 9.5000000000000018 3.5000000000000004 10.500000000000002 0.43650000000000005 19.500000000000004 0.34850000000000003 1.4000000000000001 4.5000000000000009 3.5000000000000004
decision_type=2 2 2 2 2 2 2 2 2 2 2 2 2 2 2 2 2 2 2 2 2 2 2 2 2 2 2 2 2 2 2 2 2 2 2 2 2 2 2
left_child=5 2 3 7 6 -1 38 29 9 10 35 18 16 15 -5 -4 -6 22 -12 -20 25 34 24 -13 -17 -9 -27 -11 -24 -2 31 32 -16 -14 -8 36 -7 -38 -3
right_child=1 4 13 14 12 8 21 20 -10 27 11 23 33 -15 30 17 -18 -19 19 -21 -22 -23 28 -25 -26 26 -28 -29 -30 -31 -32 -33 -34 -35 -36 -37 37 -39 -40
leaf_value=-0.014420640042458042 -0.0095378914092959892 0.18947759225292315 -0.25803892410525658 0.62126624269854458 -0.0018497058252220325 0.019601644721315984 2.0647809436826998 -0.12227426612797077 -0.43503155323132026 0.021474360691462181 0.44395374058180731 0.27019680844749006 0.45186733142616825 -0.37208191876680874 0.16721346352192182 -0.024737915077936452 -0.28025285406084505 -0.28632332840324132 0.14035506461185021 0.51491158143020865 -0.21423093287302902 0.2625485912039876 0.34585873992622496 0.061295983141638283 -0.31859006177597837 0.21145135554415284 -0.065526913677112775 -0.17838117707927234 -0.048841801885114569 0.28385159096093054 -0.096120959955521612 -0.28539747277084065 0.5307346164182587 0.099741038810722479 0.88786563148786279 -0.029923846104616438 0.31441390960532245 0.053105746077339824 0.75461193592317644
leaf_count=17739 11025 931 1795 210 2727 4663 33 4973 212 2855 890 952 291 1053 1042 1673 603 702 1818 367 2291 50 402 4428 515 828 2070 1047 381 363 440 127 295 1286 58 3563 1339 992 93
internal_value=0 -0.0934141 -0.150723 -0.0717143 0.19148 0.0827651 0.814043 -0.12315 0.173904 0.185576 0.24016 0.404466 0.0436742 -0.437439 0.452614 -0.342544 -0.130658 -0.194686 0.682323 0.508167 -0.260636 2.35393 -0.0715533 0.245653 -0.234758 -0.180609 0.0340243 -0.0803792 0.384503 -0.000464771 0.33123 0.503001 0.618555 0.411795 3.28665 0.108569 0.201989 0.508024 0.602008
internal_count=77122 36257 30185 23664 6072 40865 1165 21550 23126 22914 19012 8455 4907 6521 2114 5468 3330 3673 3075 2185 10162 141 2971 5380 2188 7871 2898 3902 783 11388 1904 1464 1337 1577 91 10557 6994 2331 1024
shrinkage=0.4


Tree=11
num_leaves=40
num_cat=3
split_feature=16 7 20 19 19 5 15 11 20 20 19 19 17 5 17 14 19 19 6 6 21 20 20 10 20 10 19 17 2 1 20 14 20 5 2 21 19 4 20
split_gain=546.155 330.074 645.676 643.864 432.459 354.713 288.674 309.224 338.335 282.345 567.249 427.813 385.944 331.882 265.63 249.217 234.855 222.857 209.934 200.737 213.255 198.416 182.631 188.812 180.995 211.775 210.418 182.611 180.422 175.777 194.171 171.56 169.444 166.151 163.884 234.359 156.423 152.975 237.229
threshold=1.0000000180025095e-35 3.5000000000000004 10.400000000000002 12.500000000000002 12.500000000000002 12.500000000000002 1.5000000000000002 12.000000000000002 16.150000000000002 5.2000000000000002 6.5000000000000009 4.5000000000000009 1.5000000000000002 6.5000000000000009 5.0000000000000009 6.5000000000000009 21.500000000000004 23.500000000000004 0.34850000000000003 0.24050000000000002 -1.0000000180025095e-35 13.050000000000002 27.050000000000004 4.5000000000000009 17.300000000000001 3.5000000000000004 15.000000000000002 3.5000000000000004 0 1 18.800000000000004 9.5000000000000018 9.9000000000000021 16.500000000000004 2 8.5000000000000018 4.5000000000000009 8.5000000000000018 18.800000000000004
decision_type=2 2 2 2 2 2 2 2 2 2 2 2 2 2 2 2 2 2 2 2 2 2 2 2 2 2 2 2 5 5 2 2 2 2 5 2 2 2 2
left_child=1 2 4 15 5 9 7 8 16 11 36 13 -12 -1 19 21 -5 -10 -8 32 -21 -4 23 -20 25 -22 -26 -28 -29 30 -3 -24 -2 -6 35 -32 -11 38 -16
right_child=14 29 3 6 33 -7 18 -9 17 10 12 -13 -14 -15 37 -17 -18 -19 22 20 24 -23 31 -25 26 -27 27 28 -30 -31 34 -33 -34 -35 -36 -37 -38 -39 -40
leaf_value=0.011580757992842484 0.03009168541515499 -0.12730063317901441 0.41040972369739825 0.10184429500418164 -0.18702816116981372 0.27396200178779961 0.42357018085302045 -0.45349343086127192 0.37649094512579107 0.48894025495432952 -0.032058546414846338 -0.087833727264477288 0.17376416568561376 0.24265133916562914 0.27219253100314228 0.15383382288779934 -0.21483904906954066 0.12934112703336484 -0.0047445621717861616 -0.115600353726168 -0.040260169998863393 0.92165578838127349 0.027281088162870972 -0.23579759758861096 0.49074503195966823 -0.22341210629720143 -0.023522277742211363 -0.2302977304539231 0.32087203167126094 -0.14214940933508535 1.05401183868964 0.79972005637486776 0.71526473860366879 0.065386173579496512 0.088905486265852207 -0.18234309535473586 0.20927935305687045 0.0097697161002816141 1.3061196277781231
leaf_count=16100 2724 591 776 3616 2357 854 159 144 1240 415 5390 7660 1998 1060 265 570 418 1103 1831 9137 7161 144 119 819 160 1176 2693 112 491 2804 77 75 59 507 539 36 1398 303 41
internal_value=0 0.0570784 0.0798585 0.292883 0.017688 0.0483646 0.19725 0.315395 0.348118 0.032386 0.18201 -0.0230808 0.0590096 0.0646359 -0.124027 0.904164 0.172575 0.650354 -0.059301 -0.140774 -0.174324 1.22608 -0.121818 -0.190383 -0.0854747 -0.165238 0.10694 0.0525751 0.550002 -0.217346 0.0961073 0.814761 0.111544 -0.355861 0.473174 1.51615 0.683236 0.528088 1.02681
internal_count=77122 52800 48753 11014 37739 34875 9524 6521 6377 34021 9201 24820 7388 17160 24322 1490 4034 2343 3003 23713 20930 920 2844 2650 11793 8337 3456 3296 603 4047 1243 194 2783 2864 652 113 1813 609 306
cat_boundaries=0 1 2 3
cat_threshold=147730 18875505 553652360
shrinkage=0.4


Tree=12
num_leaves=40
num_cat=1
split_feature=14 17 17 20 6 10 19 12 6 20 6 20 20 15 8 20 19 20 5 19 20 19 20 7 20 19 6 19 2 6 19 3 20 15 19 15 15 6 20
split_gain=554.803 559.492 406.417 278.395 533.16 281.653 278.542 235.76 230.229 229.156 247.417 222.946 219.074 211.08 193.769 188.854 347.651 278.924 208.1 219.435 196.394 381.176 207.491 187.256 207.05 215.084 187.017 183.791 175.767 163.208 162.723 190.325 160.368 156.281 167.257 151.72 150.992 146.658 144.615
threshold=5.5000000000000009 1.5000000000000002 5.0000000000000009 2.7000000000000006 0.43650000000000005 3.5000000000000004 6.5000000000000009 0.69050000000000022 0.27250000000000008 13.050000000000002 0.60750000000000004 8.1500000000000004 14.300000000000002 1.5000000000000002 6.5000000000000009 3.2500000000000004 6.5000000000000009 6.6000000000000005 6.5000000000000009 3.5000000000000004 8.1500000000000004 10.500000000000002 11.350000000000001 2.5000000000000004 8.7500000000000018 7.5000000000000009 0.34850000000000003 12.500000000000002 0 0.52250000000000008 2.5000000000000004 5.3600000000000003 23.350000000000005 2.5000000000000004 17.500000000000004 3.5000000000000004 1.5000000000000002 0.24050000000000002 27.050000000000004
decision_type=2 2 2 2 2 2 2 2 2 2 2 2 2 2 2 2 2 2 2 2 2 2 2 2 2 2 2 2 5 2 2 2 2 2 2 2 2 2 2
left_child=1 13 7 6 5 8 -3 9 -5 -2 26 14 -7 15 -10 30 17 18 19 -17 -18 22 -22 24 25 -6 -11 36 -4 -23 31 -1 -15 34 -28 -13 -26 -20 -9
right_child=2 3 28 4 23 12 -8 38 11 10 -12 35 -14 32 -16 16 20 -19 37 -21 21 29 -24 -25 27 -27 33 -29 -30 -31 -32 -33 -34 -35 -36 -37 -38 -39 -40
leaf_value=-0.052977064263213296 -0.065255135201206557 0.049559591304920991 -0.26880236353563225 0.61461331127019148 0.21195908272276476 -0.022675130889119478 -0.20956504115723962 -0.12235153368804674 0.25468775272739769 0.99878246635198598 -0.063553804163685321 0.50728011696869257 0.34471513564232742 -0.098950275586655312 -0.074276423905498851 0.25388261800310546 -0.056526057198294226 0.45421969126189882 1.0261326119011522 0.025082735475649678 0.19294407592491258 0.082007084169765862 0.74833871346405323 -0.031024314272484994 0.60725713701465656 -0.072653966412764268 0.34798132485810684 0.12945010375751986 0.26636369035236146 -0.050140940907664591 -0.077950405145822327 0.051929826953025962 0.26889715230826178 -0.14919294577857758 0.089867338050652432 -0.21612571930885316 0.12035037830106117 0.29021148587473566 0.034432328587975
leaf_count=5005 7225 3163 105 339 591 932 840 9486 1388 40 1621 642 360 4485 361 855 5330 388 51 3111 1126 2517 119 2663 259 1511 574 2251 826 3684 5712 6188 198 287 1338 50 168 288 1045
internal_value=0 0.0544993 -0.131974 0.215131 0.294103 0.585019 -0.0120395 -0.159837 0.764311 -0.0580452 0.138663 0.657067 0.199234 -0.00932243 0.466971 0.017812 0.0907277 0.323489 0.250299 0.18602 0.00522778 0.110126 0.615075 0.134946 0.253336 0.0184202 0.354083 0.437725 0.514951 0.00874561 -0.0575364 0.0125506 -0.208494 0.315104 0.418389 1.13753 1.03922 1.00231 -0.266984
internal_count=77122 54575 22547 15518 11515 4072 4003 21616 2780 11085 3860 2441 1292 39057 1749 34374 17469 4693 4305 3966 12776 7446 1245 7443 4780 2102 2239 2678 931 6201 16905 11193 4683 2199 1912 692 427 339 10531
cat_boundaries=0 1
cat_threshold=272646146
shrinkage=0.4


Tree=13
num_leaves=40
num_cat=1
split_feature=15 18 14 6 20 10 20 7 14 7 17 20 6 20 15 20 14 14 20 19 10 4 12 12 9 1 21 4 20 19 5 5 19 19 20 20 20 9 21
split_gain=510.846 368.758 315.745 296.229 366.679 417.405 426.997 242.022 308.523 236.107 232.405 201.571 226.465 198.6 163.959 156.107 164.286 199.466 149.085 148.161 148.102 139.635 136.92 136.31 127.755 125.74 128.812 120.251 226.658 185.973 150.227 138.967 119.774 115.03 139.091 110.222 109.813 115.02 106.844
threshold=2.5000000000000004 2.5000000000000004 2.5000000000000004 0.52250000000000008 2.7000000000000006 5.5000000000000009 16.150000000000002 3.5000000000000004 15.500000000000002 2.5000000000000004 1.5000000000000002 0.65000000000000013 0.38200000000000006 8.7500000000000018 1.0000000180025095e-35 27.050000000000004 13.000000000000002 9.5000000000000018 11.350000000000001 15.000000000000002 1.5000000000000002 11.000000000000002 0.63350000000000006 0.85400000000000009 0.36650000000000005 0 -2.4999999999999996 11.000000000000002 17.300000000000001 19.500000000000004 16.500000000000004 16.500000000000004 18.500000000000004 11.500000000000002 7.0500000000000007 5.2000000000000002 6.0000000000000009 0.18350000000000002 4.5000000000000009
decision_type=2 2 2 2 2 2 2 2 2 2 2 2 2 2 2 2 2 2 2 2 2 2 2 2 2 5 2 2 2 2 2 2 2 2 2 2 2 2 2
left_child=1 2 11 4 -3 6 9 8 -8 13 14 -1 20 -6 -4 24 17 -17 33 -20 36 -9 -7 -19 25 -2 -27 28 29 30 -12 -31 -30 34 -14 -22 37 -13 -5
right_child=15 3 10 38 5 22 7 21 -10 -11 27 12 18 -15 -16 16 -18 23 19 -21 35 -23 -24 -25 -26 26 -28 -29 32 31 -32 -33 -34 -35 -36 -37 -38 -39 -40
leaf_value=-0.028191575899753948 0.099473157370659093 -0.01451194141236214 -0.033558797811404015 -0.049952773327192126 0.12030186779303456 0.4983766328858642 0.79015700764657515 0.36125594817817552 -0.41038501090125035 -0.0097008362863485881 -0.0046417262529232731 0.22138690657483126 -0.014814529538520331 0.26998386894304938 -0.11277318153094916 0.013296299172063595 -0.48523364405133834 1.097234919667244 0.29857537382257532 0.045618652685189359 -0.046131939453512988 -0.28998372260729471 -0.094933941012704512 0.18469504803419112 -0.25119419144453964 -0.27081100247275514 -0.063064879237302848 -0.17057880965386965 0.43712596243497021 -0.36862946360111237 0.25476178632649993 -0.055641306560324594 0.10602402130289301 -0.12791605773479431 0.13642450888171573 0.17339241974014452 0.51422444539261869 0.06501071015580949 0.041219889021696557
leaf_count=7781 408 4335 9239 4767 4835 65 347 177 38 1528 6493 1791 5545 2007 7636 271 67 55 526 1253 1131 75 1462 50 1483 779 1234 578 194 375 378 575 1767 1098 1180 541 143 1298 3617
internal_value=0 0.0198805 -0.028897 0.123762 0.208516 0.309255 0.391217 1.18047 1.67915 0.331151 -0.101129 0.0593717 0.129023 0.410522 -0.173509 -0.333017 0.229545 0.486609 0.0397296 0.301027 0.30386 0.418587 -0.174196 1.65673 -0.396853 -0.255271 -0.356876 0.0167673 0.042956 -0.0332658 0.0240726 -0.447973 0.346949 -0.0196911 0.0293065 0.0622459 0.428854 0.389194 -0.0265483
internal_count=77122 72775 49522 23253 14869 10534 9007 637 385 8370 27235 22287 14506 6842 16875 4347 443 376 9602 1779 4904 252 1527 105 3904 2421 2013 10360 9782 7821 6871 950 1961 7823 6725 1672 3232 3089 8384
cat_boundaries=0 1
cat_threshold=38273104
shrinkage=0.4


Tree=14
num_leaves=40
num_cat=0
split_feature=10 20 4 4 6 20 6 20 17 19 6 15 5 20 19 9 10 14 20 14 4 20 14 20 11 6 20 19 14 17 19 5 17 15 17 9 6 14 20
split_gain=414.314 375.474 359.327 331.406 338.35 319.395 563.011 318.86 312.152 317.731 272.863 336.908 319.048 389.993 235.832 213.497 214.836 199.303 188.265 176.316 173.477 230.893 212.84 243.03 210.791 170.263 167.877 171.064 212.995 166.339 161.418 241.625 219.876 159.852 157.634 151.956 147.798 146.491 143.507
threshold=2.5000000000000004 13.050000000000002 5.5000000000000009 5.5000000000000009 0.60750000000000004 6.0000000000000009 0.34850000000000003 17.300000000000001 2.5000000000000004 8.5000000000000018 0.24050000000000002 1.0000000180025095e-35 1.5000000000000002 -1.3999999999999997 15.000000000000002 0.22500000000000003 5.5000000000000009 9.5000000000000018 9.9000000000000021 11.500000000000002 11.000000000000002 27.050000000000004 13.000000000000002 23.350000000000005 12.000000000000002 0.34850000000000003 18.800000000000004 23.500000000000004 6.5000000000000009 1.5000000000000002 21.500000000000004 12.500000000000002 3.5000000000000004 1.5000000000000002 1.5000000000000002 0.5355000000000002 0.17450000000000002 9.5000000000000018 1.9500000000000002
decision_type=2 2 2 2 2 2 2 2 2 2 2 2 2 2 2 2 2 2 2 2 2 2 2 2 2 2 2 2 2 2 2 2 2 2 2 2 2 2 2
left_child=1 2 5 -3 26 10 34 15 9 37 12 38 -1 -14 -9 19 -17 33 -11 -2 22 -22 23 30 35 -4 27 28 29 -5 31 -16 -32 -10 -7 -25 -15 -8 -12
right_child=7 3 25 4 -6 6 8 14 17 18 11 -13 13 36 20 16 -18 -19 -20 -21 21 -23 -24 24 -26 -27 -28 -29 -30 -31 32 -33 -34 -35 -36 -37 -38 -39 -40
leaf_value=-0.033295804674594413 -0.018317980688103513 0.30260153763644276 0.2546065355982558 0.12741412904576507 -0.040837591399888427 0.21928318765090418 0.13306744555404981 0.50845347432456667 0.45053271523198835 -0.083217948810471953 -0.059272873240882734 -0.11260577933393628 -0.044407278857768379 0.20018243278433734 0.0013011048265329896 -0.1124357427840655 -0.32342915686162932 -0.1566811864050279 0.052602777439078457 -0.26302199038615315 -0.33159374080212983 -0.0079307628670414326 -0.19250873603631516 0.34733067510863314 -0.10126817397087902 -0.13402459483253387 0.2939973981751372 -0.18308764088276019 -0.012944746992004572 0.41638284525538372 -0.12920494098257643 0.40040880499123521 0.13646890311128512 0.079350488487145182 0.51242963685297671 0.071671449273968554 0.058859772138239189 -0.14508907951392078 0.029390578462710155
leaf_count=5833 5647 1113 190 867 2706 1066 3573 151 567 4410 4397 6357 2349 3449 772 4945 915 161 2593 514 522 1087 592 915 337 3559 920 311 948 504 1802 354 689 276 405 492 1803 331 8700
internal_value=0 0.0429871 0.0119404 0.253725 0.164276 0.0360664 0.166315 -0.124984 0.0942323 0.0451163 -0.0169312 -0.0926236 0.0926802 0.227681 0.0337061 -0.226805 -0.363452 0.627807 -0.0823191 -0.0968329 0.00899684 -0.282338 0.0877399 0.150574 0.4572 -0.285822 0.367317 0.238701 0.332097 0.584108 0.00272943 0.316939 -0.139302 0.822517 0.749983 0.627345 0.379167 0.27371 -0.000940061
internal_count=77122 57388 50019 7369 6256 46270 13382 19734 11911 10907 32888 19454 13434 7601 7713 12021 5860 1004 7003 6161 7562 1609 5953 5361 1744 3749 3550 2630 2319 1371 3617 1126 2491 843 1471 1407 5252 3904 13097
shrinkage=0.4


Tree=15
num_leaves=40
num_cat=4
split_feature=15 17 14 20 19 19 19 6 20 20 5 19 17 15 20 1 20 14 20 10 1 14 20 20 19 12 12 18 12 3 13 2 14 20 2 20 3 20 16
split_gain=511.023 467.586 309.847 329.976 490.324 423.627 384.383 347.859 306.416 229.77 259.071 294.622 223.755 231.96 213.66 191.361 163.788 155.311 160.43 149.585 144.385 140.301 151.587 138.593 136.125 132.95 131.052 124.7 121.779 114.851 114.251 112.386 134.113 108.392 107.294 103.973 102.144 99.7659 97.8646
threshold=1.5000000000000002 1.0000000180025095e-35 7.5000000000000009 8.1500000000000004 7.5000000000000009 10.500000000000002 27.500000000000004 0.60750000000000004 16.150000000000002 -0.59999999999999987 9.5000000000000018 4.5000000000000009 3.5000000000000004 3.5000000000000004 3.9500000000000006 0 18.800000000000004 5.5000000000000009 14.300000000000002 1.5000000000000002 1 15.500000000000002 8.1500000000000004 27.050000000000004 19.500000000000004 0.76800000000000013 0.63350000000000006 3.5000000000000004 0.52800000000000014 26.475000000000005 2.5000000000000004 2 7.5000000000000009 18.800000000000004 3 27.050000000000004 27.095000000000002 23.350000000000005 1.5000000000000002
decision_type=2 2 2 2 2 2 2 2 2 2 2 2 2 2 2 5 2 2 2 2 5 2 2 2 2 2 2 2 2 2 2 5 2 2 5 2 2 2 2
left_child=1 19 3 5 -5 9 7 8 -6 36 11 -11 13 17 -12 -4 -9 18 25 37 -8 22 -17 -19 33 -2 30 28 -24 -26 -14 -25 -33 -20 -31 -29 -3 -1 -34
right_child=12 2 15 4 6 -7 20 16 -10 10 14 -13 26 -15 -16 21 -18 23 24 -21 -22 -23 27 31 29 -27 -28 35 -30 34 -32 32 38 -35 -36 -37 -38 -39 -40
leaf_value=-0.011303832897862224 -0.032276423733324976 -0.019809312821495204 -0.14900612139124855 0.91113609874346224 0.14164697480198324 -0.12028787343074072 0.34394446590799937 -0.020275570765207949 0.358891747663386 0.13407603267844442 0.12011002414912381 0.0071196565454524812 0.28765237913023506 -0.27607329486014626 0.45319901675877211 -0.10801790200768527 0.24805235634645761 -0.16404301543232219 0.1584258152530835 -0.081651087567004815 -0.12926891043617292 -0.21196378049356968 0.1367999852118443 -0.24911074931161448 -0.41540467778466783 -0.17354745151396087 -0.01470347766481443 0.13080552250377295 -0.034710106025646573 -0.22135546136189974 -0.13685687355345161 -0.29555680863559247 0.55390216846339757 0.72259841000040381 0.088896340008594796 0.53306034390045254 -0.27173580917812484 0.58502025065322716 -0.049976777248084553
leaf_count=18158 3562 3205 1679 122 5852 2651 103 2571 1263 4814 833 7452 504 996 489 1137 424 3445 593 6227 1283 445 943 104 106 1521 1517 970 2226 218 127 60 151 60 811 115 280 45 60
internal_value=0 0.0380634 0.106219 0.149945 0.283638 0.0711957 0.262475 0.330179 0.450526 0.128945 0.187696 0.142365 -0.174096 -0.228617 0.608294 -0.0761446 0.0442786 -0.185616 -0.0957466 -0.0703408 -0.231383 0.00974202 0.0543056 -0.347264 0.161891 -0.186373 0.122545 0.140997 0.0408155 -0.0473966 0.505531 0.230057 0.559673 0.52566 0.0547008 0.433602 -0.100125 -0.0245741 0.955458
internal_count=77122 63287 38857 31342 11618 19724 11496 10110 7115 17073 13588 12266 13835 11687 1322 7515 2995 10691 6871 24430 1386 5836 5391 3820 1788 5083 2148 4254 3169 1135 631 375 271 653 1029 1085 3485 18203 211
cat_boundaries=0 1 2 3 4
cat_threshold=168181771 35 277266560 545390603
shrinkage=0.4


Tree=16
num_leaves=40
num_cat=2
split_feature=16 18 14 20 6 15 16 12 20 19 20 4 1 17 7 20 19 6 19 19 20 19 19 20 17 5 5 17 20 1 10 13 5 19 20 5 6 7 5
split_gain=359.626 337.601 296.932 213.845 280.301 187.564 175.391 140.683 133.646 252.722 139.726 195.269 135.097 133.11 130.618 123.516 468.37 251.436 174.092 158.63 136.782 230.958 149.56 135.281 132.039 130.925 123.296 119.387 117.521 136.161 120.181 117.249 119.453 116.739 244.616 114.03 110.464 108.348 159.978
threshold=1.0000000180025095e-35 1.5000000000000002 4.5000000000000009 1.4000000000000001 0.44950000000000007 1.5000000000000002 2.5000000000000004 0.69050000000000022 13.050000000000002 17.500000000000004 18.800000000000004 11.000000000000002 0 3.5000000000000004 1.0000000180025095e-35 9.9000000000000021 11.500000000000002 0.34850000000000003 12.500000000000002 6.5000000000000009 14.300000000000002 18.500000000000004 17.500000000000004 18.800000000000004 1.0000000180025095e-35 12.500000000000002 10.500000000000002 1.5000000000000002 8.7500000000000018 1 3.5000000000000004 3.5000000000000004 12.500000000000002 6.5000000000000009 4.4500000000000002 12.500000000000002 0.52250000000000008 1.5000000000000002 10.500000000000002
decision_type=2 2 2 2 2 2 2 2 2 2 2 2 5 2 2 2 2 2 2 2 2 2 2 2 2 2 2 2 2 5 2 2 2 2 2 2 2 2 2
left_child=1 5 3 -3 7 37 15 14 -4 31 35 13 -13 -12 -5 18 19 -18 26 -17 22 24 25 -23 -22 -19 33 -21 30 -30 -9 32 -10 34 -2 -11 -24 38 -1
right_child=6 2 8 4 -6 -7 -8 28 9 10 11 12 -14 -15 -16 16 17 20 -20 27 21 23 36 -25 -26 -27 -28 -29 29 -31 -32 -33 -34 -35 -36 -37 -38 -39 -40
leaf_value=0.0012540082026136371 -0.076359833027174459 0.0050468184997017945 -0.037624681279368723 0.39832501561403033 0.058785256875989206 -0.10837033728150505 -0.14375944141497399 0.11099560123586488 0.24489090597477553 -0.30725099725358485 0.082118236797337069 0.2615996205794906 -0.20401895738578599 0.36746854860743694 0.19408581142953585 0.78256001355938432 0.27911056569145049 -0.11946370570090684 -0.22791745853277723 0.12771931897000019 -0.043134927861532814 -0.16317495680844712 -0.17845092956240308 -0.011713643287960963 0.20058957274831113 0.12373122539063564 0.086538080448947063 0.43641987235522745 -0.02990903150461708 0.33593623462627442 -0.1454617523344966 0.0014991498870184144 0.68261581176568653 -0.1160169263535559 0.10103998549547588 -0.033429208383079848 -0.54614506055596024 -0.055374820733054109 0.14090911139205731
leaf_count=16475 4216 4105 6533 674 7014 2998 2365 1279 568 308 986 116 496 356 1952 78 405 1650 889 937 531 1337 424 3206 1077 451 1049 255 229 591 379 249 121 3499 1764 1159 189 4786 1426
internal_value=0 0.0463081 0.124133 0.209879 0.276702 -0.0358499 -0.100652 0.454991 -0.00357983 0.132029 0.00594679 0.181059 -0.287059 0.394537 0.616267 -0.0727818 0.00527848 -0.072747 -0.144846 0.574803 -0.107949 -0.0254384 -0.294949 -0.140721 0.300265 -0.168149 -0.108963 0.484396 0.284083 0.593748 0.130931 0.591865 0.804407 -0.144963 -0.0600746 -0.227297 -0.729546 -0.00478553 0.0309475
internal_count=77122 52800 27115 16223 12118 25685 24322 5104 10892 4359 3421 1954 612 1342 2626 21957 10540 9270 11417 1270 8865 6151 2714 4543 1608 2101 10528 1192 2478 820 1658 938 689 9479 5980 1467 613 22687 17901
cat_boundaries=0 1 2
cat_threshold=16777280 57148480
shrinkage=0.4


Tree=17
num_leaves=40
num_cat=3
split_feature=15 17 12 20 6 14 18 12 6 20 16 6 20 19 10 10 17 14 20 19 14 20 10 2 16 8 20 19 20 19 14 19 21 2 2 20 6 20 18
split_gain=368.843 289.776 217.553 197.999 352.828 232.393 162.385 158.566 150.708 164.254 149.438 174.055 155.392 258.952 202.545 148.085 139.475 132.204 127.605 142.994 122.85 119.442 162.473 126.544 107.798 101.817 120.491 146.177 161.185 153.675 136.012 113.171 101.621 98.9629 98.1449 97.6582 165.254 170.624 96.1723
threshold=1.0000000180025095e-35 3.5000000000000004 0.85400000000000009 3.6000000000000001 0.52250000000000008 1.5000000000000002 3.5000000000000004 0.69050000000000022 0.27250000000000008 0.65000000000000013 1.5000000000000002 0.2970000000000001 11.350000000000001 15.000000000000002 5.5000000000000009 1.0000000180025095e-35 2.5000000000000004 4.5000000000000009 9.9000000000000021 10.500000000000002 2.5000000000000004 27.050000000000004 4.5000000000000009 0 1.0000000180025095e-35 7.5000000000000009 23.350000000000005 21.500000000000004 16.150000000000002 15.000000000000002 8.5000000000000018 23.500000000000004 6.5000000000000009 1 2 16.150000000000002 0.40600000000000008 8.7500000000000018 4.5000000000000009
decision_type=2 2 2 2 2 2 2 2 2 2 2 2 2 2 2 2 2 2 2 2 2 2 2 5 2 2 2 2 2 2 2 2 2 5 5 2 2 2 2
left_child=3 2 6 8 5 -5 17 -3 9 -1 11 38 13 -13 -14 24 -17 18 -2 -20 -10 22 35 -23 -11 26 27 28 29 -6 -30 -28 34 -27 -9 36 37 -4 -7
right_child=1 7 21 4 25 10 -8 32 20 15 -12 12 14 -15 -16 16 -18 -19 19 -21 -22 23 -24 -25 -26 33 31 -29 30 -31 -32 -33 -34 -35 -36 -37 -38 -39 -40
leaf_value=-0.0038374700726601326 -0.032821143624768893 0.16415443641397232 -0.087196747770020219 0.26151116864901985 0.022644940003894234 0.23654225926880762 0.055903099566097583 -0.19762409940708942 -0.01095755577726739 0.26683484348722647 -0.04531315545589179 0.073456392592509703 0.24622654841613845 -0.20115608105432933 -0.0035449379263567319 -0.021687075914305864 0.44315647892653942 -0.078067842234133156 0.33542117750108769 0.035784118024804128 -0.11968953867952155 0.45106463865800345 -0.21183338263402596 -0.011038893113314845 0.034666302933968524 -0.35795294347582229 0.75560137303370356 -0.15390299285868481 0.35814680996066439 -0.13189443498433762 0.031272599451543613 0.13611993765761685 0.11297525900503974 -0.044204884362994426 0.010869728371585771 0.014433245174525136 -0.16166762316749828 0.13012979046471659 0.8709703336656095
leaf_count=8440 8228 1671 2274 1261 6291 864 3730 500 4729 1026 1334 5223 1614 614 766 1326 112 7146 285 2407 2564 111 1747 444 465 226 53 901 383 1231 435 430 943 537 1242 1511 3243 775 40
internal_value=0 -0.0733955 -0.106431 0.0651646 0.128981 0.248245 -0.0502018 0.168537 -0.0107601 0.0612148 0.199333 0.245055 0.199235 0.111424 0.414595 0.265252 0.0362943 -0.0894218 -0.0202209 0.168766 -0.122961 -0.227714 -0.253923 0.223276 0.48607 -0.004261 0.0233399 -0.00210895 0.0392299 -0.00661484 0.4608 0.51024 0.0180226 -0.356019 -0.125114 -0.192206 -0.247029 -0.0798908 0.661536
internal_count=77122 36257 31901 40865 22203 11716 21796 4356 18662 11369 10455 9121 8217 5837 2380 2929 1438 18066 10920 2692 7293 10105 9550 555 1491 10487 9724 9241 8340 7522 818 483 2685 763 1742 7803 6292 3049 904
cat_boundaries=0 1 2 3
cat_threshold=281018409 285491587 675594249
shrinkage=0.4


Tree=18
num_leaves=40
num_cat=1
split_feature=7 20 6 6 10 14 20 19 19 5 10 20 14 17 17 4 19 20 15 20 14 20 19 2 21 3 14 16 7 20 5 14 20 6 14 10 10 5 4
split_gain=340.138 320.416 432.512 258.726 254.071 249.601 284.794 261.12 201.514 245.847 193.56 193.538 216.755 181.149 151.12 147.384 141.088 148.263 136.342 135.372 131.765 130.602 207.261 201.207 133.13 134.941 129.781 122.546 117.662 121.062 116.868 115.883 122.984 113.649 114.641 124.696 109.841 107.4 105.062
threshold=1.5000000000000002 4.4500000000000002 0.40600000000000008 0.79150000000000009 1.5000000000000002 13.000000000000002 13.050000000000002 15.000000000000002 6.5000000000000009 9.5000000000000018 5.5000000000000009 7.0500000000000007 4.5000000000000009 1.5000000000000002 1.5000000000000002 2.5000000000000004 2.5000000000000004 1.9500000000000002 1.0000000180025095e-35 18.800000000000004 1.5000000000000002 23.350000000000005 27.500000000000004 0 2.5000000000000004 39.820000000000007 3.5000000000000004 1.5000000000000002 3.5000000000000004 14.300000000000002 3.5000000000000004 11.500000000000002 8.7500000000000018 0.34850000000000003 8.5000000000000018 8.5000000000000018 1.5000000000000002 13.500000000000002 1.0000000180025095e-35
decision_type=2 2 2 2 2 2 2 2 2 2 2 2 2 2 2 2 2 2 2 2 2 2 2 5 2 2 2 2 2 2 2 2 2 2 2 2 2 2 2
left_child=1 8 4 5 14 6 7 20 9 16 19 -2 28 -6 26 -5 17 30 -18 -8 -4 33 -23 -24 -25 -26 -3 -15 29 36 -1 32 -16 -14 35 -35 -13 -10 -32
right_child=11 2 3 15 13 -7 10 -9 37 -11 -12 12 21 27 31 -17 18 -19 -20 -21 -22 22 23 24 25 -27 -28 -29 -30 -31 38 -33 -34 34 -36 -37 -38 -39 -40
leaf_value=-0.018274702801490909 -0.11806181262250555 0.34468108032902234 0.15294742663143204 0.068609133909741882 0.016629652367474136 -0.14800155588983463 0.13516264301871672 -0.20254676639977345 -0.14478873399236866 0.25316408806879609 -0.00039139318414083569 0.068507191378247206 0.06804869458136692 0.21582175652419272 0.40012740705127392 -0.15111084795599286 -0.012606485099186141 0.12145367972363963 -0.11515801113511137 0.31810892499498589 0.013742353726964043 0.27370962662339848 0.42472285555941724 -0.23759056326929795 -0.060308198504546717 0.29988998999050009 0.10432168962586681 -0.06171993035137853 -0.047745790397354951 0.13416888093673207 0.16476663193326924 -0.0919190263555896 0.92959756389969872 -0.067846580017809896 -0.19617805096673557 -0.53004294220946335 -0.051397913629860716 0.081794776915351752 0.00042147093610121652
leaf_count=9422 4144 542 1250 646 2753 1087 2662 826 2437 595 1312 2754 682 1712 427 2003 6778 1936 2989 855 8392 422 130 546 967 201 1067 299 2917 1895 1194 62 84 5524 1629 95 2198 388 1300
internal_value=0 0.0447738 0.124084 0.0461367 0.337671 0.0930178 0.12592 0.0332457 -0.0314274 -0.00194021 0.326813 -0.0984979 -0.057669 0.208236 0.620268 -0.243822 -0.0179331 0.046966 -0.109976 0.449094 0.0794726 -0.159646 0.0520764 -0.0926022 -0.185273 0.00419491 0.46322 0.436391 0.0488201 0.120471 0.00526498 1.06126 1.21791 -0.220146 -0.256868 -0.189152 0.038215 -0.284171 0.197754
internal_count=77122 53018 25979 19033 6946 16384 15297 10468 27039 24214 4829 24104 19960 4764 2182 2649 23619 13852 9767 3517 9642 10196 2266 1844 1714 1168 1609 2011 9764 6847 11916 573 511 7930 7248 5619 4952 2825 2494
cat_boundaries=0 1
cat_threshold=9
shrinkage=0.4


Tree=19
num_leaves=40
num_cat=4
split_feature=18 15 12 13 17 10 20 19 19 20 6 20 6 20 19 14 18 20 6 17 0 20 20 20 6 2 1 14 14 19 5 6 20 2 9 10 19 19 20
split_gain=327.72 264.593 202.885 196.612 190.184 143.434 156.14 214.662 183.941 200.26 153.675 151.39 142.683 208.578 195.796 177.749 140.653 140.562 148.004 135.267 133.534 123.8 109.052 108.39 106.379 105.853 177.172 103.575 102.551 99.0993 98.3286 95.0584 88.2446 118.017 173.654 100.498 88.1968 86.0009 85.3681
threshold=2.5000000000000004 2.5000000000000004 0.85400000000000009 5.5000000000000009 1.0000000180025095e-35 4.5000000000000009 11.350000000000001 18.500000000000004 9.5000000000000018 6.6000000000000005 0.38200000000000006 18.800000000000004 0.63950000000000007 8.7500000000000018 12.500000000000002 3.5000000000000004 1.0000000180025095e-35 18.800000000000004 0.52250000000000008 1.5000000000000002 0 6.0000000000000009 -1.3999999999999997 0.65000000000000013 0.52250000000000008 1 2 9.5000000000000018 2.5000000000000004 15.000000000000002 18.500000000000004 0.2970000000000001 27.050000000000004 3 0.41450000000000004 3.5000000000000004 23.500000000000004 9.5000000000000018 23.350000000000005
decision_type=2 2 2 2 2 2 2 2 2 2 2 2 2 2 2 2 2 2 2 2 5 2 2 2 2 5 5 2 2 2 2 2 2 5 2 2 2 2 2
left_child=1 2 12 4 -2 6 8 17 9 23 21 36 13 15 27 19 -4 18 -8 37 -18 -10 -21 -6 -13 26 -7 -15 -11 -12 -14 -16 35 34 -34 -22 -9 -1 -33
right_child=3 -3 16 -5 5 25 7 11 10 28 29 24 30 14 31 -17 20 -19 -20 22 32 -23 -24 -25 -26 -27 -28 -29 -30 -31 -32 38 33 -35 -36 -37 -38 -39 -40
leaf_value=0.0090320351196757805 -0.021494802563571138 -0.14976283477140667 -0.13327672098161611 -0.19221715911476847 -0.014459084266616387 0.46560430536654007 0.35839179156101242 0.035318238796081446 -0.027349291707852948 0.64299296426396924 -0.025193481037719762 0.41480145647928313 -0.046945581690041108 0.23528708216640126 0.42139847880542869 -0.062017040592802601 0.49193300237129267 0.71007219250264919 0.13133314147163805 -0.066108273185197783 -0.017723027953855618 0.23901214585396924 0.14414998979833546 0.10456869581539417 0.11081674484058608 -0.045214087566985306 0.012216412586038528 -0.029099644295556445 0.21956832632717385 -0.21092519581254818 -0.50478518467984701 0.0117695636535151 -0.18440028377941678 0.0019768228365191773 0.90945561055247548 -0.10779404874016352 -0.1894852760272788 -0.13695015634549026 0.17077749879848769
leaf_count=13961 5670 2335 2869 583 1818 174 713 1102 526 103 2544 231 6029 1435 101 6209 77 95 1291 491 6738 595 2012 3747 909 2843 565 284 821 561 76 4784 35 258 69 2808 374 677 609
internal_value=0 -0.0454486 -0.029938 0.0934434 0.107001 0.154939 0.196788 0.348434 0.130059 0.235794 -0.0322969 0.157306 0.00795873 0.0358383 0.184474 -0.0100763 -0.138044 0.586638 0.530295 0.042435 -0.0819721 0.285072 0.257262 0.16421 0.431034 -0.0253351 0.309398 0.479018 0.666921 -0.146877 -0.131613 0.0923145 -0.0921667 0.39246 1.23461 -0.110545 -0.0541104 0.00570108 0.0743135
internal_count=77122 51857 49522 25265 24682 19012 15430 4715 10715 6489 4226 2616 36668 30563 7213 23350 12854 2099 2004 17141 9985 1121 2503 5565 1140 3582 739 1719 924 3105 6105 5494 9908 362 104 9546 1476 14638 5393
cat_boundaries=0 11 12 13 14
cat_threshold=0 0 0 0 0 0 0 0 0 0 1048576 557842832 1088 29360161
shrinkage=0.4


Tree=20
num_leaves=40
num_cat=4
split_feature=13 17 15 17 16 20 7 15 20 6 12 14 20 19 19 7 6 21 20 20 1 14 6 20 1 8 20 11 18 16 19 1 20 3 20 1 7 15 20
split_gain=284.422 164.955 157.942 146.786 131.613 128.371 116.404 116.346 121.862 204.005 147.04 115.085 121.325 200.859 132.576 113.511 112.963 110.315 108.84 104.498 102.6 100.352 98.1087 128.896 91.1078 93.789 89.0909 88.5963 88.2097 80.8098 79.0201 85.7961 77.3279 76.5714 75.188 73.6082 153.635 79.8994 69.7056
threshold=1.0000000180025095e-35 1.0000000180025095e-35 1.5000000000000002 1.5000000000000002 1.0000000180025095e-35 17.300000000000001 2.5000000000000004 3.5000000000000004 0.65000000000000013 0.38200000000000006 0.52800000000000014 9.5000000000000018 7.0500000000000007 10.500000000000002 7.5000000000000009 1.0000000180025095e-35 0.34850000000000003 -8.4999999999999982 14.300000000000002 7.0500000000000007 0 6.5000000000000009 0.2970000000000001 5.2000000000000002 1 9.5000000000000018 16.150000000000002 12.000000000000002 3.5000000000000004 1.5000000000000002 15.000000000000002 2 11.350000000000001 37.225000000000009 1.9500000000000002 3 1.0000000180025095e-35 3.5000000000000004 27.050000000000004
decision_type=2 2 2 2 2 2 2 2 2 2 2 2 2 2 2 2 2 2 2 2 5 2 2 2 5 2 2 2 2 2 2 5 2 2 2 5 2 2 2
left_child=1 38 3 6 7 22 28 8 -3 10 15 12 14 -14 34 -10 18 -11 -15 -19 -12 24 23 -4 -7 -26 -8 -13 -2 -29 -23 -32 -18 -30 -5 36 -24 -37 -1
right_child=2 4 5 11 -6 21 26 -9 9 17 20 27 13 16 -16 -17 32 19 -20 -21 -22 30 35 -25 25 -27 -28 29 33 -31 31 -33 -34 -35 -36 37 -38 -39 -40
leaf_value=-0.0081155133752957333 -0.034266148802288302 0.0034750686901608868 -0.13205687544303363 -0.011282755943397501 -0.0037468276642563048 0.29754661444969699 -0.19024511821413792 -0.19133458133907089 0.4309688313510841 -0.027613299501416042 0.41112681879872276 -0.029743473289876657 0.33908179814955508 0.19161018356526935 -0.094229762231560876 0.19189063482234545 -0.039578214733729876 0.010550454193858328 0.83987438154220584 0.11275201357820973 0.070130450120869492 0.27058419588013233 0.54580403466365845 0.15797605795359101 0.085545345178940468 -0.29909978720767438 -0.024326027260217584 -0.5533288534915094 0.031877871247185212 0.042364058146874113 -0.26378624837427983 -0.037460748831203781 0.080109879762991706 0.3701797533115106 0.13752145389404771 -0.13394000614112211 -0.2190155779189886 -0.34889365182535403 0.42381547442326939
leaf_count=16337 14033 3532 533 1184 6160 254 1244 279 456 1966 145 2546 462 242 1610 1048 1218 2383 50 4876 1806 107 76 454 627 121 887 101 2421 57 329 1334 2969 112 1004 3706 94 299 60
internal_value=0 0.0600539 -0.0614127 -0.0283675 0.115353 -0.186946 -0.0829628 0.161941 0.17296 0.218718 0.42598 0.0608371 0.116621 0.219925 -0.0177706 0.660943 0.15517 0.141093 0.756536 0.198003 0.244851 -0.0133659 -0.280159 0.00338099 0.239516 0.0575391 -0.302959 -0.119451 -0.0546632 -0.846067 -0.156523 -0.210118 0.113231 0.117091 0.142496 -0.34719 0.290189 -0.374035 -0.0163375
internal_count=77122 39048 38074 30140 22651 7934 18697 16491 16212 12680 3455 11443 8739 4941 3798 1504 4479 9225 292 7259 1951 2772 5162 987 1002 748 2131 2704 16566 158 1770 1663 4187 2533 2188 4175 170 4005 16397
cat_boundaries=0 1 2 3 4
cat_threshold=131073 4604930 16909362 4194304
shrinkage=0.4


Tree=21
num_leaves=40
num_cat=4
split_feature=15 17 4 9 20 6 20 10 18 13 20 19 1 6 10 19 10 20 10 10 20 1 17 20 19 14 5 19 20 14 14 1 7 17 19 5 14 1 19
split_gain=242.657 167.406 165.781 165.244 178.748 194.428 134.662 114.941 112.028 111.877 197.647 171.019 142.043 111.238 114.982 109.235 98.2773 97.4432 95.5476 94.5175 106.942 101.996 93.9498 93.3055 164.879 132.452 92.2943 92.139 90.3961 88.1741 88.0047 101.782 89.1419 87.0673 86.5335 112.103 80.6338 75.1914 74.0741
threshold=1.0000000180025095e-35 2.5000000000000004 8.5000000000000018 0.18350000000000002 11.350000000000001 0.38200000000000006 16.150000000000002 5.5000000000000009 1.5000000000000002 3.5000000000000004 9.9000000000000021 7.5000000000000009 0 0.63950000000000007 2.5000000000000004 10.500000000000002 3.5000000000000004 3.9500000000000006 1.5000000000000002 3.5000000000000004 27.050000000000004 1 5.0000000000000009 17.300000000000001 21.500000000000004 3.5000000000000004 9.5000000000000018 6.5000000000000009 6.6000000000000005 9.5000000000000018 6.5000000000000009 2 3.5000000000000004 5.0000000000000009 9.5000000000000018 10.500000000000002 8.5000000000000018 3 18.500000000000004
decision_type=2 2 2 2 2 2 2 2 2 2 2 2 5 2 2 2 2 2 2 2 2 5 2 2 2 2 2 2 2 2 2 5 2 2 2 2 2 5 2
left_child=1 8 6 9 15 7 29 -6 16 10 22 -12 -13 14 -14 17 -1 -5 -10 21 30 -7 34 25 -25 -23 27 -19 -20 33 31 -21 -32 38 35 36 -2 -22 -3
right_child=3 2 -4 4 5 19 -8 -9 18 -11 11 12 13 -15 -16 -17 -18 26 28 20 37 23 -24 24 -26 -27 -28 -29 -30 -31 32 -33 -34 -35 -36 -37 -38 -39 -40
leaf_value=-0.0020446597913964764 -0.0019313735097628881 0.13743931602941237 -0.040491165063413215 -0.13494306217879057 0.28070216016325472 -0.12046400924903589 0.37144747533793776 -0.011573977408287917 0.060045846695078543 -0.094060955770698354 0.59762240777629505 0.33814293027560161 0.25236550997797169 -0.056096366067487503 0.046930970271862632 -0.14029651627945366 -0.12249475409683075 0.04964935416124823 -0.070207752237182022 0.11622452331044211 -0.26883360654146982 0.087031778099197973 0.36673806631621325 0.24580213924395813 0.007830325040004681 -0.074468051880295594 0.14202096756174587 -0.082798904143022892 0.03060595911408704 -0.054061074295871647 -0.14399554281310964 -0.10391758814463428 -0.42702287645079195 0.39543037118121266 -0.11139914342903406 0.17968852627360932 -0.22474068685505735 0.067190871151113829 -0.05901559996912336
leaf_count=18065 7664 2557 1210 1690 547 906 335 355 10055 1511 109 318 640 911 1367 3685 1153 1210 2111 406 109 1275 106 719 1323 2240 488 2751 4367 476 868 1783 224 187 1222 535 269 1026 349
internal_value=0 0.0529502 0.222179 -0.0594363 -0.115032 -0.0319707 0.322415 0.414178 0.0287429 0.0225415 0.052172 0.262045 0.220547 0.149048 0.281102 -0.214639 -0.0231779 -0.132942 0.0890958 -0.0689618 -0.181724 0.00808576 -0.0194925 0.0589403 0.229054 -0.0397176 -0.0552921 -0.105847 -0.00561606 0.265514 -0.273252 -0.157577 -0.505131 0.327175 -0.0297352 0.00616322 -0.0237165 0.0828602 0.284614
internal_count=77122 40865 5114 36257 21605 11781 3904 902 35751 14652 13141 3345 3236 2918 2007 9824 19218 6139 16533 10879 4416 6463 9796 5557 2042 3515 4449 3961 6478 3569 3281 2189 1092 3093 9690 8468 7933 1135 2906
cat_boundaries=0 1 2 3 4
cat_threshold=4195328 18875400 33817610 138412056
shrinkage=0.4


Tree=22
num_leaves=40
num_cat=3
split_feature=14 17 20 6 18 7 20 19 6 5 6 15 8 20 19 20 14 19 20 10 6 20 2 5 20 6 6 16 20 19 20 2 19 20 6 6 20 2 20
split_gain=238.66 209.327 193.532 187.138 143.75 128.49 180.221 190.531 162.262 196.426 108.88 106.873 106.665 127.611 114.099 104.972 116.897 112.149 102.845 176.227 145.848 121.218 134.08 100.8 97.5458 97.3854 92.9621 100.751 95.1375 191.556 90.6334 88.3873 86.773 85.2761 75.5243 74.3263 116.113 73.5623 72.6669
threshold=2.5000000000000004 3.5000000000000004 1.9500000000000002 0.2970000000000001 4.5000000000000009 1.5000000000000002 7.0500000000000007 7.5000000000000009 0.17450000000000002 7.5000000000000009 0.17450000000000002 1.5000000000000002 9.5000000000000018 8.7500000000000018 8.5000000000000018 23.350000000000005 9.5000000000000018 23.500000000000004 4.4500000000000002 4.5000000000000009 0.44950000000000007 13.050000000000002 0 4.5000000000000009 2.7000000000000006 0.46550000000000008 0.79150000000000009 1.5000000000000002 9.9000000000000021 17.500000000000004 16.150000000000002 1 6.5000000000000009 0.65000000000000013 0.2970000000000001 0.2970000000000001 8.1500000000000004 2 18.800000000000004
decision_type=2 2 2 2 2 2 2 2 2 2 2 2 2 2 2 2 2 2 2 2 2 2 5 2 2 2 2 2 2 2 2 5 2 2 2 2 2 5 2
left_child=2 4 34 23 5 6 8 -8 9 -2 -3 24 13 32 -15 16 -9 -17 -12 20 35 -21 -23 -4 -10 -16 27 28 -7 -30 -29 38 -5 -11 -1 -20 -37 -24 -22
right_child=1 10 3 12 -6 26 7 15 11 33 18 -13 -14 14 25 17 -18 -19 19 21 31 22 37 -25 -26 -27 -28 30 29 -31 -32 -33 -34 -35 -36 36 -38 -39 -40
leaf_value=0.0083604564212823498 -0.012898484269893205 0.4595872782743895 0.065004658424610215 0.063153822264894799 0.059513682267923564 -0.100413266202782 0.15381642311596083 0.012583426820920833 -0.1229138418828758 0.11530649431748317 -0.10574205347356017 -0.19981929371143048 -0.14521749084129995 0.43942059390246868 0.20361859155037224 0.39244131904272805 -0.087450592852762798 0.048389421409730793 0.61158725783567547 -0.24488509357892552 0.12672094860082042 0.43428256593198866 -0.15623023144322112 0.2681427024028708 -0.03321584330698886 0.060729279319400711 -0.23883237219682543 -0.26906892817431632 0.059596478712950124 -0.067442480559309334 -0.062554379138667113 0.033662517638773003 -0.014271564310405558 0.44938072027629972 -0.066933152667488158 0.0064044728776756323 0.32705111261588377 0.036005901788730185 0.55063217426966693
leaf_count=9905 2646 104 651 4508 2886 3617 1453 8176 2776 280 631 970 462 158 989 210 2423 545 88 325 174 107 402 978 6440 3342 471 650 2931 5394 713 1691 4763 217 2716 265 568 1394 103
internal_value=0 -0.0424843 0.0727888 0.146356 -0.0667399 -0.0823243 -0.0411312 0.0435835 -0.122528 0.0760993 0.134906 -0.183817 0.109583 0.125452 0.263847 -4.97131e-05 -0.0257125 0.360215 0.116559 0.163531 0.326503 -0.0477908 0.0486029 0.467406 -0.150586 0.233396 -0.160476 -0.14502 -0.115622 -0.056789 -0.402597 0.172795 0.0584408 0.652925 -0.0196062 0.654945 0.562612 -0.0191232 0.686102
internal_count=77122 48650 28472 15851 42798 39912 26136 12807 13329 3143 5852 10186 14222 13760 4489 11354 10599 755 5748 5117 2889 2228 1903 1629 9216 4331 13776 13305 11942 8325 1363 1968 9271 497 12621 921 833 1796 277
cat_boundaries=0 1 2 3
cat_threshold=16777248 268828928 402673667
shrinkage=0.4


Tree=23
num_leaves=40
num_cat=2
split_feature=18 10 20 19 19 5 6 20 6 15 14 20 13 5 15 7 20 17 6 7 19 20 14 14 20 8 15 6 20 6 5 2 10 2 6 5 20 19 14
split_gain=210.9 221.521 146.05 247.856 230.293 138.219 134.119 226.835 195.508 147.471 128.518 145.901 126.036 123.286 117.048 116.636 111.902 110.283 103.114 100.803 100.047 95.2994 106.628 95.9496 84.565 84.0738 75.4752 71.9598 70.2041 147.53 109.88 67.724 67.4393 119.901 89.5131 65.567 78.7114 73.021 65.0936
threshold=1.0000000180025095e-35 1.5000000000000002 16.150000000000002 19.500000000000004 23.500000000000004 18.500000000000004 0.60750000000000004 3.2500000000000004 0.27250000000000008 1.5000000000000002 8.5000000000000018 13.050000000000002 1.5000000000000002 18.500000000000004 2.5000000000000004 1.0000000180025095e-35 18.800000000000004 5.0000000000000009 0.68350000000000011 1.0000000180025095e-35 15.000000000000002 23.350000000000005 15.500000000000002 2.5000000000000004 7.0500000000000007 3.5000000000000004 1.5000000000000002 0.52250000000000008 -0.59999999999999987 0.24050000000000002 1.0000000180025095e-35 0 8.5000000000000018 1 0.46550000000000008 16.500000000000004 14.300000000000002 23.500000000000004 9.5000000000000018
decision_type=2 2 2 2 2 2 2 2 2 2 2 2 2 2 2 2 2 2 2 2 2 2 2 2 2 2 2 2 2 2 2 5 2 5 2 2 2 2 2
left_child=19 6 3 5 13 10 7 26 14 12 11 20 15 17 -9 -10 -6 21 32 -1 -3 23 -23 -4 -14 -15 28 -13 -2 30 -30 -20 34 -34 -18 -5 37 -37 -31
right_child=1 2 4 35 16 -7 -8 8 9 -11 -12 27 24 25 -16 -17 18 -19 31 -21 -22 22 -24 -25 -26 -27 -28 -29 29 38 -32 -33 33 -35 -36 36 -38 -39 -40
leaf_value=-0.01589024379245102 -0.032120627241639874 -0.014937323902623825 0.28467696540098902 -0.26218851547833694 -0.17018017359093557 0.2773126818254894 -0.01848041572643401 0.35348899546829915 0.2295121231008809 -0.0075389398837409794 -0.11827927339102765 0.17629094552494928 -0.058585437941752375 -0.030899887159466746 -0.059501275175542982 0.096170013962787515 0.19926029225932684 0.62808856231681376 -0.4352460544171004 -0.082920751265745024 -0.12722611177360904 0.43585342241727904 -0.14174285197435921 0.03591315502583383 0.077667624639441907 0.58605451186312674 -0.11765165506266506 0.019159563875048243 -0.022682123223400852 -0.0010733762659883332 0.15533174773667313 -0.089200032022717882 0.15463984088599683 -0.1391203626273424 0.018071705430215898 -0.11904153123648312 0.020269256850768781 -0.43259445540147062 -0.46426213298525126
leaf_count=9021 3732 11507 271 794 745 245 6695 608 1260 3171 2085 870 1238 48 134 6285 522 59 106 5962 1427 216 67 2933 1772 134 749 1005 757 5225 2077 501 290 863 2656 446 435 162 49
internal_value=0 0.0257668 -0.0393384 -0.0898518 0.0625151 -0.0524356 0.0805233 0.11188 0.19729 0.170262 -0.0632502 -0.0305232 0.227075 0.255656 0.697265 0.296095 -0.0641834 0.214457 -0.0096788 -0.106407 -0.0683152 0.191517 0.74777 0.142385 0.0540683 1.05835 0.0137225 0.230171 0.0331973 0.0854392 0.269455 -0.395674 0.0444194 -0.16275 0.119582 -0.43894 -0.274103 -0.506467 -0.013442
internal_count=77122 62139 28387 18976 9411 17139 33752 27057 14468 13726 16894 14809 10555 3728 742 7545 5683 3546 4938 14983 12934 3487 283 3204 3010 182 12589 1875 11840 8108 2834 607 4331 1153 3178 1837 1043 608 5274
cat_boundaries=0 1 2
cat_threshold=536908034 553914672
shrinkage=0.4


Tree=24
num_leaves=40
num_cat=1
split_feature=15 17 4 15 20 19 19 17 14 20 16 20 20 20 19 20 19 20 19 20 20 6 14 2 5 14 14 17 10 12 15 14 5 4 21 11 16 10 19
split_gain=206.356 214.468 168.631 164.784 123.735 188.719 150.113 126.71 109.768 120.202 106.731 105.117 104.818 94.4595 265.089 197.47 158.841 147.915 116.037 121.188 110.08 102.002 122.861 86.3876 84.9251 92.1299 82.6935 79.0709 78.6039 105.747 75.56 74.2917 72.1844 71.9744 128.121 92.5048 97.3286 78.9329 71.8949
threshold=3.5000000000000004 2.5000000000000004 8.5000000000000018 1.0000000180025095e-35 8.7500000000000018 15.000000000000002 8.5000000000000018 5.0000000000000009 15.500000000000002 17.300000000000001 1.5000000000000002 1.4000000000000001 23.350000000000005 6.0000000000000009 11.500000000000002 9.9000000000000021 8.5000000000000018 13.050000000000002 17.500000000000004 16.150000000000002 13.65 0.60750000000000004 6.5000000000000009 0 9.5000000000000018 3.5000000000000004 6.5000000000000009 3.5000000000000004 5.5000000000000009 0.69050000000000022 1.5000000000000002 9.5000000000000018 13.500000000000002 11.000000000000002 -5.4999999999999991 12.000000000000002 1.0000000180025095e-35 3.5000000000000004 4.5000000000000009
decision_type=2 2 2 2 2 2 2 2 2 2 2 2 2 2 2 2 2 2 2 2 2 2 2 5 2 2 2 2 2 2 2 2 2 2 2 2 2 2 2
left_child=1 3 4 13 6 7 11 26 9 30 -5 -3 28 16 17 -16 24 21 20 -20 -17 22 -15 -14 25 -1 -6 -11 -4 -30 -7 38 -2 35 -35 36 -25 -36 -13
right_child=32 2 12 10 5 8 -8 -9 -10 27 -12 31 23 14 15 18 -18 -19 19 -21 -22 -23 -24 33 -26 -27 -28 -29 29 -31 -32 -33 -34 34 37 -37 -38 -39 -40
leaf_value=0.012510351315038318 -0.23822246890038606 0.020140563260209052 -0.040827887074787489 -0.022142919128135236 0.33020619418596425 0.080240784647843205 -0.034739186994093639 0.91294870376586923 -0.29427177532627358 0.091586995647007299 -0.10414997001873694 0.46603379246373122 -0.079228800921083364 0.19480248751662332 -0.12934559858476338 0.029235853589297325 -0.13422775294078013 0.58178120042698889 -0.12388308148901783 0.031311989992521903 0.19149650632098128 0.024289988382958708 0.020560922486719757 0.56743196767645998 0.14722106022372586 -0.054810562044344584 0.13330317918325452 0.33430497202423071 0.28694924968376495 -0.29262648662745816 -0.084567780984565619 -0.11959999369836488 -0.047997670880239797 -0.44438606669873365 0.40636877721264253 -0.10195985941659838 0.15508999525182016 0.019960214092513955 0.17759195080724199
leaf_count=16370 753 1175 1510 23908 629 1724 2570 44 127 430 2841 163 548 2203 1676 2094 1428 104 1272 2193 983 1813 917 154 639 4059 746 429 57 433 600 113 554 81 105 105 226 435 911
internal_value=0 0.00677883 0.122011 -0.0177702 0.191221 0.306796 0.0804037 0.611899 0.175998 0.212373 -0.0771321 0.262384 -0.0609782 0.0266446 0.0936086 -0.0171071 -0.0128117 0.274244 0.0613531 -0.0641501 0.202682 0.249362 0.358978 0.125265 0.00906501 -0.00216379 0.558443 0.532012 -0.215002 -0.563016 0.0942281 0.472272 -0.393979 0.284689 0.0618202 0.575923 0.805493 0.237738 0.553421
internal_count=77122 75815 13315 62500 9661 4729 4932 1419 3310 3183 26749 2362 3654 35751 13255 8218 22496 5037 6542 3465 3077 4933 3120 1654 21068 20429 1375 859 2000 490 2324 1187 1307 1106 621 485 380 540 1074
cat_boundaries=0 1
cat_threshold=29507978
shrinkage=0.4


Tree=25
num_leaves=40
num_cat=7
split_feature=18 12 17 16 16 14 17 20 16 15 3 1 5 10 1 7 2 10 20 9 2 1 2 21 13 20 6 11 14 20 9 20 4 1 11 10 13 15 20
split_gain=201.683 158.968 119.868 107.065 102.034 87.3324 94.2985 95.9208 105.322 103.187 95.622 88.171 85.4096 134.521 115.31 124.437 92.7286 83.1646 101.315 82.494 82.3915 78.7814 75.0902 83.5975 71.0107 101.238 68.7445 68.4856 67.0249 63.7864 82.4343 63.0876 62.9629 61.8926 61.5783 55.9931 55.8098 55.4545 69.5869
threshold=3.5000000000000004 0.76800000000000013 1.0000000180025095e-35 1.0000000180025095e-35 2.5000000000000004 6.5000000000000009 5.0000000000000009 -1.3999999999999997 1.5000000000000002 2.5000000000000004 24.345000000000002 0 14.500000000000002 3.5000000000000004 1 3.5000000000000004 2 8.5000000000000018 11.350000000000001 0.36650000000000005 3 4 5 6.5000000000000009 1.5000000000000002 27.050000000000004 0.2970000000000001 4.5000000000000009 11.500000000000002 10.400000000000002 0.41450000000000004 10.400000000000002 11.000000000000002 6 12.000000000000002 3.5000000000000004 5.5000000000000009 2.5000000000000004 3.9500000000000006
decision_type=2 2 2 2 2 2 2 2 2 2 2 5 2 2 5 2 5 2 2 2 5 5 5 2 2 2 2 2 2 2 2 2 2 5 2 2 2 2 2
left_child=1 2 3 -1 21 6 7 10 9 -9 -4 -7 13 28 24 22 -17 18 -15 20 -20 32 26 -24 25 31 -16 -18 37 -13 36 -14 -2 -25 -26 -8 -31 38 -3
right_child=4 12 5 -5 -6 11 35 8 -10 -11 -12 29 14 17 15 16 27 -19 19 -21 -22 -23 23 33 34 -27 -28 -29 -30 30 -32 -33 -34 -35 -36 -37 -38 -39 -40
leaf_value=-0.0034742914172942439 0.015228352675405147 -0.074893110591739642 -0.023592139296511491 -0.075454432748640818 -0.099704315362887541 -0.1135985574157846 0.47559538867657747 0.057875758189061238 -0.067813933527608991 -0.077727670982384284 -0.32155331615648119 -0.053619674936924634 -0.21209902495145797 -0.17430456979336625 0.29367579194632443 0.035904510756851644 -0.096727689138580375 -0.3195643691287639 0.23575990200042726 -0.12114864431865265 -0.024098022055658079 0.077247366322457545 0.00067798301027025877 -0.12770485838663512 0.044760357510475884 0.47389409371528279 -0.098973255030941287 -0.33424579213772504 -0.24867765001763811 0.11971492131967668 -0.051990894818999371 0.17524840944770276 -0.24879213654877327 0.20284283964945371 -0.47566051327051934 0.0094034006759043665 -0.11906166800308503 -0.16024501118116097 0.0021164224777115203
leaf_count=15115 2937 2528 1609 4232 708 1269 123 15516 1310 953 193 1751 80 1656 77 352 392 287 227 1254 1102 8220 1377 100 210 166 971 385 217 1568 923 423 152 707 44 62 174 457 7295
internal_value=0 -0.0219883 0.0112808 -0.0480484 0.119011 0.0563808 0.0877961 0.0810824 0.103365 0.125072 -0.138762 -0.0528461 -0.0953812 -0.133843 0.013971 -0.0542039 -0.340134 -0.277953 -0.242681 -0.118895 0.0546992 0.142067 0.0455093 0.15078 0.333063 0.507581 -0.173653 -0.529231 -0.0717075 0.0141892 0.11164 0.284106 0.00557379 0.407035 -0.113478 0.798395 0.239662 -0.0600979 -0.044256
internal_count=77122 65105 44798 19347 12017 25451 19766 19581 17779 16469 1802 5685 20307 15023 5284 4361 1129 4526 4239 2583 1329 11309 3232 2184 923 669 1048 777 10497 4416 2665 503 3089 807 254 185 1742 10280 9823
cat_boundaries=0 1 2 3 4 5 6 7
cat_threshold=184943619 16925697 830476339 419692800 51004417 558121227 138412032
shrinkage=0.4


Tree=26
num_leaves=40
num_cat=2
split_feature=6 20 10 14 7 7 6 20 20 19 20 19 19 20 6 7 19 20 13 15 10 6 19 20 15 20 1 6 10 14 6 20 6 2 4 13 5 19 20
split_gain=206.038 211.827 213.237 196.923 235.688 191.093 138.296 131.87 126.348 148.429 125.132 291.43 224.789 167.637 158.065 119.123 117.621 182.028 109.796 105.275 100.957 91.4275 89.9016 144.532 88.4213 87.2097 103.348 92.2141 83.7519 80.5704 93.4403 90.9298 95.7311 72.2136 85.2814 70.9263 70.7295 68.5385 110.5
threshold=0.52250000000000008 8.1500000000000004 5.5000000000000009 9.5000000000000018 1.0000000180025095e-35 1.0000000180025095e-35 0.27250000000000008 1.4000000000000001 11.350000000000001 15.000000000000002 14.300000000000002 15.000000000000002 12.500000000000002 10.400000000000002 0.79150000000000009 3.5000000000000004 18.500000000000004 18.800000000000004 1.0000000180025095e-35 1.0000000180025095e-35 2.5000000000000004 0.40600000000000008 23.500000000000004 27.050000000000004 2.5000000000000004 16.150000000000002 0 0.2970000000000001 8.5000000000000018 1.5000000000000002 0.17450000000000002 2.7000000000000006 0.2970000000000001 1 11.000000000000002 2.5000000000000004 9.5000000000000018 4.5000000000000009 6.0000000000000009
decision_type=2 2 2 2 2 2 2 2 2 2 2 2 2 2 2 2 2 2 2 2 2 2 2 2 2 2 5 2 2 2 2 2 2 5 2 2 2 2 2
left_child=1 5 3 4 21 7 -6 -1 9 -8 12 -12 13 37 16 -10 -13 -18 19 20 -9 -3 24 -24 -19 27 -27 28 -4 -7 -31 -32 36 -28 -35 -36 -33 -2 -39
right_child=10 2 25 -5 6 29 8 18 15 -11 11 14 -14 -15 -16 -17 17 22 -20 -21 -22 -23 23 -25 -26 26 33 -29 -30 30 31 32 -34 34 35 -37 -38 38 -40
leaf_value=-0.0068772097451721293 0.013702562813154304 0.37841938788290408 0.22463825968555129 -0.03626859228885141 0.49688716564083202 0.012676416326624652 0.05951157537433837 0.21501211414098345 0.15401734909887635 -0.11764184668731228 0.19324070762338799 0.10343366334956566 -0.13646991793613503 0.091369553493708233 -0.19542753059860249 0.017293503850195537 -0.13141000845635817 0.16040679375751832 0.01864989660714576 0.042168700068924203 -0.0075908719511898481 0.17275211845777344 -0.07953726488594362 0.086676460497332616 -0.11989288068323566 0.16484847054268947 0.12012632730254034 -0.1738457989462357 -0.27169721144437792 0.085399141026725786 -0.13996008476839175 -0.035640506295176157 -0.069992095127176329 -0.033692383182482473 -0.18199123440007137 -0.72323250651359561 0.13175380101529499 -0.14636633276445607 -0.032626987035888101
leaf_count=12768 2266 527 198 2078 122 3540 3150 1606 3338 996 1151 1348 3893 1693 758 1468 1884 992 5671 2122 409 1006 2211 1347 220 534 373 1006 75 688 2142 904 6038 1182 172 50 730 1962 4504
internal_value=0 0.035009 0.129933 0.190827 0.245975 -0.0071805 0.184706 0.049792 0.170293 0.0423843 -0.0763424 0.0100347 -0.136133 -0.0595645 -0.0521229 0.280637 -0.01078 -0.0653491 0.136993 0.260869 0.424572 0.608636 0.0385972 -0.0415287 0.273818 -0.0852301 0.0307199 -0.294738 0.220706 -0.098778 -0.142756 -0.167731 -0.11687 -0.0857305 -0.18969 -0.759731 0.0978599 -0.115401 -0.167848
internal_count=77122 52893 16275 12685 10607 36618 9074 22576 8952 4146 24229 9911 14318 10425 8760 4806 8002 6654 9808 4137 2015 1533 4770 3558 1212 3590 2311 1279 273 14042 10502 9814 7672 1777 1404 222 1634 8732 6466
cat_boundaries=0 1 2
cat_threshold=33701953 16810401
shrinkage=0.4


Tree=27
num_leaves=40
num_cat=5
split_feature=14 18 17 16 20 6 8 19 9 20 19 20 19 6 14 15 21 2 19 17 15 20 19 6 2 19 20 6 1 20 20 5 19 3 1 20 10 2 20
split_gain=177.94 198.003 171.423 114.516 111.414 162.279 147.885 118.729 108.599 101.586 167.443 92.6824 136.588 92.6804 91.1279 85.7373 81.9508 79.6311 78.0871 76.5396 61.9976 67.2384 92.812 60.3299 59.743 57.2767 72.5751 60.0214 57.2584 56.0787 53.9603 96.3968 118.995 52.2599 50.8946 76.6129 69.1003 53.284 57.5079
threshold=6.5000000000000009 1.5000000000000002 1.0000000180025095e-35 1.0000000180025095e-35 5.2000000000000002 0.34850000000000003 9.5000000000000018 7.5000000000000009 0.41450000000000004 11.350000000000001 8.5000000000000018 23.350000000000005 21.500000000000004 0.17450000000000002 11.500000000000002 1.5000000000000002 10.500000000000002 0 21.500000000000004 5.0000000000000009 1.5000000000000002 8.7500000000000018 21.500000000000004 0.38200000000000006 1 9.5000000000000018 5.2000000000000002 0.52250000000000008 2 16.150000000000002 1.0000000180025095e-35 7.5000000000000009 3.5000000000000004 24.345000000000002 3 17.300000000000001 5.5000000000000009 4 23.350000000000005
decision_type=2 2 2 2 2 2 2 2 2 2 2 2 2 2 2 2 2 5 2 2 2 2 2 2 5 2 2 2 5 2 2 2 2 2 5 2 2 5 2
left_child=1 3 25 34 7 13 9 30 16 10 -7 14 15 -6 19 -13 -8 -14 -11 20 21 -2 29 -9 -24 26 -3 -28 -19 -23 33 32 -32 -4 35 -1 -36 -38 -39
right_child=11 2 4 -5 5 6 8 23 -10 18 -12 12 17 -15 -16 -17 -18 28 -20 -21 -22 22 24 -25 -26 -27 27 -29 -30 -31 31 -33 -34 -35 36 -37 37 38 -40
leaf_value=0.02566718058833134 -0.069913254168562228 -0.018200131625069085 0.023306466358171293 -0.061927369673377586 0.73414033308911786 0.17763682539636594 -0.029802188405114945 -0.0096174615261107634 -0.20986058718463371 0.15645875713363683 0.0026074202421395068 0.90017658217355268 0.1757804337582386 0.18882825005168438 -0.11643260119300013 0.20133454108863702 0.36998255115629425 -0.1998768838009371 0.056561594659180037 0.14909788275058841 -0.096050234531956963 0.0070395176513244799 -0.27207729617156179 -0.14811845549191646 -0.04950936289048935 -0.055001612540622684 0.14633655325872599 -0.0049608494176927066 0.0057746931451419549 0.12130545588703279 0.14684693852660305 0.20838605207349753 -0.0073802067106666898 -0.12750472712349023 -0.0056386470428736804 0.26365357204258705 -0.38470037520652817 -0.17299209514288849 0.16829280057631502
leaf_count=4265 3232 4102 1951 6145 52 1089 437 1223 530 3025 4440 43 391 1216 2614 81 101 237 2136 355 2435 3588 239 855 928 3359 957 747 1763 850 1198 676 2412 453 18259 228 114 287 109
internal_value=0 0.0253595 0.0811771 -0.0334039 0.129432 0.188092 0.151438 0.042284 -0.203374 0.186887 0.0927037 -0.0911187 0.0858574 0.527978 -0.122373 1.10919 0.113126 0.0327864 0.287785 -0.0844439 -0.0988426 -0.0599127 0.00632489 -0.16651 -0.244617 -0.0335704 0.0265593 0.200027 -0.0486705 0.0723115 0.107138 0.1744 0.109502 -0.0127795 -0.00133052 0.0941503 -0.0242244 -0.387292 -0.192764
internal_count=77122 60366 30959 29407 21794 13026 11758 8768 1068 10690 5529 16756 2515 1268 14241 124 538 2391 5161 11627 11272 8837 5605 2078 1167 9165 5806 1704 2000 4438 6690 4286 3610 2404 23262 4493 18769 510 396
cat_boundaries=0 1 2 3 4 5
cat_threshold=809500681 8438057 184811529 2506769 8654851
shrinkage=0.4


Tree=28
num_leaves=40
num_cat=2
split_feature=15 17 6 20 14 20 20 10 3 19 18 16 19 19 12 20 1 20 10 8 20 19 20 14 19 20 19 2 14 19 20 4 4 20 5 6 20 14 19
split_gain=191 165.633 154.78 114.788 109.117 119.832 105.866 121.573 92.2342 90.0085 87.4602 85.2109 84.619 83.9901 83.6408 119.112 65.3384 68.9926 91.673 88.5545 63.863 63.6238 132.388 90.5558 109.931 78.6826 78.4663 64.6943 75.8443 62.4198 112.469 105.966 73.1852 57.785 57.2755 108.691 56.9242 55.0416 61.9646
threshold=1.5000000000000002 1.5000000000000002 0.46550000000000008 16.150000000000002 1.5000000000000002 5.2000000000000002 3.9500000000000006 2.5000000000000004 27.695000000000004 4.5000000000000009 4.5000000000000009 1.5000000000000002 12.500000000000002 7.5000000000000009 0.76800000000000013 23.350000000000005 0 23.350000000000005 8.5000000000000018 9.5000000000000018 7.0500000000000007 27.500000000000004 16.150000000000002 3.5000000000000004 17.500000000000004 10.400000000000002 15.000000000000002 1 11.500000000000002 23.500000000000004 13.65 6.5000000000000009 5.5000000000000009 1.4000000000000001 9.5000000000000018 0.2970000000000001 13.050000000000002 13.000000000000002 27.500000000000004
decision_type=2 2 2 2 2 2 2 2 2 2 2 2 2 2 2 2 5 2 2 2 2 2 2 2 2 2 2 5 2 2 2 2 2 2 2 2 2 2 2
left_child=1 4 6 8 5 -1 9 11 -2 33 34 13 -5 -8 15 29 36 18 -18 -19 -15 22 23 -4 25 -25 -24 -28 -29 30 32 -32 -6 -3 -10 -36 -9 38 -17
right_child=3 2 21 12 14 -7 7 16 10 -11 -12 -13 -14 20 -16 37 17 19 -20 -21 -22 -23 26 24 -26 -27 27 28 -30 -31 31 -33 -34 -35 35 -37 -38 -39 -40
leaf_value=0.0070990970934270833 -0.031575726809630389 0.060106063255546849 0.048708187660039481 0.41562925605103374 -0.0084614470624816539 0.10413327087194445 0.40128958126471642 0.089510957405648461 -0.19820370482773003 -0.027377934482162088 0.061633572860871656 -0.010185323944031533 0.00074191176037999372 0.093654465890623706 -0.051159186065547903 0.65352895287672685 0.038756264246130989 0.55859544088785673 -0.21985505431767846 -0.02259398463331623 0.23471792744072306 -0.070131002923025834 0.51377692246759266 -0.062916638928534607 -0.17722830635401002 0.067806392933517423 0.21414564043110193 0.099065317199806019 -0.12615028607826204 -0.21422328913407723 0.20778033728691986 0.011884960809658597 -0.11141897276436402 0.25136323358516321 0.088653896176639727 -0.13388567357503786 0.37519604850666866 -0.098630169837498199 0.1907894477494492
leaf_count=11664 4878 1765 2579 80 16484 2467 287 308 1336 2321 416 361 4679 944 8881 75 2250 87 243 81 1126 1572 74 1942 828 1187 506 1026 312 232 723 1136 1184 295 425 2021 175 51 121
internal_value=0 0.0232057 0.0977347 -0.1065 -0.0119105 0.0600985 0.18419 0.272078 -0.172458 0.0665916 -0.281125 0.426964 0.0192907 0.496258 -0.047136 -0.0112843 0.138178 0.075388 0.0338717 0.695948 0.425969 0.00940811 0.0437592 -0.0240302 -0.119057 -0.0333157 0.274766 0.234248 0.115508 -0.0199114 -0.013785 0.220181 -0.0384026 0.218737 -0.328996 -0.238047 0.472762 0.678847 0.919645
internal_count=77122 63287 20269 13835 43018 14131 10243 5862 9076 4381 4198 2718 4759 2357 28887 20006 3144 2661 2493 168 2070 10026 8454 6536 3957 3129 1918 1844 1338 19759 19527 1859 17668 2060 3782 2446 483 247 196
cat_boundaries=0 1 2
cat_threshold=52559873 272798083
shrinkage=0.4


Tree=29
num_leaves=40
num_cat=4
split_feature=6 16 18 15 7 20 19 10 20 1 4 20 14 4 20 20 12 6 1 20 10 10 6 20 19 19 7 12 20 13 14 20 7 2 1 12 20 20 19
split_gain=147.823 167.093 151.227 101.867 91.5255 132.909 133.117 106.135 87.1939 98.6951 97.1906 83.3933 78.6666 76.1451 108.222 70.5606 99.9208 70.3227 65.6743 78.2855 64.875 64.3675 68.7487 62.7427 148.434 91.4867 62.0323 60.8022 60.4932 70.2439 59.4158 59.2465 58.1687 55.8584 53.4355 51.6736 41.7086 41.5348 104.411
threshold=0.68350000000000011 2.5000000000000004 2.5000000000000004 1.0000000180025095e-35 2.5000000000000004 9.9000000000000021 12.500000000000002 3.5000000000000004 17.300000000000001 0 11.000000000000002 23.350000000000005 8.5000000000000018 3.5000000000000004 11.350000000000001 3.6000000000000001 0.63350000000000006 0.17450000000000002 1 23.350000000000005 1.5000000000000002 4.5000000000000009 0.38200000000000006 5.2000000000000002 9.5000000000000018 6.5000000000000009 2.5000000000000004 0.76800000000000013 -0.59999999999999987 3.5000000000000004 1.0000000180025095e-35 8.1500000000000004 1.0000000180025095e-35 2 3 0.52800000000000014 23.350000000000005 8.1500000000000004 12.500000000000002
decision_type=2 2 2 2 2 2 2 2 2 5 2 2 2 2 2 2 2 2 5 2 2 2 2 2 2 2 2 2 2 2 2 2 2 5 5 2 2 2 2
left_child=1 2 4 28 5 7 30 23 -6 -10 35 32 -13 14 -2 -5 26 -18 19 -15 -19 22 -8 25 -25 -1 31 -21 -4 37 -7 -17 -3 -12 -23 -11 -28 -30 -39
right_child=13 11 3 15 8 6 21 -9 9 10 33 12 -14 18 -16 16 17 20 -20 27 -22 34 -24 24 -26 -27 36 -29 29 -31 -32 -33 -34 -35 -36 -37 -38 38 -40
leaf_value=-0.0041921158558552753 -0.020088878175582761 -0.0769005342738312 -0.024489873565367557 -0.055334811448498257 -0.082450226186999404 0.68042920511780369 0.27563044734893832 -0.11759883257824054 0.14712950575179892 0.17191568634339743 0.05025395197911306 0.45549923290669075 -0.035261158716648519 -0.022038225267109354 0.31015597284737839 0.049189452132571858 0.39517873187643898 0.14629694823332876 -0.097834009541208841 0.72745546126472105 -0.022435445607855251 0.10558271810544587 0.041583697375031176 0.072331307859758498 -0.042613563614323571 -0.084582999523222624 -0.032294501982455565 0.10612989039648146 0.065795863275408289 -0.04682498983526176 0.13849602448643991 0.16397376138099309 -0.23028936532058483 -0.29855989393125587 -0.058349968487433512 -0.023262202012351855 0.29694265913444035 0.31182245500240247 0.096767935297318475
leaf_count=19251 3644 872 1008 2029 4139 33 213 1346 635 266 101 71 198 554 166 1447 69 391 4436 42 5397 374 3508 4715 2905 2567 916 63 4707 654 1693 1431 724 284 1869 1179 66 416 2743
internal_value=0 0.0158084 0.0241059 0.0935996 -0.00869084 0.00997763 0.127574 -0.0193985 -0.117451 0.0314438 -0.0868138 -0.279394 0.235676 -0.121184 -0.0142506 0.0312768 0.0666938 -0.0156286 -0.201148 0.0935356 -0.0275924 0.0567945 0.137453 -0.00684296 0.0712762 -0.0341263 0.191606 0.88665 0.17043 0.197837 0.372144 0.265656 -0.366207 -0.533756 -0.0770127 0.0316668 -0.0254164 0.224019 0.31272
internal_count=77122 68217 66352 21274 45078 38474 7690 30784 6604 2465 1830 1865 269 8905 3810 11746 9717 5857 5095 659 5788 5964 3721 29438 7620 21818 3860 105 9528 8520 1726 2878 1596 385 2243 1445 982 7866 3159
cat_boundaries=0 1 2 3 4
cat_threshold=151274499 4325386 276844569 33701929
shrinkage=0.4


Tree=30
num_leaves=40
num_cat=4
split_feature=14 17 20 19 5 6 19 20 19 2 19 18 14 15 20 20 6 1 8 20 20 3 19 1 20 6 6 5 20 20 19 5 20 1 6 6 16 9 16
split_gain=148.937 162.527 81.7814 149.597 114.506 102.59 99.9168 86.1321 94.2763 86.0957 80.8151 78.0079 77.6553 68.0689 66.6757 66.4537 145.424 66.0333 71.1897 96.1356 63.7661 61.1975 72.2838 71.926 64.8279 59.5187 58.5788 119.22 84.1045 54.8282 53.3857 72.9965 52.698 86.4133 52.9825 52.5479 50.1975 48.1612 47.9123
threshold=4.5000000000000009 2.5000000000000004 14.300000000000002 15.000000000000002 14.500000000000002 0.38200000000000006 12.500000000000002 11.350000000000001 10.500000000000002 0 9.5000000000000018 1.0000000180025095e-35 1.0000000180025095e-35 1.0000000180025095e-35 -1.0000000180025095e-35 2.7000000000000006 0.34850000000000003 1 7.5000000000000009 23.350000000000005 23.350000000000005 24.345000000000002 19.500000000000004 2 18.800000000000004 0.2970000000000001 0.17450000000000002 2.5000000000000004 2.7000000000000006 8.7500000000000018 27.500000000000004 14.500000000000002 27.050000000000004 3 0.60750000000000004 0.24050000000000002 1.5000000000000002 0.32050000000000006 2.5000000000000004
decision_type=2 2 2 2 2 2 2 2 2 5 2 2 2 2 2 2 2 5 2 2 2 2 2 5 2 2 2 2 2 2 2 2 2 5 2 2 2 2 2
